{"learner":{"attributes":{},"feature_names":["claim_to_damage_ratio","vehicle_age","previous_claims_count","days_since_policy_start","location_risk_score","incident_time_hour"],"feature_types":["float","int","int","int","float","int"],"gradient_booster":{"model":{"gbtree_model_param":{"num_parallel_tree":"1","num_trees":"100"},"iteration_indptr":[0,1,2,3,4,5,6,7,8,9,10,11,12,13,14,15,16,17,18,19,20,21,22,23,24,25,26,27,28,29,30,31,32,33,34,35,36,37,38,39,40,41,42,43,44,45,46,47,48,49,50,51,52,53,54,55,56,57,58,59,60,61,62,63,64,65,66,67,68,69,70,71,72,73,74,75,76,77,78,79,80,81,82,83,84,85,86,87,88,89,90,91,92,93,94,95,96,97,98,99,100],"tree_info":[0,0,0,0,0,0,0,0,0,0,0,0,0,0,0,0,0,0,0,0,0,0,0,0,0,0,0,0,0,0,0,0,0,0,0,0,0,0,0,0,0,0,0,0,0,0,0,0,0,0,0,0,0,0,0,0,0,0,0,0,0,0,0,0,0,0,0,0,0,0,0,0,0,0,0,0,0,0,0,0,0,0,0,0,0,0,0,0,0,0,0,0,0,0,0,0,0,0,0,0],"trees":[{"base_weights":[-2.5531903E-1,-1.2019874E-1,1.7661034E0,-9.533006E-2,3.0695207E0,-7.143342E-2,4.0286928E-1],"categories":[],"categories_nodes":[],"categories_segments":[],"categories_sizes":[],"default_left":[0,0,0,0,0,0,0],"id":0,"left_children":[1,-1,3,-1,5,-1,-1],"loss_changes":[6.1675003E1,0E0,3.95436E1,0E0,2.9083618E1,0E0,0E0],"parents":[2147483647,0,0,2,2,4,4],"right_children":[2,-1,4,-1,6,-1,-1],"split_conditions":[1.54E0,-1.2019874E-1,3E0,-9.533006E-2,8.6E-1,-7.143342E-2,4.0286928E-1],"split_indices":[0,0,2,0,4,0,0],"split_type":[0,0,0,0,0,0,0],"sum_hessian":[3.0120218E1,2.07895E1,9.33072E0,3.11024E0,6.22048E0,1.3095747E0,4.910905E0],"tree_param":{"num_deleted":"0","num_feature":"6","num_nodes":"7","size_leaf_vector":"1"}},{"base_weights":[-2.4096613E-1,-1.1698514E-1,1.4606509E0,-9.254169E-2,2.4235492E0,-6.834347E-2,3.0656976E-1],"categories":[],"categories_nodes":[],"categories_segments":[],"categories_sizes":[],"default_left":[0,0,0,0,0,0,0],"id":1,"left_children":[1,-1,3,-1,5,-1,-1],"loss_changes":[5.002028E1,0E0,2.8062382E1,0E0,1.8621223E1,0E0,0E0],"parents":[2147483647,0,0,2,2,4,4],"right_children":[2,-1,4,-1,6,-1,-1],"split_conditions":[1.54E0,-1.1698514E-1,8.6E-1,-9.254169E-2,2E0,-6.834347E-2,3.0656976E-1],"split_indices":[0,0,4,0,2,0,0],"split_type":[0,0,0,0,0,0,0],"sum_hessian":[2.9565176E1,1.9327248E1,1.0237927E1,2.9548116E0,7.283116E0,1.2364341E0,6.046682E0],"tree_param":{"num_deleted":"0","num_feature":"6","num_nodes":"7","size_leaf_vector":"1"}},{"base_weights":[-2.2939119E-1,-1.1412829E-1,1.2581087E0,-8.961235E-2,2.0276468E0,-6.617304E-2,2.5217545E-1],"categories":[],"categories_nodes":[],"categories_segments":[],"categories_sizes":[],"default_left":[0,0,0,0,0,0,0],"id":2,"left_children":[1,-1,3,-1,5,-1,-1],"loss_changes":[4.17006E1,0E0,2.1307604E1,0E0,1.3587315E1,0E0,0E0],"parents":[2147483647,0,0,2,2,4,4],"right_children":[2,-1,4,-1,6,-1,-1],"split_conditions":[1.54E0,-1.1412829E-1,3E0,-8.961235E-2,8.6E-1,-6.617304E-2,2.5217545E-1],"split_indices":[0,0,2,0,4,0,0],"split_type":[0,0,0,0,0,0,0],"sum_hessian":[2.8684153E1,1.7927E1,1.07571535E1,2.7879937E0,7.96916E0,1.184237E0,6.784923E0],"tree_param":{"num_deleted":"0","num_feature":"6","num_nodes":"7","size_leaf_vector":"1"}},{"base_weights":[-2.2005361E-1,-1.1156219E-1,1.1125934E0,-8.715692E-2,1.7677397E0,-6.341188E-2,2.1710002E-1],"categories":[],"categories_nodes":[],"categories_segments":[],"categories_sizes":[],"default_left":[0,0,0,0,0,0,0],"id":3,"left_children":[1,-1,3,-1,5,-1,-1],"loss_changes":[3.53596E1,0E0,1.712745E1,0E0,1.0427441E1,0E0,0E0],"parents":[2147483647,0,0,2,2,4,4],"right_children":[2,-1,4,-1,6,-1,-1],"split_conditions":[1.54E0,-1.1156219E-1,8.6E-1,-8.715692E-2,2E0,-6.341188E-2,2.1710002E-1],"split_indices":[0,0,4,0,2,0,0],"split_type":[0,0,0,0,0,0,0],"sum_hessian":[2.7587378E1,1.6596807E1,1.099057E1,2.6461504E0,8.3444195E0,1.1172848E0,7.2271347E0],"tree_param":{"num_deleted":"0","num_feature":"6","num_nodes":"7","size_leaf_vector":"1"}},{"base_weights":[-2.1248402E-1,-1.0923374E-1,1.002206E0,-8.4538035E-2,1.5753975E0,-6.147334E-2,1.9256578E-1],"categories":[],"categories_nodes":[],"categories_segments":[],"categories_sizes":[],"default_left":[0,0,0,0,0,0,0],"id":4,"left_children":[1,-1,3,-1,5,-1,-1],"loss_changes":[3.032832E1,0E0,1.4052452E1,0E0,8.484245E0,0E0,0E0],"parents":[2147483647,0,0,2,2,4,4],"right_children":[2,-1,4,-1,6,-1,-1],"split_conditions":[1.54E0,-1.0923374E-1,3E0,-8.4538035E-2,8.6E-1,-6.147334E-2,1.9256578E-1],"split_indices":[0,0,2,0,4,0,0],"split_type":[0,0,0,0,0,0,0],"sum_hessian":[2.6353071E1,1.534137E1,1.1011701E1,2.4949107E0,8.51679E0,1.0701578E0,7.4466324E0],"tree_param":{"num_deleted":"0","num_feature":"6","num_nodes":"7","size_leaf_vector":"1"}},{"base_weights":[-2.063482E-1,-1.07099645E-1,9.1495156E-1,-8.232997E-2,1.434352E0,-5.8980163E-2,1.7442237E-1],"categories":[],"categories_nodes":[],"categories_segments":[],"categories_sizes":[],"default_left":[0,0,0,0,0,0,0],"id":5,"left_children":[1,-1,3,-1,5,-1,-1],"loss_changes":[2.622562E1,0E0,1.1903385E1,0E0,6.9928513E0,0E0,0E0],"parents":[2147483647,0,0,2,2,4,4],"right_children":[2,-1,4,-1,6,-1,-1],"split_conditions":[1.54E0,-1.07099645E-1,8.6E-1,-8.232997E-2,2E0,-5.8980163E-2,1.7442237E-1],"split_indices":[0,0,4,0,2,0,0],"split_type":[0,0,0,0,0,0,0],"sum_hessian":[2.5039124E1,1.4162841E1,1.0876283E1,2.3676138E0,8.508669E0,1.0097002E0,7.4989686E0],"tree_param":{"num_deleted":"0","num_feature":"6","num_nodes":"7","size_leaf_vector":"1"}},{"base_weights":[-2.0136897E-1,-1.0512414E-1,8.43768E-1,-7.994587E-2,1.3193236E-1],"categories":[],"categories_nodes":[],"categories_segments":[],"categories_sizes":[],"default_left":[0,0,0,0,0],"id":6,"left_children":[1,-1,3,-1,-1],"loss_changes":[2.2816114E1,0E0,1.0140619E1,0E0,0E0],"parents":[2147483647,0,0,2,2],"right_children":[2,-1,4,-1,-1],"split_conditions":[1.54E0,-1.0512414E-1,3E0,-7.994587E-2,1.3193236E-1],"split_indices":[0,0,2,0,0],"split_type":[0,0,0,0,0],"sum_hessian":[2.3688465E1,1.3061459E1,1.06270075E1,2.232334E0,8.394673E0],"tree_param":{"num_deleted":"0","num_feature":"6","num_nodes":"5","size_leaf_vector":"1"}},{"base_weights":[-1.9510883E-1,-1.03277445E-1,7.742921E-1,-8.051805E-2,1.2478641E0,4.4889897E-2,1.3942824E-1],"categories":[],"categories_nodes":[],"categories_segments":[],"categories_sizes":[],"default_left":[0,0,0,0,0,0,0],"id":7,"left_children":[1,-1,3,-1,5,-1,-1],"loss_changes":[1.9883976E1,0E0,9.581112E0,0E0,4.5189762E-1,0E0,0E0],"parents":[2147483647,0,0,2,2,4,4],"right_children":[2,-1,4,-1,6,-1,-1],"split_conditions":[1.54E0,-1.03277445E-1,8.6E-1,-8.051805E-2,8E0,4.4889897E-2,1.3942824E-1],"split_indices":[0,0,4,0,5,0,0],"split_type":[0,0,0,0,0,0,0],"sum_hessian":[2.2501862E1,1.2036056E1,1.0465807E1,2.2526078E0,8.213199E0,1.9017467E0,6.311452E0],"tree_param":{"num_deleted":"0","num_feature":"6","num_nodes":"7","size_leaf_vector":"1"}},{"base_weights":[-1.8714498E-1,-1.0153446E-1,7.2236717E-1,-7.819454E-2,1.1600854E0,4.174468E-2,1.300213E-1],"categories":[],"categories_nodes":[],"categories_segments":[],"categories_sizes":[],"default_left":[0,0,0,0,0,0,0],"id":8,"left_children":[1,-1,3,-1,5,-1,-1],"loss_changes":[1.7526781E1,0E0,8.288405E0,0E0,4.0274143E-1,0E0,0E0],"parents":[2147483647,0,0,2,2,4,4],"right_children":[2,-1,4,-1,6,-1,-1],"split_conditions":[1.54E0,-1.0153446E-1,8.6E-1,-7.819454E-2,8E0,4.174468E-2,1.300213E-1],"split_indices":[0,0,4,0,5,0,0],"split_type":[0,0,0,0,0,0,0],"sum_hessian":[2.1294271E1,1.1084442E1,1.0209829E1,2.1239629E0,8.085866E0,1.9151465E0,6.1707196E0],"tree_param":{"num_deleted":"0","num_feature":"6","num_nodes":"7","size_leaf_vector":"1"}},{"base_weights":[-1.7993943E-1,-9.987399E-2,6.7604774E-1,-7.7187665E-2,1.09946005E-1],"categories":[],"categories_nodes":[],"categories_segments":[],"categories_sizes":[],"default_left":[0,0,0,0,0],"id":9,"left_children":[1,-1,3,-1,-1],"loss_changes":[1.5485487E1,0E0,7.547775E0,0E0,0E0],"parents":[2147483647,0,0,2,2],"right_children":[2,-1,4,-1,-1],"split_conditions":[1.54E0,-9.987399E-2,3E0,-7.7187665E-2,1.09946005E-1],"split_indices":[0,0,2,0,0],"split_type":[0,0,0,0,0],"sum_hessian":[2.0130915E1,1.0203713E1,9.927202E0,2.0599363E0,7.8672657E0],"tree_param":{"num_deleted":"0","num_feature":"6","num_nodes":"5","size_leaf_vector":"1"}},{"base_weights":[-1.7587459E-1,-9.928594E-2,6.1766523E-1,-7.415909E-2,1.0406072E0,3.7150666E-2,1.1689488E-1],"categories":[],"categories_nodes":[],"categories_segments":[],"categories_sizes":[],"default_left":[0,0,0,0,0,0,0],"id":10,"left_children":[1,-1,3,-1,5,-1,-1],"loss_changes":[1.3613916E1,0E0,6.974167E0,0E0,3.0808067E-1,0E0,0E0],"parents":[2147483647,0,0,2,2,4,4],"right_children":[2,-1,4,-1,6,-1,-1],"split_conditions":[8.6E-1,-9.928594E-2,1.54E0,-7.415909E-2,8E0,3.7150666E-2,1.1689488E-1],"split_indices":[4,0,0,0,5,0,0],"split_type":[0,0,0,0,0,0,0],"sum_hessian":[1.9053158E1,9.264136E0,9.7890215E0,2.1442842E0,7.6447372E0,1.8571699E0,5.787567E0],"tree_param":{"num_deleted":"0","num_feature":"6","num_nodes":"7","size_leaf_vector":"1"}},{"base_weights":[-1.6972657E-1,-9.680642E-2,5.957117E-1,-7.465675E-2,9.890976E-1,5.335253E-1,1.1631302E-1,8.4129244E-2,1.3654605E-2],"categories":[],"categories_nodes":[],"categories_segments":[],"categories_sizes":[],"default_left":[0,0,0,0,0,0,0,0,0],"id":11,"left_children":[1,-1,3,-1,5,7,-1,-1,-1],"loss_changes":[1.2181202E1,0E0,6.184531E0,0E0,4.59404E-2,3.9473343E-1,0E0,0E0,0E0],"parents":[2147483647,0,0,2,2,4,4,5,5],"right_children":[2,-1,4,-1,6,8,-1,-1,-1],"split_conditions":[1.54E0,-9.680642E-2,3E0,-7.465675E-2,8.7E-1,1.58E0,1.1631302E-1,8.4129244E-2,1.3654605E-2],"split_indices":[0,0,2,0,4,0,0,0,0],"split_type":[0,0,0,0,0,0,0,0,0],"sum_hessian":[1.799023E1,8.676298E0,9.313933E0,1.9075041E0,7.406429E0,3.1710649E0,4.235364E0,1.155783E0,2.015282E0],"tree_param":{"num_deleted":"0","num_feature":"6","num_nodes":"9","size_leaf_vector":"1"}},{"base_weights":[-1.6048016E-1,-9.6415356E-2,5.745908E-1,-7.236416E-2,9.546141E-1,1.2551506E-2,1.1972242E-1],"categories":[],"categories_nodes":[],"categories_segments":[],"categories_sizes":[],"default_left":[0,0,0,0,0,0,0],"id":12,"left_children":[1,-1,3,-1,5,-1,-1],"loss_changes":[1.1168505E1,0E0,5.62978E0,0E0,1.494164E0,0E0,0E0],"parents":[2147483647,0,0,2,2,4,4],"right_children":[2,-1,4,-1,6,-1,-1],"split_conditions":[8.6E-1,-9.6415356E-2,3E0,-7.236416E-2,1.55E0,1.2551506E-2,1.1972242E-1],"split_indices":[4,0,2,0,0,0,0],"split_type":[0,0,0,0,0,0,0],"sum_hessian":[1.6967646E1,7.956709E0,9.010937E0,1.8356843E0,7.175252E0,1.9678041E0,5.207448E0],"tree_param":{"num_deleted":"0","num_feature":"6","num_nodes":"7","size_leaf_vector":"1"}},{"base_weights":[-1.5607041E-1,-9.405355E-2,5.550003E-1,-7.034525E-2,9.165334E-1,3.173705E-2,1.0327983E-1],"categories":[],"categories_nodes":[],"categories_segments":[],"categories_sizes":[],"default_left":[0,0,0,0,0,0,0],"id":13,"left_children":[1,-1,3,-1,5,-1,-1],"loss_changes":[9.995261E0,0E0,4.9838524E0,0E0,2.1857119E-1,0E0,0E0],"parents":[2147483647,0,0,2,2,4,4],"right_children":[2,-1,4,-1,6,-1,-1],"split_conditions":[1.54E0,-9.405355E-2,8.6E-1,-7.034525E-2,8E0,3.173705E-2,1.0327983E-1],"split_indices":[0,0,4,0,5,0,0],"split_type":[0,0,0,0,0,0,0],"sum_hessian":[1.5982953E1,7.445857E0,8.537096E0,1.694165E0,6.8429313E0,1.7181718E0,5.1247597E0],"tree_param":{"num_deleted":"0","num_feature":"6","num_nodes":"7","size_leaf_vector":"1"}},{"base_weights":[-1.5141918E-1,-9.339424E-2,5.208176E-1,-7.0175126E-2,8.8706636E-1,1.1724618E-2,1.114639E-1],"categories":[],"categories_nodes":[],"categories_segments":[],"categories_sizes":[],"default_left":[0,0,0,0,0,0,0],"id":14,"left_children":[1,-1,3,-1,5,-1,-1],"loss_changes":[8.94564E0,0E0,4.783131E0,0E0,1.1993074E0,0E0,0E0],"parents":[2147483647,0,0,2,2,4,4],"right_children":[2,-1,4,-1,6,-1,-1],"split_conditions":[8.6E-1,-9.339424E-2,3E0,-7.0175126E-2,1.55E0,1.1724618E-2,1.114639E-1],"split_indices":[4,0,2,0,0,0,0],"split_type":[0,0,0,0,0,0,0],"sum_hessian":[1.5080932E1,6.7889214E0,8.29201E0,1.7002811E0,6.591729E0,1.849738E0,4.741991E0],"tree_param":{"num_deleted":"0","num_feature":"6","num_nodes":"7","size_leaf_vector":"1"}},{"base_weights":[-1.477521E-1,-9.138798E-2,5.135802E-1,-6.8069756E-2,8.671402E-1,1.0088863E-1,4.1095074E-2],"categories":[],"categories_nodes":[],"categories_segments":[],"categories_sizes":[],"default_left":[0,0,0,0,0,0,0],"id":15,"left_children":[1,-1,3,-1,5,-1,-1],"loss_changes":[8.170795E0,0E0,4.305334E0,0E0,5.2804947E-2,0E0,0E0],"parents":[2147483647,0,0,2,2,4,4],"right_children":[2,-1,4,-1,6,-1,-1],"split_conditions":[1.54E0,-9.138798E-2,3E0,-6.8069756E-2,7E0,1.0088863E-1,4.1095074E-2],"split_indices":[0,0,2,0,1,0,0],"split_type":[0,0,0,0,0,0,0],"sum_hessian":[1.420027E1,6.4019656E0,7.7983046E0,1.5699519E0,6.2283525E0,3.827522E0,2.4008305E0],"tree_param":{"num_deleted":"0","num_feature":"6","num_nodes":"7","size_leaf_vector":"1"}},{"base_weights":[-1.425995E-1,-9.083152E-2,4.8986655E-1,-6.610871E-2,8.301059E-1,1.0895136E-2,1.0457809E-1],"categories":[],"categories_nodes":[],"categories_segments":[],"categories_sizes":[],"default_left":[0,0,0,0,0,0,0],"id":16,"left_children":[1,-1,3,-1,5,-1,-1],"loss_changes":[7.425574E0,0E0,3.8944318E0,0E0,9.8064566E-1,0E0,0E0],"parents":[2147483647,0,0,2,2,4,4],"right_children":[2,-1,4,-1,6,-1,-1],"split_conditions":[8.6E-1,-9.083152E-2,3E0,-6.610871E-2,1.55E0,1.0895136E-2,1.0457809E-1],"split_indices":[4,0,2,0,0,0,0],"split_type":[0,0,0,0,0,0,0],"sum_hessian":[1.3414158E1,5.870589E0,7.5435686E0,1.5060232E0,6.0375457E0,1.7364672E0,4.3010783E0],"tree_param":{"num_deleted":"0","num_feature":"6","num_nodes":"7","size_leaf_vector":"1"}},{"base_weights":[-1.3950735E-1,-8.8757694E-2,4.7862485E-1,-6.407126E-2,8.0641013E-1,9.420853E-2,3.689487E-2],"categories":[],"categories_nodes":[],"categories_segments":[],"categories_sizes":[],"default_left":[0,0,0,0,0,0,0],"id":17,"left_children":[1,-1,3,-1,5,-1,-1],"loss_changes":[6.7288265E0,0E0,3.4939103E0,0E0,5.122471E-2,0E0,0E0],"parents":[2147483647,0,0,2,2,4,4],"right_children":[2,-1,4,-1,6,-1,-1],"split_conditions":[1.54E0,-8.8757694E-2,3E0,-6.407126E-2,7E0,9.420853E-2,3.689487E-2],"split_indices":[0,0,2,0,1,0,0],"split_type":[0,0,0,0,0,0,0],"sum_hessian":[1.2633066E1,5.518555E0,7.1145105E0,1.3952545E0,5.719256E0,3.4849117E0,2.2343445E0],"tree_param":{"num_deleted":"0","num_feature":"6","num_nodes":"7","size_leaf_vector":"1"}},{"base_weights":[-1.349295E-1,-8.830489E-2,4.6287185E-1,-6.2278505E-2,7.815849E-1,1.0207437E-2,9.876184E-2],"categories":[],"categories_nodes":[],"categories_segments":[],"categories_sizes":[],"default_left":[0,0,0,0,0,0,0],"id":18,"left_children":[1,-1,3,-1,5,-1,-1],"loss_changes":[6.1980233E0,0E0,3.2034419E0,0E0,8.110254E-1,0E0,0E0],"parents":[2147483647,0,0,2,2,4,4],"right_children":[2,-1,4,-1,6,-1,-1],"split_conditions":[8.6E-1,-8.830489E-2,3E0,-6.2278505E-2,1.55E0,1.0207437E-2,9.876184E-2],"split_indices":[4,0,2,0,0,0,0],"split_type":[0,0,0,0,0,0,0],"sum_hessian":[1.1944853E1,5.0934663E0,6.851387E0,1.3383615E0,5.5130253E0,1.6306081E0,3.8824174E0],"tree_param":{"num_deleted":"0","num_feature":"6","num_nodes":"7","size_leaf_vector":"1"}},{"base_weights":[-1.3229987E-1,-8.612943E-2,4.4758365E-1,-6.091259E-2,7.609657E-1,2.1810906E-2,8.6528845E-2],"categories":[],"categories_nodes":[],"categories_segments":[],"categories_sizes":[],"default_left":[0,0,0,0,0,0,0],"id":19,"left_children":[1,-1,3,-1,5,-1,-1],"loss_changes":[5.566882E0,0E0,2.9420972E0,0E0,1.6337132E-1,0E0,0E0],"parents":[2147483647,0,0,2,2,4,4],"right_children":[2,-1,4,-1,6,-1,-1],"split_conditions":[1.54E0,-8.612943E-2,8.6E-1,-6.091259E-2,8E0,2.1810906E-2,8.6528845E-2],"split_indices":[0,0,4,0,5,0,0],"split_type":[0,0,0,0,0,0,0],"sum_hessian":[1.1256899E1,4.77224E0,6.484659E0,1.267384E0,5.217275E0,1.3392144E0,3.8780606E0],"tree_param":{"num_deleted":"0","num_feature":"6","num_nodes":"7","size_leaf_vector":"1"}},{"base_weights":[-1.295292E-1,-8.533996E-2,4.241001E-1,-6.041342E-2,7.3852986E-1,9.684929E-3,9.364956E-2],"categories":[],"categories_nodes":[],"categories_segments":[],"categories_sizes":[],"default_left":[0,0,0,0,0,0,0],"id":20,"left_children":[1,-1,3,-1,5,-1,-1],"loss_changes":[5.027169E0,0E0,2.7947514E0,0E0,6.7313933E-1,0E0,0E0],"parents":[2147483647,0,0,2,2,4,4],"right_children":[2,-1,4,-1,6,-1,-1],"split_conditions":[8.6E-1,-8.533996E-2,3E0,-6.041342E-2,1.55E0,9.684929E-3,9.364956E-2],"split_indices":[4,0,2,0,0,0,0],"split_type":[0,0,0,0,0,0,0],"sum_hessian":[1.06411085E1,4.376877E0,6.2642317E0,1.251211E0,5.0130205E0,1.5330517E0,3.4799685E0],"tree_param":{"num_deleted":"0","num_feature":"6","num_nodes":"7","size_leaf_vector":"1"}},{"base_weights":[-1.2731588E-1,-8.348628E-2,4.1869554E-1,-5.851364E-2,7.25363E-1,3.196107E-2,8.677623E-2],"categories":[],"categories_nodes":[],"categories_segments":[],"categories_sizes":[],"default_left":[0,0,0,0,0,0,0],"id":21,"left_children":[1,-1,3,-1,5,-1,-1],"loss_changes":[4.614607E0,0E0,2.5477152E0,0E0,5.3713083E-2,0E0,0E0],"parents":[2147483647,0,0,2,2,4,4],"right_children":[2,-1,4,-1,6,-1,-1],"split_conditions":[1.54E0,-8.348628E-2,3E0,-5.851364E-2,8.7E-1,3.196107E-2,8.677623E-2],"split_indices":[0,0,2,0,4,0,0],"split_type":[0,0,0,0,0,0,0],"sum_hessian":[1.003996E1,4.1426725E0,5.8972874E0,1.1675223E0,4.7297654E0,2.0715528E0,2.6582127E0],"tree_param":{"num_deleted":"0","num_feature":"6","num_nodes":"7","size_leaf_vector":"1"}},{"base_weights":[-1.23356484E-1,-8.274373E-2,4.0280166E-1,-5.6937527E-2,7.007925E-1,9.082712E-3,8.9170225E-2],"categories":[],"categories_nodes":[],"categories_segments":[],"categories_sizes":[],"default_left":[0,0,0,0,0,0,0],"id":22,"left_children":[1,-1,3,-1,5,-1,-1],"loss_changes":[4.225784E0,0E0,2.3359487E0,0E0,5.6712437E-1,0E0,0E0],"parents":[2147483647,0,0,2,2,4,4],"right_children":[2,-1,4,-1,6,-1,-1],"split_conditions":[8.6E-1,-8.274373E-2,3E0,-5.6937527E-2,1.55E0,9.082712E-3,8.9170225E-2],"split_indices":[4,0,2,0,0,0,0],"split_type":[0,0,0,0,0,0,0],"sum_hessian":[9.507243E0,3.8212368E0,5.6860065E0,1.1203191E0,4.565687E0,1.4401383E0,3.1255488E0],"tree_param":{"num_deleted":"0","num_feature":"6","num_nodes":"7","size_leaf_vector":"1"}},{"base_weights":[-1.2147192E-1,-8.081942E-2,3.9458442E-1,-5.5129763E-2,6.8448216E-1,8.08892E-2,2.5733879E-2],"categories":[],"categories_nodes":[],"categories_segments":[],"categories_sizes":[],"default_left":[0,0,0,0,0,0,0],"id":23,"left_children":[1,-1,3,-1,5,-1,-1],"loss_changes":[3.8566086E0,0E0,2.1244686E0,0E0,7.4705124E-2,0E0,0E0],"parents":[2147483647,0,0,2,2,4,4],"right_children":[2,-1,4,-1,6,-1,-1],"split_conditions":[1.54E0,-8.081942E-2,3E0,-5.5129763E-2,7E0,8.08892E-2,2.5733879E-2],"split_indices":[0,0,2,0,1,0,0],"split_type":[0,0,0,0,0,0,0],"sum_hessian":[8.982602E0,3.611131E0,5.371471E0,1.0485505E0,4.3229203E0,2.6556969E0,1.6672235E0],"tree_param":{"num_deleted":"0","num_feature":"6","num_nodes":"7","size_leaf_vector":"1"}},{"base_weights":[-1.1834094E-1,-8.015763E-2,3.8280267E-1,-5.367746E-2,6.660879E-1,8.593062E-3,8.49846E-2],"categories":[],"categories_nodes":[],"categories_segments":[],"categories_sizes":[],"default_left":[0,0,0,0,0,0,0],"id":24,"left_children":[1,-1,3,-1,5,-1,-1],"loss_changes":[3.5682688E0,0E0,1.9652631E0,0E0,4.7754097E-1,0E0,0E0],"parents":[2147483647,0,0,2,2,4,4],"right_children":[2,-1,4,-1,6,-1,-1],"split_conditions":[8.6E-1,-8.015763E-2,3E0,-5.367746E-2,1.55E0,8.593062E-3,8.49846E-2],"split_indices":[4,0,2,0,0,0,0],"split_type":[0,0,0,0,0,0,0],"sum_hessian":[8.525212E0,3.3535912E0,5.171621E0,1.0072263E0,4.1643944E0,1.3547702E0,2.8096242E0],"tree_param":{"num_deleted":"0","num_feature":"6","num_nodes":"7","size_leaf_vector":"1"}},{"base_weights":[-1.1671999E-1,-7.813044E-2,3.7140384E-1,-1.975641E-3,4.978392E-1,-3.7437137E-3,6.863554E-2],"categories":[],"categories_nodes":[],"categories_segments":[],"categories_sizes":[],"default_left":[0,0,0,0,0,0,0],"id":25,"left_children":[1,-1,3,-1,5,-1,-1],"loss_changes":[3.2316618E0,0E0,3.019045E-1,0E0,4.798994E-1,0E0,0E0],"parents":[2147483647,0,0,2,2,4,4],"right_children":[2,-1,4,-1,6,-1,-1],"split_conditions":[1.54E0,-7.813044E-2,8E0,-1.975641E-3,8.7E-1,-3.7437137E-3,6.863554E-2],"split_indices":[0,0,5,0,4,0,0],"split_type":[0,0,0,0,0,0,0],"sum_hessian":[8.06747E0,3.1618962E0,4.9055734E0,1.4044111E0,3.5011625E0,1.1206316E0,2.380531E0],"tree_param":{"num_deleted":"0","num_feature":"6","num_nodes":"7","size_leaf_vector":"1"}},{"base_weights":[-1.1132698E-1,-7.749451E-2,3.6169264E-1,-1.0038726E-2,5.823752E-1,1.6209293E-2,6.7523055E-2],"categories":[],"categories_nodes":[],"categories_segments":[],"categories_sizes":[],"default_left":[0,0,0,0,0,0,0],"id":26,"left_children":[1,-1,3,-1,5,-1,-1],"loss_changes":[3.0244675E0,0E0,6.484571E-1,0E0,4.9099803E-2,0E0,0E0],"parents":[2147483647,0,0,2,2,4,4],"right_children":[2,-1,4,-1,6,-1,-1],"split_conditions":[8.6E-1,-7.749451E-2,1.56E0,-1.0038726E-2,8E0,1.6209293E-2,6.7523055E-2],"split_indices":[4,0,0,0,5,0,0],"split_type":[0,0,0,0,0,0,0],"sum_hessian":[7.742074E0,2.9562871E0,4.785787E0,1.723052E0,3.062735E0,1.051062E0,2.0116732E0],"tree_param":{"num_deleted":"0","num_feature":"6","num_nodes":"7","size_leaf_vector":"1"}},{"base_weights":[-1.048679E-1,-7.544177E-2,3.4875605E-1,-1.4840183E-3,4.6962923E-1,-3.073025E-3,6.431266E-2],"categories":[],"categories_nodes":[],"categories_segments":[],"categories_sizes":[],"default_left":[0,0,0,0,0,0,0],"id":27,"left_children":[1,-1,3,-1,5,-1,-1],"loss_changes":[2.7485666E0,0E0,2.553054E-1,0E0,3.905673E-1,0E0,0E0],"parents":[2147483647,0,0,2,2,4,4],"right_children":[2,-1,4,-1,6,-1,-1],"split_conditions":[1.54E0,-7.544177E-2,8E0,-1.4840183E-3,8.7E-1,-3.073025E-3,6.431266E-2],"split_indices":[0,0,5,0,4,0,0],"split_type":[0,0,0,0,0,0,0],"sum_hessian":[7.4352536E0,2.7847066E0,4.650547E0,1.3791571E0,3.27139E0,1.0541477E0,2.2172422E0],"tree_param":{"num_deleted":"0","num_feature":"6","num_nodes":"7","size_leaf_vector":"1"}},{"base_weights":[-1.0010811E-1,-7.483451E-2,3.4166086E-1,-9.037437E-3,5.451273E-1,1.5466683E-2,6.344463E-2],"categories":[],"categories_nodes":[],"categories_segments":[],"categories_sizes":[],"default_left":[0,0,0,0,0,0,0],"id":28,"left_children":[1,-1,3,-1,5,-1,-1],"loss_changes":[2.5910354E0,0E0,5.359416E-1,0E0,3.80975E-2,0E0,0E0],"parents":[2147483647,0,0,2,2,4,4],"right_children":[2,-1,4,-1,6,-1,-1],"split_conditions":[8.6E-1,-7.483451E-2,1.56E0,-9.037437E-3,8E0,1.5466683E-2,6.344463E-2],"split_indices":[4,0,0,0,5,0,0],"split_type":[0,0,0,0,0,0,0],"sum_hessian":[7.1549997E0,2.618592E0,4.5364075E0,1.6303632E0,2.9060442E0,1.0495465E0,1.8564979E0],"tree_param":{"num_deleted":"0","num_feature":"6","num_nodes":"7","size_leaf_vector":"1"}},{"base_weights":[-9.427186E-2,-7.31928E-2,3.2575148E-1,-8.49066E-3,5.22707E-1,1.4685963E-2,6.1175805E-2],"categories":[],"categories_nodes":[],"categories_segments":[],"categories_sizes":[],"default_left":[0,0,0,0,0,0,0],"id":29,"left_children":[1,-1,3,-1,5,-1,-1],"loss_changes":[2.3515723E0,0E0,4.8507732E-1,0E0,3.8086295E-2,0E0,0E0],"parents":[2147483647,0,0,2,2,4,4],"right_children":[2,-1,4,-1,6,-1,-1],"split_conditions":[8.6E-1,-7.31928E-2,1.56E0,-8.49066E-3,8E0,1.4685963E-2,6.1175805E-2],"split_indices":[4,0,0,0,5,0,0],"split_type":[0,0,0,0,0,0,0],"sum_hessian":[6.889864E0,2.4411926E0,4.4486713E0,1.626427E0,2.8222442E0,1.0480449E0,1.7741992E0],"tree_param":{"num_deleted":"0","num_feature":"6","num_nodes":"7","size_leaf_vector":"1"}},{"base_weights":[-8.878978E-2,-7.168467E-2,3.2483634E-1,7.974709E-2,5.2168228E-2,-2.9805396E-2,4.462525E-2],"categories":[],"categories_nodes":[],"categories_segments":[],"categories_sizes":[],"default_left":[0,0,0,0,0,0,0],"id":30,"left_children":[1,-1,3,5,-1,-1,-1],"loss_changes":[2.2192101E0,0E0,2.1401227E-1,6.232331E-1,0E0,0E0,0E0],"parents":[2147483647,0,0,2,2,3,3],"right_children":[2,-1,4,6,-1,-1,-1],"split_conditions":[1.54E0,-7.168467E-2,4E0,8.01E2,5.2168228E-2,-2.9805396E-2,4.462525E-2],"split_indices":[0,0,2,3,0,0,0],"split_type":[0,0,0,0,0,0,0],"sum_hessian":[6.6462636E0,2.347977E0,4.298287E0,2.5404022E0,1.7578845E0,1.3428912E0,1.197511E0],"tree_param":{"num_deleted":"0","num_feature":"6","num_nodes":"7","size_leaf_vector":"1"}},{"base_weights":[-8.376474E-2,-7.059578E-2,3.1132188E-1,-7.120279E-3,4.9098018E-1,1.3392744E-2,5.7704743E-2],"categories":[],"categories_nodes":[],"categories_segments":[],"categories_sizes":[],"default_left":[0,0,0,0,0,0,0],"id":31,"left_children":[1,-1,3,-1,5,-1,-1],"loss_changes":[2.0385518E0,0E0,3.9364523E-1,0E0,3.5743713E-2,0E0,0E0],"parents":[2147483647,0,0,2,2,4,4],"right_children":[2,-1,4,-1,6,-1,-1],"split_conditions":[8.6E-1,-7.059578E-2,1.56E0,-7.120279E-3,8E0,1.3392744E-2,5.7704743E-2],"split_indices":[4,0,0,0,5,0,0],"split_type":[0,0,0,0,0,0,0],"sum_hessian":[6.39879E0,2.1795435E0,4.219247E0,1.5412743E0,2.6779723E0,1.0166104E0,1.6613619E0],"tree_param":{"num_deleted":"0","num_feature":"6","num_nodes":"7","size_leaf_vector":"1"}},{"base_weights":[-7.895659E-2,-6.904913E-2,3.081426E-1,5.267377E-2,8.008025E-2,-1.856436E-2,2.5098165E-2],"categories":[],"categories_nodes":[],"categories_segments":[],"categories_sizes":[],"default_left":[0,0,0,0,0,0,0],"id":32,"left_children":[1,-1,3,-1,5,-1,-1],"loss_changes":[1.9141134E0,0E0,2.116996E-1,0E0,2.1332982E-1,0E0,0E0],"parents":[2147483647,0,0,2,2,4,4],"right_children":[2,-1,4,-1,6,-1,-1],"split_conditions":[1.54E0,-6.904913E-2,1.58E0,5.267377E-2,1.68E0,-1.856436E-2,2.5098165E-2],"split_indices":[0,0,0,0,0,0,0],"split_type":[0,0,0,0,0,0,0],"sum_hessian":[6.1870174E0,2.0944588E0,4.092559E0,1.420962E0,2.671597E0,1.0119375E0,1.6596594E0],"tree_param":{"num_deleted":"0","num_feature":"6","num_nodes":"7","size_leaf_vector":"1"}},{"base_weights":[-7.490476E-2,-6.807341E-2,2.95943E-1,-6.29615E-3,4.61356E-1,5.4383397E-2,1.4536089E-2],"categories":[],"categories_nodes":[],"categories_segments":[],"categories_sizes":[],"default_left":[0,0,0,0,0,0,0],"id":33,"left_children":[1,-1,3,-1,5,-1,-1],"loss_changes":[1.7735839E0,0E0,3.2811117E-1,0E0,1.39481425E-2,0E0,0E0],"parents":[2147483647,0,0,2,2,4,4],"right_children":[2,-1,4,-1,6,-1,-1],"split_conditions":[8.6E-1,-6.807341E-2,1.56E0,-6.29615E-3,8.8E-1,5.4383397E-2,1.4536089E-2],"split_indices":[4,0,0,0,4,0,0],"split_type":[0,0,0,0,0,0,0],"sum_hessian":[5.9974737E0,1.959976E0,4.037498E0,1.4691597E0,2.5683382E0,1.4649506E0,1.1033875E0],"tree_param":{"num_deleted":"0","num_feature":"6","num_nodes":"7","size_leaf_vector":"1"}},{"base_weights":[-7.039101E-2,-6.645231E-2,2.897945E-1,-3.9843363E-3,4.1082978E-1,6.395131E-3,5.599618E-2],"categories":[],"categories_nodes":[],"categories_segments":[],"categories_sizes":[],"default_left":[0,0,0,0,0,0,0],"id":34,"left_children":[1,-1,3,-1,5,-1,-1],"loss_changes":[1.6518501E0,0E0,2.135329E-1,0E0,1.5574628E-1,0E0,0E0],"parents":[2147483647,0,0,2,2,4,4],"right_children":[2,-1,4,-1,6,-1,-1],"split_conditions":[1.54E0,-6.645231E-2,8E0,-3.9843363E-3,4E0,6.395131E-3,5.599618E-2],"split_indices":[0,0,5,0,2,0,0],"split_type":[0,0,0,0,0,0,0],"sum_hessian":[5.819113E0,1.8773862E0,3.941727E0,1.238769E0,2.7029576E0,1.2422739E0,1.4606838E0],"tree_param":{"num_deleted":"0","num_feature":"6","num_nodes":"7","size_leaf_vector":"1"}},{"base_weights":[-6.654867E-2,-6.652363E-2,2.7794266E-1,-1.0428923E-2,4.829796E-1,1.5512468E-2,5.7195462E-2],"categories":[],"categories_nodes":[],"categories_segments":[],"categories_sizes":[],"default_left":[0,0,0,0,0,0,0],"id":35,"left_children":[1,-1,3,-1,5,-1,-1],"loss_changes":[1.5562803E0,0E0,4.364308E-1,0E0,9.982884E-3,0E0,0E0],"parents":[2147483647,0,0,2,2,4,4],"right_children":[2,-1,4,-1,6,-1,-1],"split_conditions":[3E0,-6.652363E-2,1.55E0,-1.0428923E-2,4.64E2,1.5512468E-2,5.7195462E-2],"split_indices":[2,0,0,0,3,0,0],"split_type":[0,0,0,0,0,0,0],"sum_hessian":[5.6493645E0,1.7233337E0,3.9260306E0,1.5422734E0,2.383757E0,1.094438E0,1.2893193E0],"tree_param":{"num_deleted":"0","num_feature":"6","num_nodes":"7","size_leaf_vector":"1"}},{"base_weights":[-6.233724E-2,-6.503458E-2,2.8727356E-1,-4.189875E-3,4.3360388E-1,5.0616086E-2,1.3999196E-2],"categories":[],"categories_nodes":[],"categories_segments":[],"categories_sizes":[],"default_left":[0,0,0,0,0,0,0],"id":36,"left_children":[1,-1,3,-1,5,-1,-1],"loss_changes":[1.520351E0,0E0,2.475282E-1,0E0,1.242578E-3,0E0,0E0],"parents":[2147483647,0,0,2,2,4,4],"right_children":[2,-1,4,-1,6,-1,-1],"split_conditions":[8.6E-1,-6.503458E-2,1.56E0,-4.189875E-3,8.8E-1,5.0616086E-2,1.3999196E-2],"split_indices":[4,0,0,0,4,0,0],"split_type":[0,0,0,0,0,0,0],"sum_hessian":[5.4868274E0,1.7251339E0,3.7616932E0,1.3772402E0,2.384453E0,1.3315027E0,1.0529503E0],"tree_param":{"num_deleted":"0","num_feature":"6","num_nodes":"7","size_leaf_vector":"1"}},{"base_weights":[-5.852455E-2,-6.435543E-2,2.7194035E-1,4.6741813E-1,-9.272843E-3,1.4498837E-2,5.4804396E-2],"categories":[],"categories_nodes":[],"categories_segments":[],"categories_sizes":[],"default_left":[0,0,0,0,0,0,0],"id":37,"left_children":[1,-1,3,5,-1,-1,-1],"loss_changes":[1.4000118E0,0E0,3.8209018E-1,5.2675605E-3,0E0,0E0,0E0],"parents":[2147483647,0,0,2,2,3,3],"right_children":[2,-1,4,6,-1,-1,-1],"split_conditions":[3E0,-6.435543E-2,7E0,1.55E0,-9.272843E-3,1.4498837E-2,5.4804396E-2],"split_indices":[2,0,1,0,0,0,0],"split_type":[0,0,0,0,0,0,0],"sum_hessian":[5.3362746E0,1.5842386E0,3.752036E0,2.259232E0,1.492804E0,1.0116886E0,1.2475435E0],"tree_param":{"num_deleted":"0","num_feature":"6","num_nodes":"7","size_leaf_vector":"1"}},{"base_weights":[-5.483608E-2,-6.2797464E-2,2.7727208E-1,-6.250175E-3,4.0789905E-1,6.5384507E-3,5.5169918E-2],"categories":[],"categories_nodes":[],"categories_segments":[],"categories_sizes":[],"default_left":[0,0,0,0,0,0,0],"id":38,"left_children":[1,-1,3,-1,5,-1,-1],"loss_changes":[1.3531234E0,0E0,2.3034048E-1,0E0,1.3466865E-1,0E0,0E0],"parents":[2147483647,0,0,2,2,4,4],"right_children":[2,-1,4,-1,6,-1,-1],"split_conditions":[8.6E-1,-6.2797464E-2,8E0,-6.250175E-3,4E0,6.5384507E-3,5.5169918E-2],"split_indices":[4,0,5,0,2,0,0],"split_type":[0,0,0,0,0,0,0],"sum_hessian":[5.194067E0,1.5787139E0,3.615353E0,1.1487815E0,2.4665716E0,1.1594919E0,1.3070796E0],"tree_param":{"num_deleted":"0","num_feature":"6","num_nodes":"7","size_leaf_vector":"1"}},{"base_weights":[-5.197962E-2,-6.1633628E-2,2.7721307E-1,4.5214478E-2,1.0965164E-3],"categories":[],"categories_nodes":[],"categories_segments":[],"categories_sizes":[],"default_left":[0,0,0,0,0],"id":39,"left_children":[1,-1,3,-1,-1],"loss_changes":[1.295286E0,0E0,2.0520833E-1,0E0,0E0],"parents":[2147483647,0,0,2,2],"right_children":[2,-1,4,-1,-1],"split_conditions":[1.54E0,-6.1633628E-2,1.64E0,4.5214478E-2,1.0965164E-3],"split_indices":[0,0,0,0,0],"split_type":[0,0,0,0,0],"sum_hessian":[5.052412E0,1.5400084E0,3.5124035E0,1.6983405E0,1.814063E0],"tree_param":{"num_deleted":"0","num_feature":"6","num_nodes":"5","size_leaf_vector":"1"}},{"base_weights":[-5.06825E-2,-6.165714E-2,2.6549903E-1,-8.608356E-3,4.4941317E-2],"categories":[],"categories_nodes":[],"categories_segments":[],"categories_sizes":[],"default_left":[0,0,0,0,0],"id":40,"left_children":[1,-1,3,-1,-1],"loss_changes":[1.2243252E0,0E0,3.297891E-1,0E0,0E0],"parents":[2147483647,0,0,2,2],"right_children":[2,-1,4,-1,-1],"split_conditions":[3E0,-6.165714E-2,1.55E0,-8.608356E-3,4.4941317E-2],"split_indices":[2,0,0,0,0],"split_type":[0,0,0,0,0],"sum_hessian":[4.9278145E0,1.4258432E0,3.501971E0,1.3854287E0,2.1165423E0],"tree_param":{"num_deleted":"0","num_feature":"6","num_nodes":"5","size_leaf_vector":"1"}},{"base_weights":[-5.1225044E-2,-6.0214218E-2,2.6498476E-1,-6.2209214E-3,3.9040843E-1,6.169705E-3,5.241701E-2],"categories":[],"categories_nodes":[],"categories_segments":[],"categories_sizes":[],"default_left":[0,0,0,0,0,0,0],"id":41,"left_children":[1,-1,3,-1,5,-1,-1],"loss_changes":[1.169933E0,0E0,2.0400411E-1,0E0,1.12898886E-1,0E0,0E0],"parents":[2147483647,0,0,2,2,4,4],"right_children":[2,-1,4,-1,6,-1,-1],"split_conditions":[8.6E-1,-6.0214218E-2,8E0,-6.2209214E-3,4E0,6.169705E-3,5.241701E-2],"split_indices":[4,0,5,0,2,0,0],"split_type":[0,0,0,0,0,0,0],"sum_hessian":[4.7999034E0,1.4206043E0,3.3792992E0,1.0760927E0,2.3032064E0,1.0887973E0,1.2144091E0],"tree_param":{"num_deleted":"0","num_feature":"6","num_nodes":"7","size_leaf_vector":"1"}},{"base_weights":[-4.8714954E-2,-5.8628447E-2,2.5770742E-1,4.2756356E-2,2.021221E-5],"categories":[],"categories_nodes":[],"categories_segments":[],"categories_sizes":[],"default_left":[0,0,0,0,0],"id":42,"left_children":[1,-1,3,-1,-1],"loss_changes":[1.0860746E0,0E0,1.8842667E-1,0E0,0E0],"parents":[2147483647,0,0,2,2],"right_children":[2,-1,4,-1,-1],"split_conditions":[1.54E0,-5.8628447E-2,1.64E0,4.2756356E-2,2.021221E-5],"split_indices":[0,0,0,0,0],"split_type":[0,0,0,0,0],"sum_hessian":[4.6760917E0,1.3661234E0,3.3099682E0,1.596485E0,1.7134832E0],"tree_param":{"num_deleted":"0","num_feature":"6","num_nodes":"5","size_leaf_vector":"1"}},{"base_weights":[-4.781288E-2,-5.9100967E-2,2.5453445E-1,4.3185737E-2,-7.653863E-3],"categories":[],"categories_nodes":[],"categories_segments":[],"categories_sizes":[],"default_left":[0,0,0,0,0],"id":43,"left_children":[1,-1,3,-1,-1],"loss_changes":[1.0650492E0,0E0,2.8412008E-1,0E0,0E0],"parents":[2147483647,0,0,2,2],"right_children":[2,-1,4,-1,-1],"split_conditions":[3E0,-5.9100967E-2,7E0,4.3185737E-2,-7.653863E-3],"split_indices":[2,0,1,0,0],"split_type":[0,0,0,0,0],"sum_hessian":[4.568982E0,1.2923717E0,3.2766106E0,1.9355253E0,1.3410853E0],"tree_param":{"num_deleted":"0","num_feature":"6","num_nodes":"5","size_leaf_vector":"1"}},{"base_weights":[-4.8405807E-2,-5.758349E-2,2.509114E-1,-5.6276144E-3,3.8944397E-2],"categories":[],"categories_nodes":[],"categories_segments":[],"categories_sizes":[],"default_left":[0,0,0,0,0],"id":44,"left_children":[1,-1,3,-1,-1],"loss_changes":[1.006945E0,0E0,1.9987369E-1,0E0,0E0],"parents":[2147483647,0,0,2,2],"right_children":[2,-1,4,-1,-1],"split_conditions":[8.6E-1,-5.758349E-2,1.56E0,-5.6276144E-3,3.8944397E-2],"split_indices":[4,0,0,0,0],"split_type":[0,0,0,0,0],"sum_hessian":[4.4631605E0,1.2813883E0,3.181772E0,1.1734617E0,2.0083103E0],"tree_param":{"num_deleted":"0","num_feature":"6","num_nodes":"5","size_leaf_vector":"1"}},{"base_weights":[-4.9194127E-2,-5.7402667E-2,2.4250671E-1,-8.339579E-3,4.1264642E-2],"categories":[],"categories_nodes":[],"categories_segments":[],"categories_sizes":[],"default_left":[0,0,0,0,0],"id":45,"left_children":[1,-1,3,-1,-1],"loss_changes":[9.5940435E-1,0E0,2.6433566E-1,0E0,0E0],"parents":[2147483647,0,0,2,2],"right_children":[2,-1,4,-1,-1],"split_conditions":[3E0,-5.7402667E-2,1.55E0,-8.339579E-3,4.1264642E-2],"split_indices":[2,0,0,0,0],"split_type":[0,0,0,0,0],"sum_hessian":[4.3574834E0,1.210919E0,3.1465645E0,1.254126E0,1.8924385E0],"tree_param":{"num_deleted":"0","num_feature":"6","num_nodes":"5","size_leaf_vector":"1"}},{"base_weights":[-4.9989402E-2,-5.5898357E-2,2.3829713E-1,-4.3209116E-3,3.6578853E-2],"categories":[],"categories_nodes":[],"categories_segments":[],"categories_sizes":[],"default_left":[0,0,0,0,0],"id":46,"left_children":[1,-1,3,-1,-1],"loss_changes":[9.0428776E-1,0E0,1.613703E-1,0E0,0E0],"parents":[2147483647,0,0,2,2],"right_children":[2,-1,4,-1,-1],"split_conditions":[8.6E-1,-5.5898357E-2,1.56E0,-4.3209116E-3,3.6578853E-2],"split_indices":[4,0,0,0,0],"split_type":[0,0,0,0,0],"sum_hessian":[4.254898E0,1.1989915E0,3.0559065E0,1.1586472E0,1.8972592E0],"tree_param":{"num_deleted":"0","num_feature":"6","num_nodes":"5","size_leaf_vector":"1"}},{"base_weights":[-5.0623115E-2,-5.5781674E-2,2.3160726E-1,3.9946444E-2,-8.143624E-3],"categories":[],"categories_nodes":[],"categories_segments":[],"categories_sizes":[],"default_left":[0,0,0,0,0],"id":47,"left_children":[1,-1,3,-1,-1],"loss_changes":[8.678976E-1,0E0,2.4388196E-1,0E0,0E0],"parents":[2147483647,0,0,2,2],"right_children":[2,-1,4,-1,-1],"split_conditions":[3E0,-5.5781674E-2,7E0,3.9946444E-2,-8.143624E-3],"split_indices":[2,0,1,0,0],"split_type":[0,0,0,0,0],"sum_hessian":[4.1605077E0,1.138343E0,3.0221648E0,1.7875793E0,1.2345855E0],"tree_param":{"num_deleted":"0","num_feature":"6","num_nodes":"5","size_leaf_vector":"1"}},{"base_weights":[-5.127739E-2,-5.4230154E-2,2.3058806E-1,3.905902E-2,-9.6174004E-4],"categories":[],"categories_nodes":[],"categories_segments":[],"categories_sizes":[],"default_left":[0,0,0,0,0],"id":48,"left_children":[1,-1,3,-1,-1],"loss_changes":[8.270364E-1,0E0,1.545686E-1,0E0,0E0],"parents":[2147483647,0,0,2,2],"right_children":[2,-1,4,-1,-1],"split_conditions":[1.54E0,-5.4230154E-2,1.64E0,3.905902E-2,-9.6174004E-4],"split_indices":[0,0,0,0,0],"split_type":[0,0,0,0,0],"sum_hessian":[4.0720677E0,1.14808E0,2.9239879E0,1.379217E0,1.5447707E0],"tree_param":{"num_deleted":"0","num_feature":"6","num_nodes":"5","size_leaf_vector":"1"}},{"base_weights":[-5.0388783E-2,-5.4036457E-2,2.208695E-1,-6.3233124E-3,4.0084574E-2],"categories":[],"categories_nodes":[],"categories_segments":[],"categories_sizes":[],"default_left":[0,0,0,0,0],"id":49,"left_children":[1,-1,3,-1,-1],"loss_changes":[7.822444E-1,0E0,2.2578992E-1,0E0,0E0],"parents":[2147483647,0,0,2,2],"right_children":[2,-1,4,-1,-1],"split_conditions":[3E0,-5.4036457E-2,8.7E-1,-6.3233124E-3,4.0084574E-2],"split_indices":[2,0,4,0,0],"split_type":[0,0,0,0,0],"sum_hessian":[3.9875433E0,1.0674088E0,2.9201345E0,1.3840276E0,1.536107E0],"tree_param":{"num_deleted":"0","num_feature":"6","num_nodes":"5","size_leaf_vector":"1"}},{"base_weights":[-5.0409842E-2,-5.291251E-2,2.207164E-1,-5.401424E-3,3.4790322E-2],"categories":[],"categories_nodes":[],"categories_segments":[],"categories_sizes":[],"default_left":[0,0,0,0,0],"id":50,"left_children":[1,-1,3,-1,-1],"loss_changes":[7.534436E-1,0E0,1.528729E-1,0E0,0E0],"parents":[2147483647,0,0,2,2],"right_children":[2,-1,4,-1,-1],"split_conditions":[8.6E-1,-5.291251E-2,1.56E0,-5.401424E-3,3.4790322E-2],"split_indices":[4,0,0,0,0],"split_type":[0,0,0,0,0],"sum_hessian":[3.9052002E0,1.0679636E0,2.8372366E0,1.0799026E0,1.757334E0],"tree_param":{"num_deleted":"0","num_feature":"6","num_nodes":"5","size_leaf_vector":"1"}},{"base_weights":[-5.119985E-2,-5.1892616E-2,2.1593474E-1,3.6960475E-2,-1.4181717E-3],"categories":[],"categories_nodes":[],"categories_segments":[],"categories_sizes":[],"default_left":[0,0,0,0,0],"id":51,"left_children":[1,-1,3,-1,-1],"loss_changes":[7.1479917E-1,0E0,1.3878901E-1,0E0,0E0],"parents":[2147483647,0,0,2,2],"right_children":[2,-1,4,-1,-1],"split_conditions":[1.54E0,-5.1892616E-2,1.64E0,3.6960475E-2,-1.4181717E-3],"split_indices":[0,0,0,0,0],"split_type":[0,0,0,0,0],"sum_hessian":[3.8240485E0,1.0474691E0,2.7765794E0,1.3013705E0,1.475209E0],"tree_param":{"num_deleted":"0","num_feature":"6","num_nodes":"5","size_leaf_vector":"1"}},{"base_weights":[-5.0437484E-2,-2.4290355E-2,1.20009884E-1,1.8677322E-2,-1.1804706E-3],"categories":[],"categories_nodes":[],"categories_segments":[],"categories_sizes":[],"default_left":[0,0,0,0,0],"id":52,"left_children":[1,-1,3,-1,-1],"loss_changes":[1.84969E-1,0E0,3.0263014E-2,0E0,0E0],"parents":[2147483647,0,0,2,2],"right_children":[2,-1,4,-1,-1],"split_conditions":[1.56E0,-2.4290355E-2,7E0,1.8677322E-2,-1.1804706E-3],"split_indices":[0,0,1,0,0],"split_type":[0,0,0,0,0],"sum_hessian":[3.7497814E0,1.5614859E0,2.1882956E0,1.1758139E0,1.0124817E0],"tree_param":{"num_deleted":"0","num_feature":"6","num_nodes":"5","size_leaf_vector":"1"}},{"base_weights":[-4.7083393E-2,-1.9337225E-1,1.5889041E-2,-3.1267613E-2,1.5067458E-3],"categories":[],"categories_nodes":[],"categories_segments":[],"categories_sizes":[],"default_left":[0,0,0,0,0],"id":53,"left_children":[1,3,-1,-1,-1],"loss_changes":[1.7314757E-1,8.465635E-2,0E0,0E0,0E0],"parents":[2147483647,0,0,1,1],"right_children":[2,4,-1,-1,-1],"split_conditions":[8.9E-1,5E2,1.5889041E-2,-3.1267613E-2,1.5067458E-3],"split_indices":[4,3,0,0,0],"split_type":[0,0,0,0,0],"sum_hessian":[3.7266738E0,2.214821E0,1.5118529E0,1.0905483E0,1.1242728E0],"tree_param":{"num_deleted":"0","num_feature":"6","num_nodes":"5","size_leaf_vector":"1"}},{"base_weights":[-4.5579802E-2,-2.3198124E-2,1.1789745E-1,-1.496499E-4,1.7994799E-2],"categories":[],"categories_nodes":[],"categories_segments":[],"categories_sizes":[],"default_left":[0,0,0,0,0],"id":54,"left_children":[1,-1,3,-1,-1],"loss_changes":[1.706996E-1,0E0,2.3748673E-2,0E0,0E0],"parents":[2147483647,0,0,2,2],"right_children":[2,-1,4,-1,-1],"split_conditions":[1.56E0,-2.3198124E-2,1.68E0,-1.496499E-4,1.7994799E-2],"split_indices":[0,0,0,0,0],"split_type":[0,0,0,0,0],"sum_hessian":[3.7042449E0,1.5349771E0,2.1692677E0,1.0755811E0,1.0936866E0],"tree_param":{"num_deleted":"0","num_feature":"6","num_nodes":"5","size_leaf_vector":"1"}},{"base_weights":[-4.2374205E-2,-1.8867423E-1,1.6303264E-2,-3.811935E-2,1.1642918E-2],"categories":[],"categories_nodes":[],"categories_segments":[],"categories_sizes":[],"default_left":[0,0,0,0,0],"id":55,"left_children":[1,3,-1,-1,-1],"loss_changes":[1.7150292E-1,2.322754E-1,0E0,0E0,0E0],"parents":[2147483647,0,0,1,1],"right_children":[2,4,-1,-1,-1],"split_conditions":[4E0,7.18E2,1.6303264E-2,-3.811935E-2,1.1642918E-2],"split_indices":[2,3,0,0,0],"split_type":[0,0,0,0,0],"sum_hessian":[3.6834629E0,2.198823E0,1.4846399E0,1.1952395E0,1.0035834E0],"tree_param":{"num_deleted":"0","num_feature":"6","num_nodes":"5","size_leaf_vector":"1"}},{"base_weights":[-4.070798E-2,-1.8448173E-1,1.5718088E-2,1.5177042E-3,-3.0293638E-2],"categories":[],"categories_nodes":[],"categories_segments":[],"categories_sizes":[],"default_left":[0,0,0,0,0],"id":56,"left_children":[1,3,-1,-1,-1],"loss_changes":[1.6128713E-1,7.917091E-2,0E0,0E0,0E0],"parents":[2147483647,0,0,1,1],"right_children":[2,4,-1,-1,-1],"split_conditions":[8.9E-1,7E0,1.5718088E-2,1.5177042E-3,-3.0293638E-2],"split_indices":[4,1,0,0,0],"split_type":[0,0,0,0,0],"sum_hessian":[3.649717E0,2.153134E0,1.4965829E0,1.1264107E0,1.0267234E0],"tree_param":{"num_deleted":"0","num_feature":"6","num_nodes":"5","size_leaf_vector":"1"}},{"base_weights":[-3.967124E-2,-2.2190906E-2,1.1802277E-1,6.1606355E-5,1.7869338E-2],"categories":[],"categories_nodes":[],"categories_segments":[],"categories_sizes":[],"default_left":[0,0,0,0,0],"id":57,"left_children":[1,-1,3,-1,-1],"loss_changes":[1.5921444E-1,0E0,2.2216365E-2,0E0,0E0],"parents":[2147483647,0,0,2,2],"right_children":[2,-1,4,-1,-1],"split_conditions":[1.56E0,-2.2190906E-2,1.68E0,6.1606355E-5,1.7869338E-2],"split_indices":[0,0,0,0,0],"split_type":[0,0,0,0,0],"sum_hessian":[3.6288874E0,1.4945312E0,2.1343563E0,1.071329E0,1.0630273E0],"tree_param":{"num_deleted":"0","num_feature":"6","num_nodes":"5","size_leaf_vector":"1"}},{"base_weights":[-3.6800817E-2,-1.79886E-1,1.6008198E-2,-3.566375E-2,9.681944E-3],"categories":[],"categories_nodes":[],"categories_segments":[],"categories_sizes":[],"default_left":[0,0,0,0,0],"id":58,"left_children":[1,3,-1,-1,-1],"loss_changes":[1.5865378E-1,1.8812029E-1,0E0,0E0,0E0],"parents":[2147483647,0,0,1,1],"right_children":[2,4,-1,-1,-1],"split_conditions":[4E0,7.05E2,1.6008198E-2,-3.566375E-2,9.681944E-3],"split_indices":[2,3,0,0,0],"split_type":[0,0,0,0,0],"sum_hessian":[3.6096072E0,2.1403968E0,1.4692105E0,1.129826E0,1.0105709E0],"tree_param":{"num_deleted":"0","num_feature":"6","num_nodes":"5","size_leaf_vector":"1"}},{"base_weights":[-3.5592526E-2,-1.768224E-1,1.5494699E-2,-2.904432E-2,1.6910637E-3],"categories":[],"categories_nodes":[],"categories_segments":[],"categories_sizes":[],"default_left":[0,0,0,0,0],"id":59,"left_children":[1,3,-1,-1,-1],"loss_changes":[1.506647E-1,7.310069E-2,0E0,0E0,0E0],"parents":[2147483647,0,0,1,1],"right_children":[2,4,-1,-1,-1],"split_conditions":[8.9E-1,5E2,1.5494699E-2,-2.904432E-2,1.6910637E-3],"split_indices":[4,3,0,0,0],"split_type":[0,0,0,0,0],"sum_hessian":[3.5807211E0,2.0978005E0,1.4829206E0,1.0076433E0,1.0901572E0],"tree_param":{"num_deleted":"0","num_feature":"6","num_nodes":"5","size_leaf_vector":"1"}},{"base_weights":[-3.4810293E-2,-2.1297108E-2,1.1750417E-1,2.331081E-4,1.7680347E-2],"categories":[],"categories_nodes":[],"categories_segments":[],"categories_sizes":[],"default_left":[0,0,0,0,0],"id":60,"left_children":[1,-1,3,-1,-1],"loss_changes":[1.488072E-1,0E0,2.0784114E-2,0E0,0E0],"parents":[2147483647,0,0,2,2],"right_children":[2,-1,4,-1,-1],"split_conditions":[1.56E0,-2.1297108E-2,1.68E0,2.331081E-4,1.7680347E-2],"split_indices":[0,0,0,0,0],"split_type":[0,0,0,0,0],"sum_hessian":[3.5614712E0,1.4579215E0,2.1035497E0,1.0681884E0,1.0353613E0],"tree_param":{"num_deleted":"0","num_feature":"6","num_nodes":"5","size_leaf_vector":"1"}},{"base_weights":[-3.2217465E-2,-1.7212245E-1,1.5699582E-2,-3.387189E-2,8.767582E-3],"categories":[],"categories_nodes":[],"categories_segments":[],"categories_sizes":[],"default_left":[0,0,0,0,0],"id":61,"left_children":[1,3,-1,-1,-1],"loss_changes":[1.4729793E-1,1.6339958E-1,0E0,0E0,0E0],"parents":[2147483647,0,0,1,1],"right_children":[2,4,-1,-1,-1],"split_conditions":[4E0,7.05E2,1.5699582E-2,-3.387189E-2,8.767582E-3],"split_indices":[2,3,0,0,0],"split_type":[0,0,0,0,0],"sum_hessian":[3.5435162E0,2.089131E0,1.4543852E0,1.0877997E0,1.0013314E0],"tree_param":{"num_deleted":"0","num_feature":"6","num_nodes":"5","size_leaf_vector":"1"}},{"base_weights":[-3.131688E-2,-1.699736E-2,1.52413715E-2],"categories":[],"categories_nodes":[],"categories_segments":[],"categories_sizes":[],"default_left":[0,0,0],"id":62,"left_children":[1,-1,-1],"loss_changes":[1.4099541E-1,0E0,0E0],"parents":[2147483647,0,0],"right_children":[2,-1,-1],"split_conditions":[8.9E-1,-1.699736E-2,1.52413715E-2],"split_indices":[4,0,0],"split_type":[0,0,0],"sum_hessian":[3.5176425E0,2.0473993E0,1.4702433E0],"tree_param":{"num_deleted":"0","num_feature":"6","num_nodes":"3","size_leaf_vector":"1"}},{"base_weights":[-2.8665867E-2,-2.042325E-2,1.1860818E-1,7.140191E-4,1.743412E-2],"categories":[],"categories_nodes":[],"categories_segments":[],"categories_sizes":[],"default_left":[0,0,0,0,0],"id":63,"left_children":[1,-1,3,-1,-1],"loss_changes":[1.4070049E-1,0E0,1.7904293E-2,0E0,0E0],"parents":[2147483647,0,0,2,2],"right_children":[2,-1,4,-1,-1],"split_conditions":[1.56E0,-2.042325E-2,1.68E0,7.140191E-4,1.743412E-2],"split_indices":[0,0,0,0,0],"split_type":[0,0,0,0,0],"sum_hessian":[3.504757E0,1.4223775E0,2.0823796E0,1.0701522E0,1.0122274E0],"tree_param":{"num_deleted":"0","num_feature":"6","num_nodes":"5","size_leaf_vector":"1"}},{"base_weights":[-2.6418924E-2,-2.1975221E-2,1.056186E-1,2.8958013E-2,-1.361598E-2],"categories":[],"categories_nodes":[],"categories_segments":[],"categories_sizes":[],"default_left":[0,0,0,0,0],"id":64,"left_children":[1,-1,3,-1,-1],"loss_changes":[1.3777755E-1,0E0,1.8808162E-1,0E0,0E0],"parents":[2147483647,0,0,2,2],"right_children":[2,-1,4,-1,-1],"split_conditions":[8E0,-2.1975221E-2,1.5E1,2.8958013E-2,-1.361598E-2],"split_indices":[5,0,5,0,0],"split_type":[0,0,0,0,0],"sum_hessian":[3.488052E0,1.1458898E0,2.3421621E0,1.2178385E0,1.1243236E0],"tree_param":{"num_deleted":"0","num_feature":"6","num_nodes":"5","size_leaf_vector":"1"}},{"base_weights":[-2.5391335E-2,-1.9824378E-2,1.1802411E-2],"categories":[],"categories_nodes":[],"categories_segments":[],"categories_sizes":[],"default_left":[0,0,0],"id":65,"left_children":[1,-1,-1],"loss_changes":[1.340019E-1,0E0,0E0],"parents":[2147483647,0,0],"right_children":[2,-1,-1],"split_conditions":[1.56E0,-1.9824378E-2,1.1802411E-2],"split_indices":[0,0,0],"split_type":[0,0,0],"sum_hessian":[3.4617043E0,1.3963907E0,2.0653138E0],"tree_param":{"num_deleted":"0","num_feature":"6","num_nodes":"3","size_leaf_vector":"1"}},{"base_weights":[-2.4750303E-2,-1.6049735E-1,1.5529706E-2,-3.1085733E-2,7.0571476E-3],"categories":[],"categories_nodes":[],"categories_segments":[],"categories_sizes":[],"default_left":[0,0,0,0,0],"id":66,"left_children":[1,3,-1,-1,-1],"loss_changes":[1.3361862E-1,1.2711681E-1,0E0,0E0,0E0],"parents":[2147483647,0,0,1,1],"right_children":[2,4,-1,-1,-1],"split_conditions":[4E0,6.97E2,1.5529706E-2,-3.1085733E-2,7.0571476E-3],"split_indices":[2,3,0,0,0],"split_type":[0,0,0,0,0],"sum_hessian":[3.4472125E0,2.027305E0,1.4199078E0,1.0189542E0,1.0083506E0],"tree_param":{"num_deleted":"0","num_feature":"6","num_nodes":"5","size_leaf_vector":"1"}},{"base_weights":[-2.435884E-2,-1.5769718E-2,1.4894045E-2],"categories":[],"categories_nodes":[],"categories_segments":[],"categories_sizes":[],"default_left":[0,0,0],"id":67,"left_children":[1,-1,-1],"loss_changes":[1.2575352E-1,0E0,0E0],"parents":[2147483647,0,0],"right_children":[2,-1,-1],"split_conditions":[8.9E-1,-1.5769718E-2,1.4894045E-2],"split_indices":[4,0,0],"split_type":[0,0,0],"sum_hessian":[3.425676E0,1.9869361E0,1.4387401E0],"tree_param":{"num_deleted":"0","num_feature":"6","num_nodes":"3","size_leaf_vector":"1"}},{"base_weights":[-2.2185467E-2,-1.91283E-2,1.1637115E-2],"categories":[],"categories_nodes":[],"categories_segments":[],"categories_sizes":[],"default_left":[0,0,0],"id":68,"left_children":[1,-1,-1],"loss_changes":[1.2568317E-1,0E0,0E0],"parents":[2147483647,0,0],"right_children":[2,-1,-1],"split_conditions":[1.56E0,-1.91283E-2,1.1637115E-2],"split_indices":[0,0,0],"split_type":[0,0,0],"sum_hessian":[3.4142213E0,1.3662634E0,2.047958E0],"tree_param":{"num_deleted":"0","num_feature":"6","num_nodes":"3","size_leaf_vector":"1"}},{"base_weights":[-2.1748241E-2,-1.5461174E-2,1.5206443E-2],"categories":[],"categories_nodes":[],"categories_segments":[],"categories_sizes":[],"default_left":[0,0,0],"id":69,"left_children":[1,-1,-1],"loss_changes":[1.2513599E-1,0E0,0E0],"parents":[2147483647,0,0],"right_children":[2,-1,-1],"split_conditions":[4E0,-1.5461174E-2,1.5206443E-2],"split_indices":[2,0,0],"split_type":[0,0,0],"sum_hessian":[3.4006171E0,1.9899533E0,1.4106638E0],"tree_param":{"num_deleted":"0","num_feature":"6","num_nodes":"3","size_leaf_vector":"1"}},{"base_weights":[-1.9682473E-2,-2.017307E-2,1.0412921E-1,2.788392E-2,-1.2644659E-2],"categories":[],"categories_nodes":[],"categories_segments":[],"categories_sizes":[],"default_left":[0,0,0,0,0],"id":70,"left_children":[1,-1,3,-1,-1],"loss_changes":[1.19968764E-1,0E0,1.6710107E-1,0E0,0E0],"parents":[2147483647,0,0,2,2],"right_children":[2,-1,4,-1,-1],"split_conditions":[8E0,-2.017307E-2,1.5E1,2.788392E-2,-1.2644659E-2],"split_indices":[5,0,5,0,0],"split_type":[0,0,0,0,0],"sum_hessian":[3.3905962E0,1.117755E0,2.2728412E0,1.1739833E0,1.0988579E0],"tree_param":{"num_deleted":"0","num_feature":"6","num_nodes":"5","size_leaf_vector":"1"}},{"base_weights":[-1.8923398E-2,-1.8825268E-2,1.1768858E-2],"categories":[],"categories_nodes":[],"categories_segments":[],"categories_sizes":[],"default_left":[0,0,0],"id":71,"left_children":[1,-1,-1],"loss_changes":[1.23183236E-1,0E0,0E0],"parents":[2147483647,0,0],"right_children":[2,-1,-1],"split_conditions":[1.56E0,-1.8825268E-2,1.1768858E-2],"split_indices":[0,0,0],"split_type":[0,0,0],"sum_hessian":[3.3673809E0,1.3348439E0,2.032537E0],"tree_param":{"num_deleted":"0","num_feature":"6","num_nodes":"3","size_leaf_vector":"1"}},{"base_weights":[-1.8719146E-2,1.1154949E-1,-1.928367E-2,1.4250198E-2,2.7271337E-3],"categories":[],"categories_nodes":[],"categories_segments":[],"categories_sizes":[],"default_left":[0,0,0,0,0],"id":72,"left_children":[1,3,-1,-1,-1],"loss_changes":[1.2027341E-1,4.263792E-3,0E0,0E0,0E0],"parents":[2147483647,0,0,1,1],"right_children":[2,4,-1,-1,-1],"split_conditions":[7E0,3E0,-1.928367E-2,1.4250198E-2,2.7271337E-3],"split_indices":[1,1,0,0,0],"split_type":[0,0,0,0,0],"sum_hessian":[3.354217E0,2.1242623E0,1.2299547E0,1.0483761E0,1.0758861E0],"tree_param":{"num_deleted":"0","num_feature":"6","num_nodes":"5","size_leaf_vector":"1"}},{"base_weights":[-1.7431142E-2,-1.8049544E-2,1.1321404E-2],"categories":[],"categories_nodes":[],"categories_segments":[],"categories_sizes":[],"default_left":[0,0,0],"id":73,"left_children":[1,-1,-1],"loss_changes":[1.12977296E-1,0E0,0E0],"parents":[2147483647,0,0],"right_children":[2,-1,-1],"split_conditions":[1.56E0,-1.8049544E-2,1.1321404E-2],"split_indices":[0,0,0],"split_type":[0,0,0],"sum_hessian":[3.344E0,1.3177215E0,2.0262787E0],"tree_param":{"num_deleted":"0","num_feature":"6","num_nodes":"3","size_leaf_vector":"1"}},{"base_weights":[-1.7299647E-2,-1.9501364E-2,1.0320796E-1,-1.255527E-2,2.7847398E-2],"categories":[],"categories_nodes":[],"categories_segments":[],"categories_sizes":[],"default_left":[0,0,0,0,0],"id":74,"left_children":[1,-1,3,-1,-1],"loss_changes":[1.1289612E-1,0E0,1.6467881E-1,0E0,0E0],"parents":[2147483647,0,0,2,2],"right_children":[2,-1,4,-1,-1],"split_conditions":[8E0,-1.9501364E-2,4E0,-1.255527E-2,2.7847398E-2],"split_indices":[5,0,2,0,0],"split_type":[0,0,0,0,0],"sum_hessian":[3.331792E0,1.096501E0,2.235291E0,1.0927097E0,1.1425813E0],"tree_param":{"num_deleted":"0","num_feature":"6","num_nodes":"5","size_leaf_vector":"1"}},{"base_weights":[-1.6611224E-2,-1.4518037E-2,1.46899475E-2],"categories":[],"categories_nodes":[],"categories_segments":[],"categories_sizes":[],"default_left":[0,0,0],"id":75,"left_children":[1,-1,-1],"loss_changes":[1.11916564E-1,0E0,0E0],"parents":[2147483647,0,0],"right_children":[2,-1,-1],"split_conditions":[8.9E-1,-1.4518037E-2,1.46899475E-2],"split_indices":[4,0,0],"split_type":[0,0,0],"sum_hessian":[3.3091896E0,1.9152921E0,1.3938974E0],"tree_param":{"num_deleted":"0","num_feature":"6","num_nodes":"3","size_leaf_vector":"1"}},{"base_weights":[-1.4949865E-2,-1.7745912E-2,1.1337572E-2],"categories":[],"categories_nodes":[],"categories_segments":[],"categories_sizes":[],"default_left":[0,0,0],"id":76,"left_children":[1,-1,-1],"loss_changes":[1.0977156E-1,0E0,0E0],"parents":[2147483647,0,0],"right_children":[2,-1,-1],"split_conditions":[1.56E0,-1.7745912E-2,1.1337572E-2],"split_indices":[0,0,0],"split_type":[0,0,0],"sum_hessian":[3.2990112E0,1.286689E0,2.0123222E0],"tree_param":{"num_deleted":"0","num_feature":"6","num_nodes":"3","size_leaf_vector":"1"}},{"base_weights":[-1.4999792E-2,1.0936402E-1,-1.8332036E-2,1.3770697E-2,2.8476936E-3],"categories":[],"categories_nodes":[],"categories_segments":[],"categories_sizes":[],"default_left":[0,0,0,0,0],"id":77,"left_children":[1,3,-1,-1,-1],"loss_changes":[1.0979342E-1,3.1669475E-3,0E0,0E0,0E0],"parents":[2147483647,0,0,1,1],"right_children":[2,4,-1,-1,-1],"split_conditions":[7E0,3E0,-1.8332036E-2,1.3770697E-2,2.8476936E-3],"split_indices":[1,1,0,0,0],"split_type":[0,0,0,0,0],"sum_hessian":[3.2872412E0,2.0919013E0,1.1953397E0,1.0289104E0,1.062991E0],"tree_param":{"num_deleted":"0","num_feature":"6","num_nodes":"5","size_leaf_vector":"1"}},{"base_weights":[-1.3941133E-2,-1.7039428E-2,1.0889436E-2],"categories":[],"categories_nodes":[],"categories_segments":[],"categories_sizes":[],"default_left":[0,0,0],"id":78,"left_children":[1,-1,-1],"loss_changes":[1.0076935E-1,0E0,0E0],"parents":[2147483647,0,0],"right_children":[2,-1,-1],"split_conditions":[1.56E0,-1.7039428E-2,1.0889436E-2],"split_indices":[0,0,0],"split_type":[0,0,0],"sum_hessian":[3.2779887E0,1.2714251E0,2.0065637E0],"tree_param":{"num_deleted":"0","num_feature":"6","num_nodes":"3","size_leaf_vector":"1"}},{"base_weights":[-1.403218E-2,-1.3737782E-2,1.4470327E-2],"categories":[],"categories_nodes":[],"categories_segments":[],"categories_sizes":[],"default_left":[0,0,0],"id":79,"left_children":[1,-1,-1],"loss_changes":[1.0342506E-1,0E0,0E0],"parents":[2147483647,0,0],"right_children":[2,-1,-1],"split_conditions":[4E0,-1.3737782E-2,1.4470327E-2],"split_indices":[2,0,0],"split_type":[0,0,0],"sum_hessian":[3.2670543E0,1.9141835E0,1.3528708E0],"tree_param":{"num_deleted":"0","num_feature":"6","num_nodes":"3","size_leaf_vector":"1"}},{"base_weights":[-1.2484723E-2,-1.374803E-2,1.4401927E-2],"categories":[],"categories_nodes":[],"categories_segments":[],"categories_sizes":[],"default_left":[0,0,0],"id":80,"left_children":[1,-1,-1],"loss_changes":[1.031127E-1,0E0,0E0],"parents":[2147483647,0,0],"right_children":[2,-1,-1],"split_conditions":[8.9E-1,-1.374803E-2,1.4401927E-2],"split_indices":[4,0,0],"split_type":[0,0,0],"sum_hessian":[3.2588484E0,1.8793863E0,1.379462E0],"tree_param":{"num_deleted":"0","num_feature":"6","num_nodes":"3","size_leaf_vector":"1"}},{"base_weights":[-1.1110263E-2,1.0629716E-1,-1.7217686E-2,1.3007429E-2,3.142063E-3],"categories":[],"categories_nodes":[],"categories_segments":[],"categories_sizes":[],"default_left":[0,0,0,0,0],"id":81,"left_children":[1,3,-1,-1,-1],"loss_changes":[9.866144E-2,1.3896041E-3,0E0,0E0,0E0],"parents":[2147483647,0,0,1,1],"right_children":[2,4,-1,-1,-1],"split_conditions":[7E0,3E0,-1.7217686E-2,1.3007429E-2,3.142063E-3],"split_indices":[1,1,0,0,0],"split_type":[0,0,0,0,0],"sum_hessian":[3.2494857E0,2.0761473E0,1.1733385E0,1.0162514E0,1.0598958E0],"tree_param":{"num_deleted":"0","num_feature":"6","num_nodes":"5","size_leaf_vector":"1"}},{"base_weights":[-1.02799805E-2,-1.6851021E-2,1.1158625E-2],"categories":[],"categories_nodes":[],"categories_segments":[],"categories_sizes":[],"default_left":[0,0,0],"id":82,"left_children":[1,-1,-1],"loss_changes":[1.0058769E-1,0E0,0E0],"parents":[2147483647,0,0],"right_children":[2,-1,-1],"split_conditions":[1.56E0,-1.6851021E-2,1.1158625E-2],"split_indices":[0,0,0],"split_type":[0,0,0],"sum_hessian":[3.24128E0,1.2437094E0,1.9975708E0],"tree_param":{"num_deleted":"0","num_feature":"6","num_nodes":"3","size_leaf_vector":"1"}},{"base_weights":[-1.0631685E-2,-1.7729187E-2,1.0191482E-1,2.7662873E-2,-1.3022614E-2],"categories":[],"categories_nodes":[],"categories_segments":[],"categories_sizes":[],"default_left":[0,0,0,0,0],"id":83,"left_children":[1,-1,3,-1,-1],"loss_changes":[9.742048E-2,0E0,1.641966E-1,0E0,0E0],"parents":[2147483647,0,0,2,2],"right_children":[2,-1,4,-1,-1],"split_conditions":[8E0,-1.7729187E-2,1.5E1,2.7662873E-2,-1.3022614E-2],"split_indices":[5,0,5,0,0],"split_type":[0,0,0,0,0],"sum_hessian":[3.2305124E0,1.0703094E0,2.160203E0,1.1232109E0,1.0369921E0],"tree_param":{"num_deleted":"0","num_feature":"6","num_nodes":"5","size_leaf_vector":"1"}},{"base_weights":[-1.0329335E-2,-1.65044E-2,1.0846678E-2],"categories":[],"categories_nodes":[],"categories_segments":[],"categories_sizes":[],"default_left":[0,0,0],"id":84,"left_children":[1,-1,-1],"loss_changes":[9.527013E-2,0E0,0E0],"parents":[2147483647,0,0],"right_children":[2,-1,-1],"split_conditions":[1.56E0,-1.65044E-2,1.0846678E-2],"split_indices":[0,0,0],"split_type":[0,0,0],"sum_hessian":[3.2094908E0,1.2249141E0,1.9845768E0],"tree_param":{"num_deleted":"0","num_feature":"6","num_nodes":"3","size_leaf_vector":"1"}},{"base_weights":[-1.0676794E-2,1.0513064E-1,-1.7104175E-2,1.281328E-2,3.1338383E-3],"categories":[],"categories_nodes":[],"categories_segments":[],"categories_sizes":[],"default_left":[0,0,0,0,0],"id":85,"left_children":[1,3,-1,-1,-1],"loss_changes":[9.596812E-2,1.1746287E-3,0E0,0E0,0E0],"parents":[2147483647,0,0,1,1],"right_children":[2,4,-1,-1,-1],"split_conditions":[7E0,3E0,-1.7104175E-2,1.281328E-2,3.1338383E-3],"split_indices":[1,1,0,0,0],"split_type":[0,0,0,0,0],"sum_hessian":[3.1992612E0,2.0577137E0,1.1415477E0,1.0073185E0,1.0503953E0],"tree_param":{"num_deleted":"0","num_feature":"6","num_nodes":"5","size_leaf_vector":"1"}},{"base_weights":[-9.912569E-3,-1.2789908E-2,1.4061214E-2],"categories":[],"categories_nodes":[],"categories_segments":[],"categories_sizes":[],"default_left":[0,0,0],"id":86,"left_children":[1,-1,-1],"loss_changes":[9.242103E-2,0E0,0E0],"parents":[2147483647,0,0],"right_children":[2,-1,-1],"split_conditions":[4E0,-1.2789908E-2,1.4061214E-2],"split_indices":[2,0,0],"split_type":[0,0,0],"sum_hessian":[3.1912918E0,1.8732696E0,1.3180223E0],"tree_param":{"num_deleted":"0","num_feature":"6","num_nodes":"3","size_leaf_vector":"1"}},{"base_weights":[-8.635055E-3,-1.6104566E-2,1.0712543E-2],"categories":[],"categories_nodes":[],"categories_segments":[],"categories_sizes":[],"default_left":[0,0,0],"id":87,"left_children":[1,-1,-1],"loss_changes":[9.1070056E-2,0E0,0E0],"parents":[2147483647,0,0],"right_children":[2,-1,-1],"split_conditions":[1.56E0,-1.6104566E-2,1.0712543E-2],"split_indices":[0,0,0],"split_type":[0,0,0],"sum_hessian":[3.1839511E0,1.2055383E0,1.9784127E0],"tree_param":{"num_deleted":"0","num_feature":"6","num_nodes":"3","size_leaf_vector":"1"}},{"base_weights":[-9.09094E-3,-1.2692717E-2,1.3679099E-2],"categories":[],"categories_nodes":[],"categories_segments":[],"categories_sizes":[],"default_left":[0,0,0],"id":88,"left_children":[1,-1,-1],"loss_changes":[8.911714E-2,0E0,0E0],"parents":[2147483647,0,0],"right_children":[2,-1,-1],"split_conditions":[8.9E-1,-1.2692717E-2,1.3679099E-2],"split_indices":[4,0,0],"split_type":[0,0,0],"sum_hessian":[3.1741657E0,1.82774E0,1.3464258E0],"tree_param":{"num_deleted":"0","num_feature":"6","num_nodes":"3","size_leaf_vector":"1"}},{"base_weights":[-7.96319E-3,1.0161222E-2,-1.6133128E-2],"categories":[],"categories_nodes":[],"categories_segments":[],"categories_sizes":[],"default_left":[0,0,0],"id":89,"left_children":[1,-1,-1],"loss_changes":[8.6403996E-2,0E0,0E0],"parents":[2147483647,0,0],"right_children":[2,-1,-1],"split_conditions":[7E0,1.0161222E-2,-1.6133128E-2],"split_indices":[1,0,0],"split_type":[0,0,0],"sum_hessian":[3.1659763E0,2.043464E0,1.1225123E0],"tree_param":{"num_deleted":"0","num_feature":"6","num_nodes":"3","size_leaf_vector":"1"}},{"base_weights":[-8.622853E-3,-1.6616058E-2,9.8065086E-2,2.686262E-2,-1.2886702E-2],"categories":[],"categories_nodes":[],"categories_segments":[],"categories_sizes":[],"default_left":[0,0,0,0,0],"id":90,"left_children":[1,-1,3,-1,-1],"loss_changes":[8.6193524E-2,0E0,1.5493214E-1,0E0,0E0],"parents":[2147483647,0,0,2,2],"right_children":[2,-1,4,-1,-1],"split_conditions":[8E0,-1.6616058E-2,1.5E1,2.686262E-2,-1.2886702E-2],"split_indices":[5,0,5,0,0],"split_type":[0,0,0,0,0],"sum_hessian":[3.1588278E0,1.0503758E0,2.108452E0,1.0988399E0,1.0096122E0],"tree_param":{"num_deleted":"0","num_feature":"6","num_nodes":"5","size_leaf_vector":"1"}},{"base_weights":[-8.414278E-3,-1.6255058E-2,1.0786943E-2],"categories":[],"categories_nodes":[],"categories_segments":[],"categories_sizes":[],"default_left":[0,0,0],"id":91,"left_children":[1,-1,-1],"loss_changes":[9.172651E-2,0E0,0E0],"parents":[2147483647,0,0],"right_children":[2,-1,-1],"split_conditions":[1.56E0,-1.6255058E-2,1.0786943E-2],"split_indices":[0,0,0],"split_type":[0,0,0],"sum_hessian":[3.139376E0,1.1788751E0,1.9605008E0],"tree_param":{"num_deleted":"0","num_feature":"6","num_nodes":"3","size_leaf_vector":"1"}},{"base_weights":[-8.924512E-3,-1.2253069E-2,1.3592563E-2],"categories":[],"categories_nodes":[],"categories_segments":[],"categories_sizes":[],"default_left":[0,0,0],"id":92,"left_children":[1,-1,-1],"loss_changes":[8.4611595E-2,0E0,0E0],"parents":[2147483647,0,0],"right_children":[2,-1,-1],"split_conditions":[4E0,-1.2253069E-2,1.3592563E-2],"split_indices":[2,0,0],"split_type":[0,0,0],"sum_hessian":[3.1296225E0,1.8403329E0,1.2892896E0],"tree_param":{"num_deleted":"0","num_feature":"6","num_nodes":"3","size_leaf_vector":"1"}},{"base_weights":[-7.7218856E-3,-1.5652096E-2,1.039081E-2],"categories":[],"categories_nodes":[],"categories_segments":[],"categories_sizes":[],"default_left":[0,0,0],"id":93,"left_children":[1,-1,-1],"loss_changes":[8.474668E-2,0E0,0E0],"parents":[2147483647,0,0],"right_children":[2,-1,-1],"split_conditions":[1.56E0,-1.5652096E-2,1.039081E-2],"split_indices":[0,0,0],"split_type":[0,0,0],"sum_hessian":[3.1228828E0,1.1662154E0,1.9566674E0],"tree_param":{"num_deleted":"0","num_feature":"6","num_nodes":"3","size_leaf_vector":"1"}},{"base_weights":[-8.25241E-3,9.959738E-3,-1.6006595E-2],"categories":[],"categories_nodes":[],"categories_segments":[],"categories_sizes":[],"default_left":[0,0,0],"id":94,"left_children":[1,-1,-1],"loss_changes":[8.329736E-2,0E0,0E0],"parents":[2147483647,0,0],"right_children":[2,-1,-1],"split_conditions":[7E0,9.959738E-3,-1.6006595E-2],"split_indices":[1,0,0],"split_type":[0,0,0],"sum_hessian":[3.113783E0,2.0215814E0,1.0922015E0],"tree_param":{"num_deleted":"0","num_feature":"6","num_nodes":"3","size_leaf_vector":"1"}},{"base_weights":[-8.919717E-3,-1.605916E-2,9.450681E-2,-1.166806E-2,2.547408E-2],"categories":[],"categories_nodes":[],"categories_segments":[],"categories_sizes":[],"default_left":[0,0,0,0,0],"id":95,"left_children":[1,-1,3,-1,-1],"loss_changes":[7.9600856E-2,0E0,1.3365462E-1,0E0,0E0],"parents":[2147483647,0,0,2,2],"right_children":[2,-1,4,-1,-1],"split_conditions":[8E0,-1.605916E-2,4E0,-1.166806E-2,2.547408E-2],"split_indices":[5,0,2,0,0],"split_type":[0,0,0,0,0],"sum_hessian":[3.106858E0,1.0355473E0,2.0713108E0,1.0108405E0,1.0604702E0],"tree_param":{"num_deleted":"0","num_feature":"6","num_nodes":"5","size_leaf_vector":"1"}},{"base_weights":[-8.595499E-3,-1.5448724E-2,1.0057482E-2],"categories":[],"categories_nodes":[],"categories_segments":[],"categories_sizes":[],"default_left":[0,0,0],"id":96,"left_children":[1,-1,-1],"loss_changes":[8.066754E-2,0E0,0E0],"parents":[2147483647,0,0],"right_children":[2,-1,-1],"split_conditions":[1.56E0,-1.5448724E-2,1.0057482E-2],"split_indices":[0,0,0],"split_type":[0,0,0],"sum_hessian":[3.0892713E0,1.1445835E0,1.944688E0],"tree_param":{"num_deleted":"0","num_feature":"6","num_nodes":"3","size_leaf_vector":"1"}},{"base_weights":[-9.081767E-3,-1.2166286E-2,1.2972876E-2],"categories":[],"categories_nodes":[],"categories_segments":[],"categories_sizes":[],"default_left":[0,0,0],"id":97,"left_children":[1,-1,-1],"loss_changes":[7.955195E-2,0E0,0E0],"parents":[2147483647,0,0],"right_children":[2,-1,-1],"split_conditions":[8.9E-1,-1.2166286E-2,1.2972876E-2],"split_indices":[4,0,0],"split_type":[0,0,0],"sum_hessian":[3.080564E0,1.7692015E0,1.3113625E0],"tree_param":{"num_deleted":"0","num_feature":"6","num_nodes":"3","size_leaf_vector":"1"}},{"base_weights":[-7.992284E-3,-1.4907631E-2,9.710411E-3],"categories":[],"categories_nodes":[],"categories_segments":[],"categories_sizes":[],"default_left":[0,0,0],"id":98,"left_children":[1,-1,-1],"loss_changes":[7.486962E-2,0E0,0E0],"parents":[2147483647,0,0],"right_children":[2,-1,-1],"split_conditions":[1.56E0,-1.4907631E-2,9.710411E-3],"split_indices":[0,0,0],"split_type":[0,0,0],"sum_hessian":[3.0731084E0,1.1332854E0,1.9398229E0],"tree_param":{"num_deleted":"0","num_feature":"6","num_nodes":"3","size_leaf_vector":"1"}},{"base_weights":[-8.493383E-3,9.448085E-3,-1.53614795E-2],"categories":[],"categories_nodes":[],"categories_segments":[],"categories_sizes":[],"default_left":[0,0,0],"id":99,"left_children":[1,-1,-1],"loss_changes":[7.525921E-2,0E0,0E0],"parents":[2147483647,0,0],"right_children":[2,-1,-1],"split_conditions":[7E0,9.448085E-3,-1.53614795E-2],"split_indices":[1,0,0],"split_type":[0,0,0],"sum_hessian":[3.064943E0,1.9969292E0,1.0680139E0],"tree_param":{"num_deleted":"0","num_feature":"6","num_nodes":"3","size_leaf_vector":"1"}}]},"name":"gbtree"},"learner_model_param":{"base_score":"2.06226E-1","boost_from_average":"1","num_class":"0","num_feature":"6","num_target":"1"},"objective":{"name":"binary:logistic","reg_loss_param":{"scale_pos_weight":"5"}}},"version":[2,1,4]}