{"learner":{"attributes":{},"feature_names":["claim_amount","estimated_damage","vehicle_year","days_since_policy_start","location_risk_score"],"feature_types":["int","int","int","int","float"],"gradient_booster":{"model":{"gbtree_model_param":{"num_parallel_tree":"1","num_trees":"100"},"iteration_indptr":[0,1,2,3,4,5,6,7,8,9,10,11,12,13,14,15,16,17,18,19,20,21,22,23,24,25,26,27,28,29,30,31,32,33,34,35,36,37,38,39,40,41,42,43,44,45,46,47,48,49,50,51,52,53,54,55,56,57,58,59,60,61,62,63,64,65,66,67,68,69,70,71,72,73,74,75,76,77,78,79,80,81,82,83,84,85,86,87,88,89,90,91,92,93,94,95,96,97,98,99,100],"tree_info":[0,0,0,0,0,0,0,0,0,0,0,0,0,0,0,0,0,0,0,0,0,0,0,0,0,0,0,0,0,0,0,0,0,0,0,0,0,0,0,0,0,0,0,0,0,0,0,0,0,0,0,0,0,0,0,0,0,0,0,0,0,0,0,0,0,0,0,0,0,0,0,0,0,0,0,0,0,0,0,0,0,0,0,0,0,0,0,0,0,0,0,0,0,0,0,0,0,0,0,0],"trees":[{"base_weights":[-1.5158268E-8,4.202375E-1,-7.160793E-2,7.4564123E-1,-3.8209426E-1,2.7352381E-2,-3.918668E-1,4.391955E-1,1.4132258E0,-2.5168124E-1,6.169943E-2,-4.997738E-2,6.316148E-1,-5.718523E-1,3.1750426E-1,7.6267326E-1,-2.3756747E-1,6.456981E-1,2.7509393E-2,-1.2821536E-1,1.8783484E-1,1.3571694E-1,-4.202134E-1,-3.5893625E-1,1.7194542E0,-6.7985827E-1,1.8783484E-1,8.1460035E-1,-2.1976607E-1,4.878977E-1,2.4656667E-1,2.7729379E-2,4.581943E-1,1.6850884E-1,-5.221822E-1,-7.074553E-1,9.048887E-2,6.8540716E-1,1.6850884E-1,-1.3937083E-1,-8.7959075E-1,4.2396154E-2,3.984226E-1,1.8514436E-1,-1.4163013E-1,-3.0312061E-2,1.5498304E-1,-2.5952116E-1,-6.140576E-2,-2.5168124E-1,-5.439791E-2,-1.9474699E-1,3.7225232E-1,-3.1583825E-1,-2.9030478E-2],"categories":[],"categories_nodes":[],"categories_segments":[],"categories_sizes":[],"default_left":[0,0,0,0,0,0,0,0,0,0,0,0,0,0,0,0,0,0,0,0,0,0,0,0,0,0,0,0,0,0,0,0,0,0,0,0,0,0,0,0,0,0,0,0,0,0,0,0,0,0,0,0,0,0,0],"id":0,"left_children":[1,3,5,7,9,11,13,15,17,-1,19,21,23,25,27,29,-1,-1,-1,-1,-1,31,33,35,37,39,-1,41,-1,-1,43,45,-1,-1,47,49,-1,-1,-1,51,53,-1,-1,-1,-1,-1,-1,-1,-1,-1,-1,-1,-1,-1,-1],"loss_changes":[3.875742E0,5.180528E0,3.4983249E0,2.1778483E0,1.2827841E0,4.0034804E0,3.5065188E0,4.9154296E0,3.5659156E0,0E0,1.3749226E0,5.3016477E0,1.1087997E1,3.1594658E0,3.683364E0,3.6477098E0,0E0,0E0,0E0,0E0,0E0,7.705764E0,2.8690052E0,1.5747492E0,1.8603716E0,2.0214367E0,0E0,1.3634794E0,0E0,0E0,2.1194787E0,3.1284025E0,0E0,0E0,2.4164524E0,1.3633657E-1,0E0,0E0,0E0,5.412249E0,1.838851E0,0E0,0E0,0E0,0E0,0E0,0E0,0E0,0E0,0E0,0E0,0E0,0E0,0E0,0E0],"parents":[2147483647,0,0,1,1,2,2,3,3,4,4,5,5,6,6,7,7,8,8,10,10,11,11,12,12,13,13,14,14,15,15,21,21,22,22,23,23,24,24,25,25,27,27,30,30,31,31,34,34,35,35,39,39,40,40],"right_children":[2,4,6,8,10,12,14,16,18,-1,20,22,24,26,28,30,-1,-1,-1,-1,-1,32,34,36,38,40,-1,42,-1,-1,44,46,-1,-1,48,50,-1,-1,-1,52,54,-1,-1,-1,-1,-1,-1,-1,-1,-1,-1,-1,-1,-1,-1],"split_conditions":[2.3E-1,3.583E3,2.4E1,7.777E3,1.5E-1,2.2E1,4.241E3,6.779E3,8.419E3,-2.5168124E-1,2.014E3,7.254E3,5.946E3,9.3E-1,4.738E3,1.5E-1,-2.3756747E-1,6.456981E-1,2.7509393E-2,-1.2821536E-1,1.8783484E-1,6.855E3,1.02E3,3.552E3,7.986E3,3.734E3,1.8783484E-1,6.6E-1,-2.1976607E-1,4.878977E-1,4.696E3,8.6E-1,4.581943E-1,1.6850884E-1,2.554E3,3.558E3,9.048887E-2,6.8540716E-1,1.6850884E-1,3.336E3,7.6E-1,4.2396154E-2,3.984226E-1,1.8514436E-1,-1.4163013E-1,-3.0312061E-2,1.5498304E-1,-2.5952116E-1,-6.140576E-2,-2.5168124E-1,-5.439791E-2,-1.9474699E-1,3.7225232E-1,-3.1583825E-1,-2.9030478E-2],"split_indices":[4,1,3,0,4,3,1,0,0,0,2,0,0,4,1,4,0,0,0,0,0,0,1,1,0,0,0,4,0,0,0,4,0,0,1,0,0,0,0,0,4,0,0,0,0,0,0,0,0,0,0,0,0,0,0],"split_type":[0,0,0,0,0,0,0,0,0,0,0,0,0,0,0,0,0,0,0,0,0,0,0,0,0,0,0,0,0,0,0,0,0,0,0,0,0,0,0,0,0,0,0,0,0,0,0,0,0,0,0,0,0,0,0],"sum_hessian":[1.26795006E2,1.77513E1,1.090437E2,1.2679501E1,5.0718E0,8.400169E1,2.5042013E1,9.826612E0,2.8528876E0,2.0604188E0,3.0113814E0,7.528454E1,8.717156E0,2.0128708E1,4.913306E0,8.083181E0,1.7434313E0,1.4264438E0,1.4264438E0,1.7434313E0,1.26795E0,5.055951E1,2.4725025E1,4.913306E0,3.8038502E0,1.8860758E1,1.26795E0,3.4868627E0,1.4264438E0,2.2189126E0,5.8642693E0,4.7865116E1,2.6943939E0,1.9019251E0,2.2823101E1,3.1698751E0,1.7434313E0,1.9019251E0,1.9019251E0,5.5472813E0,1.3313476E1,2.0604188E0,1.4264438E0,3.962344E0,1.9019251E0,3.8513985E1,9.351131E0,1.01436E1,1.2679501E1,2.0604188E0,1.1094563E0,4.437825E0,1.1094563E0,1.06190815E1,2.6943939E0],"tree_param":{"num_deleted":"0","num_feature":"5","num_nodes":"55","size_leaf_vector":"1"}},{"base_weights":[2.2179638E-3,6.33833E-1,-2.8828286E-2,1.3649545E0,-2.989416E-1,-7.8921956E-1,3.0047183E-3,5.1681913E-2,5.864294E-1,8.290229E-2,-2.0925401E-1,-5.3899407E-2,-2.7586207E-1,2.9370657E-1,-6.447404E-2,7.4614964E-2,9.745418E-1,-2.593113E-1,9.736867E-2,4.1100174E-1,-4.380315E-1,4.7723934E-1,7.048798E-2,-4.3584293E-1,2.4029125E-1,7.327756E-1,-7.0201345E-2,2.4961479E-1,-7.399532E-2,-1.7761767E-1,5.1564325E-2,8.98274E-2,-5.6979444E-2,-1.5104973E-1,2.3691119E-1,3.2849157E-1,-1.050441E-1,5.416068E-1,5.5302203E-2,4.4332957E-3,-2.8305054E-1],"categories":[],"categories_nodes":[],"categories_segments":[],"categories_sizes":[],"default_left":[0,0,0,0,0,0,0,0,0,0,0,0,0,0,0,0,0,0,0,0,0,0,0,0,0,0,0,0,0,0,0,0,0,0,0,0,0,0,0,0,0],"id":1,"left_children":[1,3,5,7,9,11,13,-1,-1,-1,-1,-1,-1,15,17,19,21,23,25,27,29,-1,31,33,35,37,39,-1,-1,-1,-1,-1,-1,-1,-1,-1,-1,-1,-1,-1,-1],"loss_changes":[2.4998047E0,4.481068E0,2.9451957E0,2.1448894E0,9.8257804E-1,2.2315788E-1,2.3275185E0,0E0,0E0,0E0,0E0,0E0,0E0,3.2613559E0,3.0630107E0,3.282853E0,2.8733397E0,3.9840357E0,5.7319736E0,3.3563836E0,8.1693876E-1,0E0,2.4875565E-1,3.1219401E0,6.503979E0,6.2678366E0,3.2146986E0,0E0,0E0,0E0,0E0,0E0,0E0,0E0,0E0,0E0,0E0,0E0,0E0,0E0,0E0],"parents":[2147483647,0,0,1,1,2,2,3,3,4,4,5,5,6,6,13,13,14,14,15,15,16,16,17,17,18,18,19,19,20,20,22,22,23,23,24,24,25,25,26,26],"right_children":[2,4,6,8,10,12,14,-1,-1,-1,-1,-1,-1,16,18,20,22,24,26,28,30,-1,32,34,36,38,40,-1,-1,-1,-1,-1,-1,-1,-1,-1,-1,-1,-1,-1,-1],"split_conditions":[6.58E2,5E-1,2E0,2.9E-1,2.1E1,3.681E3,2.8E-1,5.1681913E-2,5.864294E-1,8.290229E-2,-2.0925401E-1,-5.3899407E-2,-2.7586207E-1,7.777E3,2.643E3,2.2E1,8.483E3,8.2E-1,3.208E3,3.458E3,2.019E3,4.7723934E-1,2.855E3,9.666E3,1.417E3,3.95E3,9.4E-1,2.4961479E-1,-7.399532E-2,-1.7761767E-1,5.1564325E-2,8.98274E-2,-5.6979444E-2,-1.5104973E-1,2.3691119E-1,3.2849157E-1,-1.050441E-1,5.416068E-1,5.5302203E-2,4.4332957E-3,-2.8305054E-1],"split_indices":[1,4,3,4,3,0,4,0,0,0,0,0,0,0,1,3,0,4,1,1,2,0,1,0,1,0,4,0,0,0,0,0,0,0,0,0,0,0,0,0,0],"split_type":[0,0,0,0,0,0,0,0,0,0,0,0,0,0,0,0,0,0,0,0,0,0,0,0,0,0,0,0,0,0,0,0,0,0,0,0,0,0,0,0,0],"sum_hessian":[1.25548904E2,4.972429E0,1.2057648E2,2.5277872E0,2.4446416E0,3.8889556E0,1.1668752E2,1.26396E0,1.2638273E0,1.1260368E0,1.3186047E0,1.1039646E0,2.784991E0,2.1351522E1,9.5336E1,1.6992847E1,4.358676E0,4.2985226E1,5.2350773E1,1.0380003E1,6.612844E0,2.1401777E0,2.218498E0,3.1856527E1,1.1128696E1,1.02209835E1,4.212979E1,6.166719E0,4.213284E0,5.3029175E0,1.3099266E0,1.1009053E0,1.1175927E0,3.0748238E1,1.108289E0,4.1977687E0,6.930928E0,2.6826546E0,7.538329E0,3.9289673E1,2.840116E0],"tree_param":{"num_deleted":"0","num_feature":"5","num_nodes":"41","size_leaf_vector":"1"}},{"base_weights":[3.1532305E-3,-7.244841E-1,2.764596E-2,-2.5972375E-1,-5.3271662E-2,3.6067644E-1,7.0208814E-3,6.614865E-2,-3.2368502E-1,-1.3960219E-3,4.1233096E-1,3.02528E-1,-5.3573567E-1,-6.330113E-1,3.8609717E-2,7.85042E-1,-4.8845083E-1,-2.2303726E-1,9.1353583E-1,6.92505E-2,-6.7117244E-1,-2.68564E-1,-2.2413114E-2,3.2320777E-1,-3.8496093E-3,4.378818E-1,7.502894E-2,-2.7379012E-1,7.8875974E-2,3.224402E-1,8.326142E-2,-2.6152724E-1,-4.971676E-2],"categories":[],"categories_nodes":[],"categories_segments":[],"categories_sizes":[],"default_left":[0,0,0,0,0,0,0,0,0,0,0,0,0,0,0,0,0,0,0,0,0,0,0,0,0,0,0,0,0,0,0,0,0],"id":2,"left_children":[1,3,5,-1,-1,-1,7,9,11,13,15,17,19,21,23,25,27,-1,29,-1,31,-1,-1,-1,-1,-1,-1,-1,-1,-1,-1,-1,-1],"loss_changes":[2.2545924E0,1.6455436E-1,2.9535692E0,0E0,0E0,0E0,2.390558E0,2.4233413E0,2.6248462E0,2.2403157E0,6.063753E0,4.086058E0,1.6308427E0,7.0620084E-1,4.471007E0,4.0918856E0,2.0146246E0,0E0,9.285164E-2,0E0,1.1063471E0,0E0,0E0,0E0,0E0,0E0,0E0,0E0,0E0,0E0,0E0,0E0,0E0],"parents":[2147483647,0,0,1,1,2,2,6,6,7,7,8,8,9,9,10,10,11,11,12,12,13,13,14,14,15,15,16,16,18,18,20,20],"right_children":[2,4,6,-1,-1,-1,8,10,12,14,16,18,20,22,24,26,28,-1,30,-1,32,-1,-1,-1,-1,-1,-1,-1,-1,-1,-1,-1,-1],"split_conditions":[1.26E3,4.119E3,1.391E3,-2.5972375E-1,-5.3271662E-2,3.6067644E-1,4.406E3,3.8E3,7E0,1.825E3,7.4E-1,4.607E3,2.841E3,1.8E1,2.015E3,1.3E1,2.015E3,-2.2303726E-1,4.9E-1,6.92505E-2,6.6E-1,-2.68564E-1,-2.2413114E-2,3.2320777E-1,-3.8496093E-3,4.378818E-1,7.502894E-2,-2.7379012E-1,7.8875974E-2,3.224402E-1,8.326142E-2,-2.6152724E-1,-4.971676E-2],"split_indices":[0,1,0,0,0,0,1,1,3,0,4,1,0,3,0,3,2,0,4,0,4,0,0,0,0,0,0,0,0,0,0,0,0],"split_type":[0,0,0,0,0,0,0,0,0,0,0,0,0,0,0,0,0,0,0,0,0,0,0,0,0,0,0,0,0,0,0,0,0],"sum_hessian":[1.2438353E2,3.1198072E0,1.2126372E2,2.0160987E0,1.1037087E0,1.1039214E0,1.201598E2,1.0261328E2,1.754652E1,8.66941E1,1.5919181E1,4.330706E0,1.3215814E1,4.281069E0,8.241303E1,1.1351024E1,4.5681567E0,1.5169921E0,2.813714E0,1.8785976E0,1.1337215E1,2.502383E0,1.7786859E0,2.9476964E0,7.946533E1,4.255873E0,7.0951505E0,2.7826178E0,1.7855389E0,1.6941884E0,1.1195258E0,7.597482E0,3.7397337E0],"tree_param":{"num_deleted":"0","num_feature":"5","num_nodes":"33","size_leaf_vector":"1"}},{"base_weights":[-1.331909E-3,1.5513106E-2,-2.334679E-1,-2.6394155E-2,5.005027E-1,1.188206E-2,-6.118115E-1,3.7402704E-1,-2.6967673E-2,6.1575997E-1,-2.229463E-2,-8.021682E-1,-1.4898545E-3,-4.9306172E-1,5.7332325E-1,1.1577975E0,-2.1001834E-1,-7.2779346E-1,7.071917E-3,-5.4355174E-2,-2.7774838E-1,-2.8346375E-2,-2.2393811E-1,3.1747591E-1,-6.019553E-2,4.093689E-2,4.897005E-1,1.0443148E-1,-1.9070171E-1,-5.2180886E-2,-2.563395E-1,-1.9050385E-1,9.71541E-3],"categories":[],"categories_nodes":[],"categories_segments":[],"categories_sizes":[],"default_left":[0,0,0,0,0,0,0,0,0,0,0,0,0,0,0,0,0,0,0,0,0,0,0,0,0,0,0,0,0,0,0,0,0],"id":3,"left_children":[1,3,-1,5,7,9,11,-1,13,15,17,19,-1,21,23,25,27,29,31,-1,-1,-1,-1,-1,-1,-1,-1,-1,-1,-1,-1,-1,-1],"loss_changes":[1.6508242E0,2.5242047E0,0E0,2.5767071E0,3.9212162E0,2.2553236E0,8.1113625E-1,0E0,2.1755362E0,2.8628109E0,2.1548414E0,2.4424767E-1,0E0,3.6839747E-1,1.4956832E0,1.5641637E0,9.733557E-1,1.429565E-1,1.6556666E0,0E0,0E0,0E0,0E0,0E0,0E0,0E0,0E0,0E0,0E0,0E0,0E0,0E0,0E0],"parents":[2147483647,0,0,1,1,3,3,4,4,5,5,6,6,8,8,9,9,10,10,11,11,13,13,14,14,15,15,16,16,17,17,18,18],"right_children":[2,4,-1,6,8,10,12,-1,14,16,18,20,-1,22,24,26,28,30,32,-1,-1,-1,-1,-1,-1,-1,-1,-1,-1,-1,-1,-1,-1],"split_conditions":[9.867E3,9.12E3,-2.334679E-1,8.576E3,2.179E3,6.58E2,8.987E3,3.7402704E-1,3.787E3,5E-1,8.16E2,8E0,-1.4898545E-3,1.1E1,4.573E3,2.976E3,1.6E1,8E0,2E0,-5.4355174E-2,-2.7774838E-1,-2.8346375E-2,-2.2393811E-1,3.1747591E-1,-6.019553E-2,4.093689E-2,4.897005E-1,1.0443148E-1,-1.9070171E-1,-5.2180886E-2,-2.563395E-1,-1.9050385E-1,9.71541E-3],"split_indices":[0,0,0,0,1,1,0,0,1,4,1,3,0,3,1,0,3,3,3,0,0,0,0,0,0,0,0,0,0,0,0,0,0],"split_type":[0,0,0,0,0,0,0,0,0,0,0,0,0,0,0,0,0,0,0,0,0,0,0,0,0,0,0,0,0,0,0,0,0],"sum_hessian":[1.2422172E2,1.2254468E2,1.6770434E0,1.13668335E2,8.876341E0,1.0761206E2,6.0562725E0,3.1111286E0,5.765212E0,4.8526263E0,1.0275944E2,4.365139E0,1.6911335E0,3.3459153E0,2.4192967E0,2.686893E0,2.1657336E0,3.1560378E0,9.960339E1,1.1342806E0,3.2308586E0,1.8340294E0,1.5118858E0,1.2615706E0,1.1577263E0,1.2608143E0,1.4260787E0,1.0158826E0,1.149851E0,1.0291818E0,2.1268559E0,2.864169E0,9.673923E1],"tree_param":{"num_deleted":"0","num_feature":"5","num_nodes":"33","size_leaf_vector":"1"}},{"base_weights":[-6.4724083E-3,-6.412664E-1,1.321854E-2,-2.3573035E-1,-3.9281495E-2,1.876264E-1,-9.643563E-2,-6.87088E-2,5.859126E-1,-4.322408E-1,5.657833E-3,2.8020415E-1,-5.4768866E-1,7.706484E-1,-2.3937005E-1,-6.8362534E-1,2.5691366E-1,3.1133696E-1,-4.2955294E-2,-2.486981E-1,9.121668E-1,-3.1127545E-1,-1.0752895E-1,-6.671052E-2,8.5515696E-1,4.122876E-2,-7.88428E-1,3.8695148E-1,-6.2203515E-1,4.337176E-1,-1.4753208E-1,7.575344E-2,-2.9996374E-1,-9.773002E-2,4.4118267E-1,-2.3154655E-1,6.0781173E-2,1.4559051E-1,3.8913193E-1,-1.04440294E-1,-2.8520277E-1,-4.7183238E-2,-2.2675131E-1,-2.6618725E-2,2.651088E-1,-6.8560645E-2,1.1027529E-1],"categories":[],"categories_nodes":[],"categories_segments":[],"categories_sizes":[],"default_left":[0,0,0,0,0,0,0,0,0,0,0,0,0,0,0,0,0,0,0,0,0,0,0,0,0,0,0,0,0,0,0,0,0,0,0,0,0,0,0,0,0,0,0,0,0,0,0],"id":4,"left_children":[1,3,5,-1,-1,7,9,11,13,15,17,19,21,23,-1,25,27,-1,29,31,33,-1,35,-1,37,-1,39,-1,41,43,45,-1,-1,-1,-1,-1,-1,-1,-1,-1,-1,-1,-1,-1,-1,-1,-1],"loss_changes":[1.5715793E0,1.7604697E-1,2.3564289E0,0E0,0E0,4.8936296E0,2.5987654E0,5.136743E0,5.4004116E0,3.2366798E0,3.0080106E0,6.214187E0,2.6712167E0,1.618763E0,0E0,1.2458935E0,5.749763E0,0E0,2.9235861E0,4.2197933E0,6.269215E0,0E0,1.7866634E0,0E0,1.9686575E0,0E0,5.171156E-1,0E0,1.0616064E-1,2.5644407E0,2.0781207E0,0E0,0E0,0E0,0E0,0E0,0E0,0E0,0E0,0E0,0E0,0E0,0E0,0E0,0E0,0E0,0E0],"parents":[2147483647,0,0,1,1,2,2,5,5,6,6,7,7,8,8,9,9,10,10,11,11,12,12,13,13,15,15,16,16,18,18,19,19,20,20,22,22,24,24,26,26,28,28,29,29,30,30],"right_children":[2,4,6,-1,-1,8,10,12,14,16,18,20,22,24,-1,26,28,-1,30,32,34,-1,36,-1,38,-1,40,-1,42,44,46,-1,-1,-1,-1,-1,-1,-1,-1,-1,-1,-1,-1,-1,-1,-1,-1],"split_conditions":[1.26E3,5.7E-1,4.696E3,-2.3573035E-1,-3.9281495E-2,3.482E3,5.946E3,5.8E-1,2.021E3,7.6E-1,6.063E3,3.7E-1,2.013E3,2E0,-2.3937005E-1,2.007E3,2.704E3,3.1133696E-1,2.7E-1,2.585E3,1E1,-3.1127545E-1,6.8E-1,-6.671052E-2,6.9E-1,4.122876E-2,1.2E1,3.8695148E-1,9E0,1.6E1,2.021E3,7.575344E-2,-2.9996374E-1,-9.773002E-2,4.4118267E-1,-2.3154655E-1,6.0781173E-2,1.4559051E-1,3.8913193E-1,-1.04440294E-1,-2.8520277E-1,-4.7183238E-2,-2.2675131E-1,-2.6618725E-2,2.651088E-1,-6.8560645E-2,1.1027529E-1],"split_indices":[0,4,0,0,0,0,0,4,2,4,0,4,2,3,0,2,1,0,4,0,3,0,4,0,4,0,3,0,3,3,2,0,0,0,0,0,0,0,0,0,0,0,0,0,0,0,0],"split_type":[0,0,0,0,0,0,0,0,0,0,0,0,0,0,0,0,0,0,0,0,0,0,0,0,0,0,0,0,0,0,0,0,0,0,0,0,0,0,0,0,0,0,0,0,0,0,0],"sum_hessian":[1.2405126E2,2.782511E0,1.2126875E2,1.7478656E0,1.0346456E0,4.6537907E1,7.473085E1,2.881816E1,1.7719748E1,1.6669117E1,5.806173E1,1.691293E1,1.1905229E1,1.6023718E1,1.6960312E0,1.2219723E1,4.4493947E0,1.6964091E0,5.6365322E1,9.537375E0,7.375554E0,4.991934E0,6.913295E0,1.128773E0,1.4894944E1,1.3479756E0,1.0871747E1,1.8306133E0,2.6187816E0,9.574822E0,4.67905E1,6.1186705E0,3.4187057E0,2.4223747E0,4.9531794E0,1.726505E0,5.1867895E0,9.251071E0,5.643873E0,3.774511E0,7.097236E0,1.0717045E0,1.547077E0,4.8021307E0,4.772692E0,4.0913143E1,5.877357E0],"tree_param":{"num_deleted":"0","num_feature":"5","num_nodes":"47","size_leaf_vector":"1"}},{"base_weights":[-1.6141368E-2,6.533225E-3,-5.252692E-1,-2.6157704E-1,4.697732E-2,-2.7808687E-1,2.3682298E-2,-7.5034E-1,7.225118E-2,2.8521892E-1,-5.2867536E-2,-2.9946315E-1,1.0420637E-2,3.7388673E-1,-2.4619238E-1,-1.0344131E-1,8.257278E-1,-3.879455E-1,5.0937947E-2,3.3843756E-1,5.245344E-2,4.7446758E-1,-4.3536207E-1,1.6910547E-1,1.6145003E0,2.6887381E-2,-6.6108084E-1,1.5349494E-1,-3.2185224E-1,2.645062E-1,-9.376583E-2,-1.2452994E-1,2.310836E-1,1.0120335E-1,-2.0989053E-1,-1.2129639E-1,2.3701686E-1,6.320366E-1,-5.953141E-2,-1.6067088E-1,8.926916E-2,-2.388546E-1,7.1725436E-2,-2.4308795E-1,6.283418E-2,1.995159E-1,-1.3866438E-1],"categories":[],"categories_nodes":[],"categories_segments":[],"categories_sizes":[],"default_left":[0,0,0,0,0,0,0,0,0,0,0,0,0,0,0,0,0,0,0,0,0,0,0,0,0,0,0,0,0,0,0,0,0,0,0,0,0,0,0,0,0,0,0,0,0,0,0],"id":5,"left_children":[1,3,5,7,9,-1,-1,11,13,15,17,-1,-1,19,-1,21,23,25,27,-1,29,31,33,35,37,39,41,43,45,-1,-1,-1,-1,-1,-1,-1,-1,-1,-1,-1,-1,-1,-1,-1,-1,-1,-1],"loss_changes":[1.438274E0,1.3132752E0,1.3623396E0,2.6450105E0,2.5151176E0,0E0,0E0,1.3057361E0,3.0935187E0,6.638666E0,2.6251855E0,0E0,0E0,1.9824164E0,0E0,3.8578837E0,6.5427685E0,2.038328E0,2.2696435E0,0E0,2.380217E0,2.273017E0,2.8115184E0,3.2742734E0,5.6492186E0,1.383535E0,1.5027995E0,2.662199E0,2.0877323E0,0E0,0E0,0E0,0E0,0E0,0E0,0E0,0E0,0E0,0E0,0E0,0E0,0E0,0E0,0E0,0E0,0E0,0E0],"parents":[2147483647,0,0,1,1,2,2,3,3,4,4,7,7,8,8,9,9,10,10,13,13,15,15,16,16,17,17,18,18,20,20,21,21,22,22,23,23,24,24,25,25,26,26,27,27,28,28],"right_children":[2,4,6,8,10,-1,-1,12,14,16,18,-1,-1,20,-1,22,24,26,28,-1,30,32,34,36,38,40,42,44,46,-1,-1,-1,-1,-1,-1,-1,-1,-1,-1,-1,-1,-1,-1,-1,-1,-1,-1],"split_conditions":[9.6E-1,2.191E3,1.3E1,2.012E3,2.01E3,-2.7808687E-1,2.3682298E-2,1.95E3,1.956E3,2.008E3,2.013E3,-2.9946315E-1,1.0420637E-2,2.9E-1,-2.4619238E-1,5E3,6.5E-1,4.5E-1,2.4E1,3.3843756E-1,2.015E3,1.841E3,1.394E3,1.8E1,9.15E3,2.011E3,9.208E3,1.3E-1,1.9E-1,2.645062E-1,-9.376583E-2,-1.2452994E-1,2.310836E-1,1.0120335E-1,-2.0989053E-1,-1.2129639E-1,2.3701686E-1,6.320366E-1,-5.953141E-2,-1.6067088E-1,8.926916E-2,-2.388546E-1,7.1725436E-2,-2.4308795E-1,6.283418E-2,1.995159E-1,-1.3866438E-1],"split_indices":[4,0,3,2,2,0,0,0,0,2,2,0,0,4,0,0,4,4,3,0,2,1,1,3,0,2,0,4,4,0,0,0,0,0,0,0,0,0,0,0,0,0,0,0,0,0,0],"split_type":[0,0,0,0,0,0,0,0,0,0,0,0,0,0,0,0,0,0,0,0,0,0,0,0,0,0,0,0,0,0,0,0,0,0,0,0,0,0,0,0,0,0,0,0,0,0,0],"sum_hessian":[1.2329047E2,1.18978775E2,4.311689E0,1.4878596E1,1.0410018E2,2.2690394E0,2.0426493E0,5.5317683E0,9.346828E0,3.019492E1,7.390526E1,3.9980028E0,1.5337657E0,7.421105E0,1.9257231E0,1.8035133E1,1.2159784E1,1.6832787E1,5.7072475E1,1.4676394E0,5.9534655E0,6.4228377E0,1.1612296E1,7.298477E0,4.8613076E0,7.040843E0,9.791943E0,4.5220325E1,1.185215E1,1.3869663E0,4.566499E0,1.5021852E0,4.920653E0,2.888914E0,8.723382E0,3.9758153E0,3.3226619E0,3.6956887E0,1.1656188E0,1.9695497E0,5.0712934E0,8.614547E0,1.1773962E0,1.7414638E0,4.347886E1,1.0103233E0,1.0841826E1],"tree_param":{"num_deleted":"0","num_feature":"5","num_nodes":"47","size_leaf_vector":"1"}},{"base_weights":[-2.041834E-2,-7.0889723E-3,-2.0664977E-1,-4.3586735E-2,3.9448085E-1,-1.5505475E-2,-5.179194E-1,8.140495E-1,2.6791489E-2,4.2186436E-1,-4.1212928E-2,1.6401061E-3,-7.084722E-1,3.7566996E-1,3.553986E-1,3.701914E-1,-2.1293725E-1,-2.0150228E-1,2.8155681E-1,-1.952123E-1,7.213101E-2,-4.889896E-2,-2.4939607E-1,2.9463112E-1,-9.948408E-2,-3.6410138E-2,7.044111E-1,1.047461E-1,-2.055565E-1,-1.803915E-1,-9.079034E-3,2.4681456E-1,-4.798454E-6,-2.9061994E-2,3.3581004E-1],"categories":[],"categories_nodes":[],"categories_segments":[],"categories_sizes":[],"default_left":[0,0,0,0,0,0,0,0,0,0,0,0,0,0,0,0,0,0,0,0,0,0,0,0,0,0,0,0,0,0,0,0,0,0,0],"id":6,"left_children":[1,3,-1,5,7,9,11,13,15,17,19,-1,21,23,-1,25,-1,27,-1,29,31,-1,-1,-1,-1,-1,33,-1,-1,-1,-1,-1,-1,-1,-1],"loss_changes":[1.0893083E0,1.7967806E0,0E0,1.4865209E0,1.5541737E0,1.2200557E0,6.262616E-1,3.246081E-1,1.9014387E0,2.1302314E0,1.7933829E0,0E0,1.7157984E-1,1.8846174E0,0E0,9.193801E-1,0E0,1.1860113E0,0E0,2.8947911E0,3.2193544E0,0E0,0E0,0E0,0E0,0E0,1.1619217E0,0E0,0E0,0E0,0E0,0E0,0E0,0E0,0E0],"parents":[2147483647,0,0,1,1,3,3,4,4,5,5,6,6,7,7,8,8,9,9,10,10,12,12,13,13,15,15,17,17,19,19,20,20,26,26],"right_children":[2,4,-1,6,8,10,12,14,16,18,20,-1,22,24,-1,26,-1,28,-1,30,32,-1,-1,-1,-1,-1,34,-1,-1,-1,-1,-1,-1,-1,-1],"split_conditions":[9.867E3,9.12E3,-2.0664977E-1,8.576E3,2.179E3,6.58E2,9E0,9.666E3,9.691E3,5.89E2,2.584E3,1.6401061E-3,2.01E3,9.208E3,3.553986E-1,1E1,-2.1293725E-1,5E-1,2.8155681E-1,1E1,2.84E3,-4.889896E-2,-2.4939607E-1,2.9463112E-1,-9.948408E-2,-3.6410138E-2,3.688E3,1.047461E-1,-2.055565E-1,-1.803915E-1,-9.079034E-3,2.4681456E-1,-4.798454E-6,-2.9061994E-2,3.3581004E-1],"split_indices":[0,0,0,0,1,1,3,0,0,1,1,0,2,0,0,3,0,4,0,3,1,0,0,0,0,0,1,0,0,0,0,0,0,0,0],"split_type":[0,0,0,0,0,0,0,0,0,0,0,0,0,0,0,0,0,0,0,0,0,0,0,0,0,0,0,0,0,0,0,0,0,0,0],"sum_hessian":[1.21811226E2,1.2042043E2,1.390792E0,1.1120474E2,9.215686E0,1.0596418E2,5.240562E0,3.7372112E0,5.4784746E0,5.027049E0,1.0093713E2,1.6579697E0,3.5825922E0,2.634562E0,1.1026493E0,4.075751E0,1.4027238E0,2.5547009E0,2.4723482E0,4.248748E1,5.8449654E1,1.0862385E0,2.4963536E0,1.2092116E0,1.4253504E0,1.9073508E0,2.1683998E0,1.3247123E0,1.2299887E0,1.1508628E1,3.0978851E1,4.213283E0,5.4236374E1,1.0013418E0,1.167058E0],"tree_param":{"num_deleted":"0","num_feature":"5","num_nodes":"35","size_leaf_vector":"1"}},{"base_weights":[-1.4963628E-2,3.7135328E-3,-4.5087576E-1,-4.1540343E-2,2.1499026E-1,6.899144E-2,-2.1102956E-1,1.2482238E-2,-3.503888E-1,-4.1044345E-1,3.9379373E-1,-9.0716355E-2,3.5819083E-1,3.9623436E-1,-6.0667765E-1,5.691275E-2,-2.5063017E-1,1.1451758E0,9.075064E-2,3.8323393E-1,-1.9928397E-1,2.0961016E-2,8.7026054E-1,6.6628504E-1,-5.6579787E-2,-9.157406E-1,3.836894E-2,8.241773E-2,3.930784E-1,4.4057035E-1,-3.773224E-1,5.9646487E-2,2.6578453E-1,-3.1752583E-2,-2.1505663E-1,1.2889183E-1,-1.6528332E-1,4.4657663E-2,4.0496683E-1,2.4160013E-1,6.851588E-2,-7.04062E-2,-3.0627972E-1,1.6689828E-1,-2.0654523E-1,2.6635626E-1,-6.917169E-2,-1.7816153E-1,1.06528394E-1],"categories":[],"categories_nodes":[],"categories_segments":[],"categories_sizes":[],"default_left":[0,0,0,0,0,0,0,0,0,0,0,0,0,0,0,0,0,0,0,0,0,0,0,0,0,0,0,0,0,0,0,0,0,0,0,0,0,0,0,0,0,0,0,0,0,0,0,0,0],"id":7,"left_children":[1,3,5,7,9,-1,-1,11,13,15,17,19,21,23,25,-1,-1,27,29,31,33,35,37,39,-1,41,43,-1,-1,45,47,-1,-1,-1,-1,-1,-1,-1,-1,-1,-1,-1,-1,-1,-1,-1,-1,-1,-1],"loss_changes":[9.909196E-1,1.132404E0,1.021581E0,1.6330442E0,2.4978223E0,0E0,0E0,3.0310202E0,3.027749E0,1.4680123E0,3.7115326E0,3.4479392E0,3.3531942E0,8.091027E-1,2.2758164E0,0E0,0E0,3.1969643E-1,2.29924E0,9.8771226E-1,2.5342524E0,3.2274761E0,2.4728174E0,9.761691E-3,0E0,3.076558E-1,2.1150305E0,0E0,0E0,2.5811455E0,1.1799991E0,0E0,0E0,0E0,0E0,0E0,0E0,0E0,0E0,0E0,0E0,0E0,0E0,0E0,0E0,0E0,0E0,0E0,0E0],"parents":[2147483647,0,0,1,1,2,2,3,3,4,4,7,7,8,8,9,9,10,10,11,11,12,12,13,13,14,14,17,17,18,18,19,19,20,20,21,21,22,22,23,23,25,25,26,26,29,29,30,30],"right_children":[2,4,6,8,10,-1,-1,12,14,16,18,20,22,24,26,-1,-1,28,30,32,34,36,38,40,-1,42,44,-1,-1,46,48,-1,-1,-1,-1,-1,-1,-1,-1,-1,-1,-1,-1,-1,-1,-1,-1,-1,-1],"split_conditions":[9.6E-1,8.2E-1,1.708E3,4.443E3,3.433E3,6.899144E-2,-2.1102956E-1,3.647E3,7E0,1.854E3,4.627E3,2.1E-1,6.779E3,2.018E3,2.2E1,5.691275E-2,-2.5063017E-1,2.008E3,2.822E3,3.208E3,3.208E3,5E3,2.012E3,6.699E3,-5.6579787E-2,3.2E-1,4.725E3,8.241773E-2,3.930784E-1,1.8E1,4.573E3,5.9646487E-2,2.6578453E-1,-3.1752583E-2,-2.1505663E-1,1.2889183E-1,-1.6528332E-1,4.4657663E-2,4.0496683E-1,2.4160013E-1,6.851588E-2,-7.04062E-2,-3.0627972E-1,1.6689828E-1,-2.0654523E-1,2.6635626E-1,-6.917169E-2,-1.7816153E-1,1.06528394E-1],"split_indices":[4,4,1,1,0,0,0,1,3,0,0,4,0,2,3,0,0,2,1,1,1,0,2,0,0,4,1,0,0,3,1,0,0,0,0,0,0,0,0,0,0,0,0,0,0,0,0,0,0],"split_type":[0,0,0,0,0,0,0,0,0,0,0,0,0,0,0,0,0,0,0,0,0,0,0,0,0,0,0,0,0,0,0,0,0,0,0,0,0,0,0,0,0,0,0,0,0,0,0,0,0],"sum_hessian":[1.20505E2,1.165047E2,4.0002975E0,9.6614075E1,1.9890621E1,1.1065787E0,2.893719E0,8.304734E1,1.3566736E1,4.134194E0,1.5756428E1,6.452374E1,1.85236E1,3.3273687E0,1.0239368E1,1.9434109E0,2.190783E0,3.7297518E0,1.2026675E1,1.155419E1,5.296955E1,1.179608E1,6.7275195E0,2.1810036E0,1.146365E0,6.6388345E0,3.6005332E0,1.0193173E0,2.7104344E0,6.9163904E0,5.1102853E0,9.474226E0,2.079964E0,4.5889236E1,7.0803165E0,7.0249043E0,4.771175E0,3.2099104E0,3.517609E0,1.018505E0,1.1624987E0,1.3204913E0,5.318343E0,2.239362E0,1.3611712E0,3.9566061E0,2.9597843E0,4.09014E0,1.0201454E0],"tree_param":{"num_deleted":"0","num_feature":"5","num_nodes":"49","size_leaf_vector":"1"}},{"base_weights":[-1.2407362E-2,-3.4759223E-4,-1.9317496E-1,-2.3530869E-2,4.5865956E-1,-1.2227927E-1,5.9034884E-2,-1.3880622E-1,1.0266035E0,8.31937E-3,-4.6893698E-1,6.722593E-1,-4.750836E-3,8.952104E-2,3.600623E-1,3.5198146E-1,-1.4391825E-1,-6.0756963E-1,1.429863E-1,-1.428561E-1,3.9170733E-1,4.486504E-2,-2.5087765E-1,1.793835E-2,2.998957E-1,-8.063552E-2,1.4029767E-1,9.273219E-2,-2.238438E-1,-2.4496305E-1,2.2531694E-1,4.4809382E-2,-1.10234395E-1],"categories":[],"categories_nodes":[],"categories_segments":[],"categories_sizes":[],"default_left":[0,0,0,0,0,0,0,0,0,0,0,0,0,0,0,0,0,0,0,0,0,0,0,0,0,0,0,0,0,0,0,0,0],"id":8,"left_children":[1,3,-1,5,7,9,11,-1,13,15,17,19,21,-1,-1,23,25,27,-1,29,-1,31,-1,-1,-1,-1,-1,-1,-1,-1,-1,-1,-1],"loss_changes":[9.102861E-1,1.2698141E0,0E0,9.332428E-1,3.477155E0,2.3601735E0,2.4491172E0,0E0,1.2983227E-1,2.0798914E0,2.1587894E0,3.232065E0,2.41523E0,0E0,0E0,2.2484627E0,2.2325516E0,1.8662448E0,0E0,2.7094345E0,0E0,2.4391577E0,0E0,0E0,0E0,0E0,0E0,0E0,0E0,0E0,0E0,0E0,0E0],"parents":[2147483647,0,0,1,1,3,3,4,4,5,5,6,6,8,8,9,9,10,10,11,11,12,12,15,15,16,16,17,17,19,19,21,21],"right_children":[2,4,-1,6,8,10,12,-1,14,16,18,20,22,-1,-1,24,26,28,-1,30,-1,32,-1,-1,-1,-1,-1,-1,-1,-1,-1,-1,-1],"split_conditions":[9.867E3,9.527E3,-1.9317496E-1,2.584E3,2.011E3,1.975E3,2.84E3,-1.3880622E-1,1E1,2.01E3,9.1E-1,6.9E-1,9.4E-1,8.952104E-2,3.600623E-1,2.009E3,2.021E3,1.6E-1,1.429863E-1,2.77E3,3.9170733E-1,7.694E3,-2.5087765E-1,1.793835E-2,2.998957E-1,-8.063552E-2,1.4029767E-1,9.273219E-2,-2.238438E-1,-2.4496305E-1,2.2531694E-1,4.4809382E-2,-1.10234395E-1],"split_indices":[0,0,0,1,2,1,1,0,3,2,4,4,4,0,0,2,2,4,0,1,0,0,0,0,0,0,0,0,0,0,0,0,0],"split_type":[0,0,0,0,0,0,0,0,0,0,0,0,0,0,0,0,0,0,0,0,0,0,0,0,0,0,0,0,0,0,0,0,0],"sum_hessian":[1.1855453E2,1.1731475E2,1.2397797E0,1.12577484E2,4.737265E0,5.1045826E1,6.1531654E1,1.8772408E0,2.8600245E0,3.7786335E1,1.3259494E1,4.8985496E0,5.6633106E1,1.0739801E0,1.7860444E0,1.119734E1,2.6588993E1,1.1875778E1,1.3837148E0,2.4807427E0,2.4178069E0,5.4336884E1,2.2962244E0,8.469E0,2.72834E0,2.2546202E1,4.0427933E0,1.39793E0,1.0477849E1,1.4639808E0,1.0167619E0,4.3858746E1,1.0478135E1],"tree_param":{"num_deleted":"0","num_feature":"5","num_nodes":"33","size_leaf_vector":"1"}},{"base_weights":[-8.7780785E-3,-5.0160193E-1,4.964424E-3,-2.9565824E-2,-1.9337441E-1,2.0705922E-1,-1.2705439E-2,-5.8574015E-1,1.2955878E-2,-2.4681228E-1,-4.5137484E-2,6.0594547E-1,-1.3096346E-2,-5.7812944E-2,9.1472965E-1,-2.3423572E-1,9.290259E-3,3.921866E-1,3.740278E-2,2.719449E-1,-5.5784974E-3],"categories":[],"categories_nodes":[],"categories_segments":[],"categories_sizes":[],"default_left":[0,0,0,0,0,0,0,0,0,0,0,0,0,0,0,0,0,0,0,0,0],"id":9,"left_children":[1,3,5,-1,-1,-1,7,9,11,-1,-1,13,15,-1,17,-1,19,-1,-1,-1,-1],"loss_changes":[8.019724E-1,1.2158871E-1,1.4112812E0,0E0,0E0,0E0,1.6825244E0,3.8203073E-1,1.7072926E0,0E0,0E0,1.3231418E0,1.8349724E0,0E0,9.3113875E-1,0E0,2.6268902E0,0E0,0E0,0E0,0E0],"parents":[2147483647,0,0,1,1,2,2,6,6,7,7,8,8,11,11,12,12,14,14,16,16],"right_children":[2,4,6,-1,-1,-1,8,10,12,-1,-1,14,16,-1,18,-1,20,-1,-1,-1,-1],"split_conditions":[1.26E3,2.015E3,1.419E3,-2.9565824E-2,-1.9337441E-1,2.0705922E-1,1.825E3,5.5E-1,2.015E3,-2.4681228E-1,-4.5137484E-2,2.01E3,2.191E3,-5.7812944E-2,4.2E-1,-2.3423572E-1,2.409E3,3.921866E-1,3.740278E-2,2.719449E-1,-5.5784974E-3],"split_indices":[0,2,0,0,0,0,0,4,0,0,0,2,0,0,4,0,0,0,0,0,0],"split_type":[0,0,0,0,0,0,0,0,0,0,0,0,0,0,0,0,0,0,0,0,0],"sum_hessian":[1.17046005E2,2.2122383E0,1.1483376E2,1.0216254E0,1.190613E0,1.929953E0,1.1290381E2,3.9037867E0,1.0900002E2,1.951392E0,1.9523945E0,3.65048E0,1.0534954E2,1.1226662E0,2.527814E0,2.0251467E0,1.03324394E2,1.2513595E0,1.2764543E0,2.1648216E0,1.0115958E2],"tree_param":{"num_deleted":"0","num_feature":"5","num_nodes":"21","size_leaf_vector":"1"}},{"base_weights":[-6.726897E-3,-4.6715206E-1,7.3833843E-3,1.2831533E-2,-2.20095E-1,3.853492E-1,-1.6625833E-2,5.8848196E-1,-8.6793855E-2,-5.5453274E-3,-1.7585148E-1,-2.0739716E-2,8.466582E-1,-3.1525984E-2,4.219786E-1,3.6480732E-2,3.2094097E-1,-4.643101E-2,2.0513938E-1,7.5313467E-1,-6.1407957E-2,-7.470283E-3,-1.5155777E-1,-6.386178E-2,3.5948315E-1],"categories":[],"categories_nodes":[],"categories_segments":[],"categories_sizes":[],"default_left":[0,0,0,0,0,0,0,0,0,0,0,0,0,0,0,0,0,0,0,0,0,0,0,0,0],"id":10,"left_children":[1,3,5,-1,-1,7,9,11,-1,13,-1,-1,15,17,19,-1,-1,21,-1,23,-1,-1,-1,-1,-1],"loss_changes":[7.657896E-1,5.07649E-1,1.0485184E0,0E0,0E0,1.1159257E0,6.8423575E-1,1.0149286E0,0E0,1.2114283E0,0E0,0E0,5.3658533E-1,1.1258609E0,1.4510157E0,0E0,0E0,9.8956203E-1,0E0,2.105104E0,0E0,0E0,0E0,0E0,0E0],"parents":[2147483647,0,0,1,1,2,2,5,5,6,6,7,7,9,9,12,12,13,13,14,14,17,17,19,19],"right_children":[2,4,6,-1,-1,8,10,12,-1,14,-1,-1,16,18,20,-1,-1,22,-1,24,-1,-1,-1,-1,-1],"split_conditions":[1.2E-1,2E3,1.6E-1,1.2831533E-2,-2.20095E-1,3.583E3,9.867E3,2.107E3,-8.6793855E-2,9.415E3,-1.7585148E-1,-2.0739716E-2,1.3E-1,4.959E3,1.3E1,3.6480732E-2,3.2094097E-1,4.777E3,2.0513938E-1,5E0,-6.1407957E-2,-7.470283E-3,-1.5155777E-1,-6.386178E-2,3.5948315E-1],"split_indices":[4,1,4,0,0,1,0,1,0,0,0,0,4,1,3,0,0,1,0,3,0,0,0,0,0],"split_type":[0,0,0,0,0,0,0,0,0,0,0,0,0,0,0,0,0,0,0,0,0,0,0,0,0],"sum_hessian":[1.1634222E2,2.5047226E0,1.13837494E2,1.1478677E0,1.3568548E0,5.9003887E0,1.079371E2,4.633143E0,1.2672459E0,1.0686774E2,1.0693738E0,1.512585E0,3.1205578E0,1.0161862E2,5.2491117E0,1.0979581E0,2.0225995E0,1.0046044E2,1.1581783E0,3.302271E0,1.9468406E0,9.696411E1,3.496329E0,1.2062864E0,2.0959845E0],"tree_param":{"num_deleted":"0","num_feature":"5","num_nodes":"25","size_leaf_vector":"1"}},{"base_weights":[-4.58617E-3,1.04097E-2,-3.776607E-1,-1.3098796E-1,2.2359699E-2,-2.3467441E-1,4.705603E-2,1.9371498E-1,8.465497E-3,-4.384515E-1,3.07239E-2,-2.0703302E-1,9.008877E-2,4.6993035E-1,1.2056758E-2,2.5300616E-2,1.721185E-1,-2.1320193E-1,9.391611E-3],"categories":[],"categories_nodes":[],"categories_segments":[],"categories_sizes":[],"default_left":[0,0,0,0,0,0,0,0,0,0,0,0,0,0,0,0,0,0,0],"id":11,"left_children":[1,3,5,-1,7,-1,-1,-1,9,11,13,-1,-1,15,17,-1,-1,-1,-1],"loss_changes":[6.558291E-1,6.133839E-1,1.1022433E0,0E0,9.5593625E-1,0E0,0E0,0E0,1.1036954E0,1.1860441E0,8.579161E-1,0E0,0E0,1.2243414E-1,1.4421057E0,0E0,0E0,0E0,0E0],"parents":[2147483647,0,0,1,1,2,2,4,4,8,8,9,9,10,10,13,13,14,14],"right_children":[2,4,6,-1,8,-1,-1,-1,10,12,14,-1,-1,16,18,-1,-1,-1,-1],"split_conditions":[9.6E-1,1.26E3,1.3E1,-1.3098796E-1,1.391E3,-2.3467441E-1,4.705603E-2,1.9371498E-1,1.846E3,2.019E3,2.015E3,-2.0703302E-1,9.008877E-2,2.4E-1,2.191E3,2.5300616E-2,1.721185E-1,-2.1320193E-1,9.391611E-3],"split_indices":[4,0,3,0,0,0,0,0,0,2,0,0,0,4,0,0,0,0,0],"split_type":[0,0,0,0,0,0,0,0,0,0,0,0,0,0,0,0,0,0,0],"sum_hessian":[1.1552314E2,1.11993614E2,3.5295277E0,1.9905763E0,1.1000304E2,1.7451239E0,1.7844038E0,1.4069525E0,1.08596085E2,4.264892E0,1.0433119E2,3.230307E0,1.034585E0,3.267937E0,1.01063255E2,1.077536E0,2.1904008E0,1.6899455E0,9.9373314E1],"tree_param":{"num_deleted":"0","num_feature":"5","num_nodes":"19","size_leaf_vector":"1"}},{"base_weights":[-6.560796E-3,-4.1237873E-1,5.3655254E-3,1.2308532E-2,-1.9981551E-1,3.1125194E-1,-1.4057164E-2,7.914993E-1,-7.4578606E-2,-1.7243852E-1,1.7946353E-2,3.5138257E-2,3.2633162E-1,-1.5822935E-1,1.10216804E-1,1.1881597E-1,-5.654153E-1,3.5482287E-1,-4.9592286E-2,2.2986962E-1,-1.020921E-1,-2.7846316E-1,-5.9530277E-2,-1.712125E-1,5.500611E-1,3.76393E-1,-1.001867E-1,1.0824952E-1,-1.7213844E-1,-1.999671E-1,1.038413E-1,2.0998392E-1,-1.8225707E-1,1.7358951E-1,-2.492772E-2,-1.1550725E-1,-6.277303E-3],"categories":[],"categories_nodes":[],"categories_segments":[],"categories_sizes":[],"default_left":[0,0,0,0,0,0,0,0,0,0,0,0,0,0,0,0,0,0,0,0,0,0,0,0,0,0,0,0,0,0,0,0,0,0,0,0,0],"id":12,"left_children":[1,3,5,-1,-1,7,9,11,13,15,17,-1,-1,-1,-1,19,21,23,25,-1,27,-1,29,-1,31,33,35,-1,-1,-1,-1,-1,-1,-1,-1,-1,-1],"loss_changes":[5.6443876E-1,4.1024935E-1,6.8068576E-1,0E0,0E0,1.3264E0,5.504975E-1,4.9859393E-1,1.135782E0,2.1558006E0,2.0822942E0,0E0,0E0,0E0,0E0,1.6953318E0,1.4022305E0,3.074592E0,1.6858169E0,0E0,2.2406008E0,0E0,1.3105639E0,0E0,2.702578E0,8.219969E-1,1.5529363E0,0E0,0E0,0E0,0E0,0E0,0E0,0E0,0E0,0E0,0E0],"parents":[2147483647,0,0,1,1,2,2,5,5,6,6,7,7,8,8,9,9,10,10,15,15,16,16,17,17,18,18,20,20,22,22,24,24,25,25,26,26],"right_children":[2,4,6,-1,-1,8,10,12,14,16,18,-1,-1,-1,-1,20,22,24,26,-1,28,-1,30,-1,32,34,36,-1,-1,-1,-1,-1,-1,-1,-1,-1,-1],"split_conditions":[1.2E-1,2E3,1.6E-1,1.2308532E-2,-1.9981551E-1,4.44E3,2.008E3,2.542E3,1.6E1,6.8E-1,2.01E3,3.5138257E-2,3.2633162E-1,-1.5822935E-1,1.10216804E-1,1.394E3,8.4E-1,2.816E3,1.956E3,2.2986962E-1,5E3,-2.7846316E-1,1.887E3,-1.712125E-1,9.173E3,3.167E3,2.013E3,1.0824952E-1,-1.7213844E-1,-1.999671E-1,1.038413E-1,2.0998392E-1,-1.8225707E-1,1.7358951E-1,-2.492772E-2,-1.1550725E-1,-6.277303E-3],"split_indices":[4,1,4,0,0,0,2,0,3,4,2,0,0,0,0,1,4,0,0,0,0,0,1,0,0,1,2,0,0,0,0,0,0,0,0,0,0],"split_type":[0,0,0,0,0,0,0,0,0,0,0,0,0,0,0,0,0,0,0,0,0,0,0,0,0,0,0,0,0,0,0,0,0,0,0,0,0],"sum_hessian":[1.1516446E2,2.3292623E0,1.128352E2,1.1363852E0,1.192877E0,5.839781E0,1.0699542E2,2.1331763E0,3.7066042E0,1.7248192E1,8.974723E1,1.0770185E0,1.056158E0,1.7352498E0,1.9713546E0,1.0306895E1,6.9412966E0,1.4277707E1,7.546952E1,1.9941314E0,8.312763E0,3.556168E0,3.3851285E0,2.1521683E0,1.2125539E1,7.3283386E0,6.814118E1,4.3140483E0,3.9987154E0,1.0984051E0,2.2867234E0,1.1085515E1,1.0400244E0,4.908569E0,2.41977E0,1.3994154E1,5.4147026E1],"tree_param":{"num_deleted":"0","num_feature":"5","num_nodes":"37","size_leaf_vector":"1"}},{"base_weights":[-1.0096348E-2,4.0666885E-3,-3.6677623E-1,-5.8213033E-2,1.0954825E-1,-2.1738E-1,2.2945324E-2,2.5476975E-2,-4.9093637E-1,-3.9356035E-1,2.1209408E-1,-9.0346314E-2,1.6795382E-1,2.8232163E-1,-7.117397E-1,-7.1688896E-1,9.495316E-2,3.4822747E-1,-1.8572776E-1,6.0051218E-2,-4.252931E-1,-3.257473E-3,6.4639366E-1,-1.9766265E-1,3.1297594E-1,-9.2724824E-1,2.4671001E-2,-2.600785E-1,-3.355883E-2,1.5872419E-1,-1.057229E-1,1.5677841E-1,1.0351613E0,2.0737574E-1,-4.1519058E-1,-1.8260216E-2,2.0728973E-1,-2.3475067E-1,7.1428865E-2,1.09594405E-1,-1.0181941E-1,2.6176402E-1,-7.5248964E-2,-7.364436E-2,-3.0202612E-1,8.513174E-2,-1.5292127E-1,-1.9023541E-2,5.247701E-1,1.4469911E-1,-1.9270897E-1],"categories":[],"categories_nodes":[],"categories_segments":[],"categories_sizes":[],"default_left":[0,0,0,0,0,0,0,0,0,0,0,0,0,0,0,0,0,0,0,0,0,0,0,0,0,0,0,0,0,0,0,0,0,0,0,0,0,0,0,0,0,0,0,0,0,0,0,0,0,0,0],"id":13,"left_children":[1,3,5,7,9,-1,-1,11,13,15,17,19,21,23,25,27,29,31,33,35,37,39,41,-1,-1,43,-1,-1,-1,-1,-1,45,47,-1,49,-1,-1,-1,-1,-1,-1,-1,-1,-1,-1,-1,-1,-1,-1,-1,-1],"loss_changes":[5.821318E-1,7.3912084E-1,7.534124E-1,2.575945E0,2.2376807E0,0E0,0E0,1.009657E0,2.167959E0,1.2400461E0,1.9783106E0,1.7328264E0,2.244301E0,3.032882E0,1.6582727E0,3.189447E-1,9.3186516E-1,3.3456986E0,2.2311141E0,1.8932554E0,2.7043266E0,2.7447507E0,1.683636E0,0E0,0E0,1.5144396E-1,0E0,0E0,0E0,0E0,0E0,2.0100935E0,4.531598E0,0E0,1.9984931E0,0E0,0E0,0E0,0E0,0E0,0E0,0E0,0E0,0E0,0E0,0E0,0E0,0E0,0E0,0E0,0E0],"parents":[2147483647,0,0,1,1,2,2,3,3,4,4,7,7,8,8,9,9,10,10,11,11,12,12,13,13,14,14,15,15,16,16,17,17,18,18,19,19,20,20,21,21,22,22,25,25,31,31,32,32,34,34],"right_children":[2,4,6,8,10,-1,-1,12,14,16,18,20,22,24,26,28,30,32,34,36,38,40,42,-1,-1,44,-1,-1,-1,-1,-1,46,48,-1,50,-1,-1,-1,-1,-1,-1,-1,-1,-1,-1,-1,-1,-1,-1,-1,-1],"split_conditions":[9.6E-1,6.6E-1,1.3E1,5.8E-1,2.008E3,-2.1738E-1,2.2945324E-2,1.8E1,2.008E3,8.4E-1,7.694E3,6.919E3,7.493E3,3.701E3,8.546E3,7.546E3,1.2E1,6.855E3,1.204E3,6.387E3,8.858E3,3.713E3,4.8E-1,-1.9766265E-1,3.1297594E-1,1.474E3,2.4671001E-2,-2.600785E-1,-3.355883E-2,1.5872419E-1,-1.057229E-1,6.063E3,3.272E3,2.0737574E-1,7E-1,-1.8260216E-2,2.0728973E-1,-2.3475067E-1,7.1428865E-2,1.09594405E-1,-1.0181941E-1,2.6176402E-1,-7.5248964E-2,-7.364436E-2,-3.0202612E-1,8.513174E-2,-1.5292127E-1,-1.9023541E-2,5.247701E-1,1.4469911E-1,-1.9270897E-1],"split_indices":[4,4,3,4,2,0,0,3,2,4,0,0,0,1,0,0,3,0,1,0,0,0,4,0,0,1,0,0,0,0,0,0,1,0,4,0,0,0,0,0,0,0,0,0,0,0,0,0,0,0,0],"split_type":[0,0,0,0,0,0,0,0,0,0,0,0,0,0,0,0,0,0,0,0,0,0,0,0,0,0,0,0,0,0,0,0,0,0,0,0,0,0,0,0,0,0,0,0,0,0,0,0,0,0,0],"sum_hessian":[1.1394025E2,1.1053954E2,3.4007034E0,6.978459E1,4.0754955E1,1.5304987E0,1.8702047E0,5.9263897E1,1.0520693E1,6.4198933E0,3.4335064E1,3.289144E1,2.6372456E1,2.2749963E0,8.245697E0,3.5817666E0,2.8381267E0,2.5674124E1,8.660939E0,2.32655E1,9.625941E0,2.015361E1,6.2188454E0,1.0769881E0,1.1980082E0,6.353356E0,1.892341E0,2.523173E0,1.0585936E0,1.3476659E0,1.4904608E0,2.1038816E1,4.6353073E0,1.3788093E0,7.2821302E0,2.028188E1,2.9836202E0,6.140156E0,3.485786E0,9.571662E0,1.0581948E1,4.988862E0,1.2299833E0,1.0904288E0,5.262927E0,1.8154087E1,2.8847291E0,2.1849859E0,2.4503212E0,1.2440215E0,6.0381083E0],"tree_param":{"num_deleted":"0","num_feature":"5","num_nodes":"51","size_leaf_vector":"1"}},{"base_weights":[-1.2482916E-2,6.115307E-2,-9.98501E-2,-3.0383756E-2,3.7531704E-1,8.414935E-2,-2.522558E-1,-7.000574E-1,3.2076098E-2,2.9943436E-1,1.8021566E-1,2.4565443E-1,-2.6525894E-1,-4.0155607E-1,5.1865432E-2,-2.4071245E-1,-6.859704E-2,2.657331E-1,-1.3778353E-1,-1.8701863E-1,4.155013E-1,9.6150324E-2,3.2533738E-1,-5.1409543E-2,-2.1628468E-1,-1.7725389E-1,-8.545715E-1,3.6848974E-1,-2.1993253E-1,-3.177072E-2,6.2228876E-1,-7.9938227E-1,2.7210014E-2,7.1535254E-1,-3.9036173E-1,-3.4357527E-1,4.019874E-1,-1.5073454E-1,2.089318E-1,3.6271843E-1,-3.6984146E-1,-2.8999704E-1,-5.107041E-2,-5.478064E-2,7.5252336E-1,1.497145E-1,-6.179649E-1,-1.12962045E-1,1.8712842E-1,2.5960264E-1,-3.338871E-2,-2.764955E-1,-5.141577E-2,-2.1809119E-1,3.7469216E-2,2.8102395E-1,-7.33387E-2,-1.7079655E-3,-1.8422943E-1,-2.302425E-1,1.554661E-1,2.182718E-1,-6.9671586E-2,1.2439772E-1,-7.336103E-2,2.4823116E-1,-5.868202E-2,-1.6639596E-1,6.0262803E-2,4.6448123E-2,2.867306E-1,-5.006217E-2,-2.4999613E-1],"categories":[],"categories_nodes":[],"categories_segments":[],"categories_sizes":[],"default_left":[0,0,0,0,0,0,0,0,0,0,0,0,0,0,0,0,0,0,0,0,0,0,0,0,0,0,0,0,0,0,0,0,0,0,0,0,0,0,0,0,0,0,0,0,0,0,0,0,0,0,0,0,0,0,0,0,0,0,0,0,0,0,0,0,0,0,0,0,0,0,0,0,0],"id":14,"left_children":[1,3,5,7,9,11,13,15,17,-1,19,21,23,25,27,-1,-1,29,31,-1,33,35,-1,37,-1,39,41,43,45,47,49,51,53,55,57,59,61,-1,63,65,67,-1,-1,-1,69,-1,71,-1,-1,-1,-1,-1,-1,-1,-1,-1,-1,-1,-1,-1,-1,-1,-1,-1,-1,-1,-1,-1,-1,-1,-1,-1,-1],"loss_changes":[7.3241353E-1,1.791004E0,1.4798346E0,2.065553E0,1.5257772E0,1.4372538E0,1.3239449E0,1.9634962E-2,1.8478011E0,0E0,2.5107884E0,2.0461106E0,7.587884E-1,1.8161411E0,9.7050923E-1,0E0,0E0,2.0937042E0,2.9781563E0,0E0,2.6502297E0,2.2429125E0,0E0,8.841054E-1,0E0,1.6121902E0,3.0724192E-1,1.2269063E0,2.079194E0,2.8587394E0,1.6906004E0,2.5966954E-1,1.7590988E0,1.8236325E0,2.8119034E-1,2.940064E0,2.1702273E0,0E0,5.597575E-1,1.2623495E0,1.2686507E0,0E0,0E0,0E0,2.4428403E-1,0E0,2.9125452E-1,0E0,0E0,0E0,0E0,0E0,0E0,0E0,0E0,0E0,0E0,0E0,0E0,0E0,0E0,0E0,0E0,0E0,0E0,0E0,0E0,0E0,0E0,0E0,0E0,0E0,0E0],"parents":[2147483647,0,0,1,1,2,2,3,3,4,4,5,5,6,6,7,7,8,8,10,10,11,11,12,12,13,13,14,14,17,17,18,18,20,20,21,21,23,23,25,25,26,26,27,27,28,28,29,29,30,30,31,31,32,32,33,33,34,34,35,35,36,36,38,38,39,39,40,40,44,44,46,46],"right_children":[2,4,6,8,10,12,14,16,18,-1,20,22,24,26,28,-1,-1,30,32,-1,34,36,-1,38,-1,40,42,44,46,48,50,52,54,56,58,60,62,-1,64,66,68,-1,-1,-1,70,-1,72,-1,-1,-1,-1,-1,-1,-1,-1,-1,-1,-1,-1,-1,-1,-1,-1,-1,-1,-1,-1,-1,-1,-1,-1,-1,-1],"split_conditions":[2.015E3,2.013E3,1.5E1,1.95E3,2.1E-1,7.4E-1,7.5E-1,2.009E3,5.493E3,2.9943436E-1,3.8E-1,6.9E-1,7.254E3,5.6E-1,8.5E-1,-2.4071245E-1,-6.859704E-2,3.872E3,6.49E3,-1.8701863E-1,7.439E3,6E0,3.2533738E-1,3.79E3,-2.1628468E-1,2.542E3,2.8E1,2.02E3,2.017E3,2.3E1,3.889E3,2.3E1,4E0,2.4E1,6.4E-1,3.8E3,4.069E3,-1.5073454E-1,9.1E-1,2.2E1,4.5E-1,-2.8999704E-1,-5.107041E-2,-5.478064E-2,8E-1,1.497145E-1,5.971E3,-1.12962045E-1,1.8712842E-1,2.5960264E-1,-3.338871E-2,-2.764955E-1,-5.141577E-2,-2.1809119E-1,3.7469216E-2,2.8102395E-1,-7.33387E-2,-1.7079655E-3,-1.8422943E-1,-2.302425E-1,1.554661E-1,2.182718E-1,-6.9671586E-2,1.2439772E-1,-7.336103E-2,2.4823116E-1,-5.868202E-2,-1.6639596E-1,6.0262803E-2,4.6448123E-2,2.867306E-1,-5.006217E-2,-2.4999613E-1],"split_indices":[2,2,3,0,4,4,4,2,0,0,4,4,0,4,4,0,0,0,0,0,0,3,0,0,0,0,3,2,2,3,1,3,3,3,4,1,1,0,4,3,4,0,0,0,4,0,0,0,0,0,0,0,0,0,0,0,0,0,0,0,0,0,0,0,0,0,0,0,0,0,0,0,0],"split_type":[0,0,0,0,0,0,0,0,0,0,0,0,0,0,0,0,0,0,0,0,0,0,0,0,0,0,0,0,0,0,0,0,0,0,0,0,0,0,0,0,0,0,0,0,0,0,0,0,0,0,0,0,0,0,0,0,0,0,0,0,0,0,0,0,0,0,0,0,0,0,0,0,0],"sum_hessian":[1.118969E2,6.0882847E1,5.101405E1,4.7845547E1,1.3037298E1,2.3314413E1,2.7699638E1,3.210929E0,4.463462E1,2.1281135E0,1.0909184E1,1.6147556E1,7.1668553E0,1.8363958E1,9.335681E0,2.0613952E0,1.1495336E0,1.8551271E1,2.6083347E1,2.0970945E0,8.81209E0,1.4650885E1,1.4966722E0,5.6351633E0,1.5316923E0,1.321304E1,5.150917E0,4.1479177E0,5.187763E0,1.0609655E1,7.941616E0,4.4389424E0,2.1644405E1,6.504256E0,2.3078346E0,5.9593186E0,8.691566E0,1.7219468E0,3.9132164E0,3.2414234E0,9.971618E0,4.0715117E0,1.0794052E0,1.9188561E0,2.2290616E0,1.7581545E0,3.4296083E0,7.231781E0,3.377874E0,5.830297E0,2.111319E0,3.3241346E0,1.1148076E0,1.7433472E0,1.9901058E1,5.3046927E0,1.1995629E0,1.225789E0,1.0820456E0,4.0678654E0,1.8914536E0,5.645975E0,3.045591E0,2.7508216E0,1.1623948E0,1.5059532E0,1.73547E0,7.5537E0,2.4179173E0,1.0127063E0,1.2163553E0,1.6817768E0,1.7478317E0],"tree_param":{"num_deleted":"0","num_feature":"5","num_nodes":"73","size_leaf_vector":"1"}},{"base_weights":[-2.0474458E-2,2.4366936E-1,-4.9542814E-2,-2.672685E-1,4.695871E-1,-4.9941906E-1,-1.9006267E-2,-1.6046973E-1,7.8675404E-2,-1.4751515E-1,8.058255E-1,-6.1779894E-2,-2.2814141E-1,-9.2845604E-2,8.508636E-2,-1.8934381E-1,9.868033E-2,4.80769E-2,3.2356557E-1,-1.7705412E-1,1.22292094E-1,-5.6872778E-2,-2.3353978E-1,2.0665993E-1,-2.2210358E-1,-1.1113832E-1,2.0638746E-1,3.8512766E-2,1.1306902E0,-5.058413E-1,1.9287913E-1,1.7133862E-1,-4.2567894E-2,-2.0082912E-1,1.2706512E-1,1.543634E-1,-5.567084E-2,3.8947096E-1,1.1093105E-1,3.736105E-2,-2.7224842E-1,1.433379E-1,-1.0708595E-1],"categories":[],"categories_nodes":[],"categories_segments":[],"categories_sizes":[],"default_left":[0,0,0,0,0,0,0,0,0,0,0,0,0,0,0,0,0,0,0,0,0,0,0,0,0,0,0,0,0,0,0,0,0,0,0,0,0,0,0,0,0,0,0],"id":15,"left_children":[1,3,5,7,9,11,13,-1,-1,15,17,19,-1,21,23,-1,-1,-1,-1,-1,-1,25,-1,27,29,31,33,35,37,39,41,-1,-1,-1,-1,-1,-1,-1,-1,-1,-1,-1,-1],"loss_changes":[8.63191E-1,1.4134971E0,1.3737559E0,7.1541107E-1,1.7995372E0,6.79698E-1,7.4061525E-1,0E0,0E0,1.0606511E0,7.7751446E-1,1.1000322E0,0E0,1.3429923E0,1.5428193E0,0E0,0E0,0E0,0E0,0E0,0E0,8.0183744E-1,0E0,4.4988112E0,1.492518E0,1.0431913E0,2.1223252E0,2.8443239E0,8.927584E-2,1.9644312E0,1.0376102E0,0E0,0E0,0E0,0E0,0E0,0E0,0E0,0E0,0E0,0E0,0E0,0E0],"parents":[2147483647,0,0,1,1,2,2,3,3,4,4,5,5,6,6,9,9,10,10,11,11,13,13,14,14,21,21,23,23,24,24,25,25,26,26,27,27,28,28,29,29,30,30],"right_children":[2,4,6,8,10,12,14,-1,-1,16,18,20,-1,22,24,-1,-1,-1,-1,-1,-1,26,-1,28,30,32,34,36,38,40,42,-1,-1,-1,-1,-1,-1,-1,-1,-1,-1,-1,-1],"split_conditions":[4E0,2E0,5E0,2.018E3,2.86E3,3.136E3,6.387E3,-1.6046973E-1,7.8675404E-2,3E0,2.013E3,6.4E-1,-2.2814141E-1,6.222E3,2.3E1,-1.8934381E-1,9.868033E-2,4.80769E-2,3.2356557E-1,-1.7705412E-1,1.22292094E-1,8.6E-1,-2.3353978E-1,2.2E1,6.6E-1,6E0,2.009E3,7.254E3,2.012E3,2.7E-1,2.017E3,1.7133862E-1,-4.2567894E-2,-2.0082912E-1,1.2706512E-1,1.543634E-1,-5.567084E-2,3.8947096E-1,1.1093105E-1,3.736105E-2,-2.7224842E-1,1.433379E-1,-1.0708595E-1],"split_indices":[3,3,3,2,1,1,0,0,0,3,2,4,0,0,3,0,0,0,0,0,0,4,0,3,4,3,2,0,2,4,2,0,0,0,0,0,0,0,0,0,0,0,0],"split_type":[0,0,0,0,0,0,0,0,0,0,0,0,0,0,0,0,0,0,0,0,0,0,0,0,0,0,0,0,0,0,0,0,0,0,0,0,0,0,0,0,0,0,0],"sum_hessian":[1.09848366E2,1.0158209E1,9.969016E1,3.0583584E0,7.0998507E0,5.360621E0,9.432954E1,2.0248156E0,1.0335431E0,2.702041E0,4.3978095E0,2.4649427E0,2.895678E0,5.5247276E1,3.9082264E1,1.1797864E0,1.5222546E0,1.7776212E0,2.6201882E0,1.0385972E0,1.4263456E0,5.3522057E1,1.7252214E0,2.8235165E1,1.0847098E1,4.4854156E1,8.667899E0,2.47695E1,3.4656637E0,6.312252E0,4.534847E0,1.176822E0,4.3677334E1,1.308421E0,7.3594785E0,7.512979E0,1.7256521E1,2.2615535E0,1.2041101E0,2.7251625E0,3.5870893E0,3.0733228E0,1.4615239E0],"tree_param":{"num_deleted":"0","num_feature":"5","num_nodes":"43","size_leaf_vector":"1"}},{"base_weights":[-1.7164117E-2,1.806404E-1,-3.9406866E-2,4.7912955E-1,-1.4688744E-1,-4.286501E-1,-1.4213313E-2,5.061369E-2,2.7393454E-1,-6.004122E-1,3.874168E-1,-2.2613004E-1,-1.0328299E-1,-3.2927457E-2,3.5966566E-1,-1.0597812E-1,1.1198027E-1,-5.0671E-2,-2.0938855E-1,-6.987061E-2,2.4218825E-1,7.1218714E-2,-1.2808062E-1,3.3011775E-2,-1.6127634E-1,-1.16617076E-1,2.6991358E-1,-4.0102918E-2,3.2719046E-1,1.7447515E-1,-4.4383726E-1,5.6374967E-2,-4.2177573E-2,-7.4202545E-2,1.869525E-1,-7.559805E-2,1.1581465E-1,-2.3134458E-1,-3.7607532E-2],"categories":[],"categories_nodes":[],"categories_segments":[],"categories_sizes":[],"default_left":[0,0,0,0,0,0,0,0,0,0,0,0,0,0,0,0,0,0,0,0,0,0,0,0,0,0,0,0,0,0,0,0,0,0,0,0,0,0,0],"id":16,"left_children":[1,3,5,7,9,11,13,15,-1,17,19,-1,21,23,25,-1,-1,-1,-1,-1,-1,-1,-1,27,29,-1,-1,31,33,35,37,-1,-1,-1,-1,-1,-1,-1,-1],"loss_changes":[4.8698962E-1,1.1657133E0,9.634166E-1,1.0875403E0,1.7125732E0,5.542693E-1,6.687681E-1,6.695575E-1,0E0,3.7674665E-2,1.0766575E0,0E0,5.5843794E-1,7.698046E-1,2.1924798E0,0E0,0E0,0E0,0E0,0E0,0E0,0E0,0E0,1.3144644E0,3.001985E0,0E0,0E0,1.1571932E0,2.2208037E0,1.4331553E0,1.6776829E0,0E0,0E0,0E0,0E0,0E0,0E0,0E0,0E0],"parents":[2147483647,0,0,1,1,2,2,3,3,4,4,5,5,6,6,7,7,9,9,10,10,12,12,13,13,14,14,23,23,24,24,27,27,28,28,29,29,30,30],"right_children":[2,4,6,8,10,12,14,16,-1,18,20,-1,22,24,26,-1,-1,-1,-1,-1,-1,-1,-1,28,30,-1,-1,32,34,36,38,-1,-1,-1,-1,-1,-1,-1,-1],"split_conditions":[4E0,4.627E3,5E0,3E0,3.624E3,5.8E-1,9.577E3,2.48E3,2.7393454E-1,1.548E3,2.016E3,-2.2613004E-1,3.136E3,2.017E3,2.011E3,-1.0597812E-1,1.1198027E-1,-5.0671E-2,-2.0938855E-1,-6.987061E-2,2.4218825E-1,7.1218714E-2,-1.2808062E-1,8.2E-1,5.2E-1,-1.16617076E-1,2.6991358E-1,1.807E3,2.009E3,2.6E-1,2.02E3,5.6374967E-2,-4.2177573E-2,-7.4202545E-2,1.869525E-1,-7.559805E-2,1.1581465E-1,-2.3134458E-1,-3.7607532E-2],"split_indices":[3,0,3,3,1,4,0,1,0,1,2,0,1,2,2,0,0,0,0,0,0,0,0,4,4,0,0,1,2,4,2,0,0,0,0,0,0,0,0],"split_type":[0,0,0,0,0,0,0,0,0,0,0,0,0,0,0,0,0,0,0,0,0,0,0,0,0,0,0,0,0,0,0,0,0,0,0,0,0,0,0],"sum_hessian":[1.08068665E2,1.0203928E1,9.786474E1,5.0964575E0,5.1074705E0,4.9756775E0,9.288906E1,3.1262422E0,1.9702152E0,2.6956441E0,2.4118266E0,1.8302104E0,3.1454668E0,8.932968E1,3.559379E0,1.3462491E0,1.779993E0,1.0006683E0,1.6949757E0,1.1532888E0,1.2585378E0,1.6622655E0,1.4832014E0,5.9502876E1,2.9826803E1,1.6093564E0,1.9500226E0,4.8349777E1,1.1153098E1,1.3805278E1,1.6021526E1,1.4523805E1,3.3825974E1,3.848044E0,7.3050537E0,4.5144553E0,9.290822E0,7.200245E0,8.8212805E0],"tree_param":{"num_deleted":"0","num_feature":"5","num_nodes":"39","size_leaf_vector":"1"}},{"base_weights":[-1.5716745E-2,-8.1967264E-2,5.982956E-2,-8.643009E-3,-6.450193E-1,1.0584593E-1,-2.3003082E-1,2.0928523E-1,-9.9699244E-2,-2.6762363E-1,9.432354E-2,2.8554544E-1,-6.748816E-2,-2.9384378E-1,3.217852E-1,3.2837582E-1,-1.6256401E-1,1.7455494E-1,3.076617E-1,-2.4465975E-1,3.0890974E-1,4.1142825E-2,-1.8706238E-1,5.5907017E-1,-2.727464E-2,-8.787693E-2,2.5478026E-1,-2.0491506E-1,1.3143806E-1,2.6460695E-1,-1.6458276E-1,-4.972954E-1,1.7614862E-1,-2.913727E-1,5.7718277E-1,-8.969499E-2,2.6016515E-1,-1.6455525E-1,1.7550159E-1,-1.5553936E-1,1.5033902E-1,-4.5250498E-2,-2.2787231E-1,2.4045227E-2,2.7202544E-1,-2.1728769E-1,9.6074425E-2,-6.1964188E-2,-2.7399462E-1,1.4755599E-1,-1.5629362E-1,2.8702287E-2,-1.7660347E-1,2.566864E-1,-3.769549E-2],"categories":[],"categories_nodes":[],"categories_segments":[],"categories_sizes":[],"default_left":[0,0,0,0,0,0,0,0,0,0,0,0,0,0,0,0,0,0,0,0,0,0,0,0,0,0,0,0,0,0,0,0,0,0,0,0,0,0,0,0,0,0,0,0,0,0,0,0,0,0,0,0,0,0,0],"id":17,"left_children":[1,3,5,7,9,11,-1,13,15,-1,-1,17,19,21,23,25,27,29,-1,31,33,-1,-1,35,37,39,-1,41,-1,43,45,47,49,51,53,-1,-1,-1,-1,-1,-1,-1,-1,-1,-1,-1,-1,-1,-1,-1,-1,-1,-1,-1,-1],"loss_changes":[5.444284E-1,2.3829536E0,2.0188956E0,1.0567408E0,1.8573551E0,1.5497496E0,0E0,9.835594E-1,1.0624149E0,0E0,0E0,1.8181151E0,1.7974106E0,5.6762195E-1,1.1179521E0,1.1874533E0,9.385298E-1,7.261098E-1,0E0,2.013319E0,1.5701234E0,0E0,0E0,2.3671806E0,2.344662E0,1.2131644E0,0E0,8.407135E-1,0E0,2.064564E0,1.6717877E0,1.2120736E0,1.9143134E0,4.4220775E-1,1.3506024E0,0E0,0E0,0E0,0E0,0E0,0E0,0E0,0E0,0E0,0E0,0E0,0E0,0E0,0E0,0E0,0E0,0E0,0E0,0E0,0E0],"parents":[2147483647,0,0,1,1,2,2,3,3,4,4,5,5,7,7,8,8,11,11,12,12,13,13,14,14,15,15,16,16,17,17,19,19,20,20,23,23,24,24,25,25,27,27,29,29,30,30,31,31,32,32,33,33,34,34],"right_children":[2,4,6,8,10,12,-1,14,16,-1,-1,18,20,22,24,26,28,30,-1,32,34,-1,-1,36,38,40,-1,42,-1,44,46,48,50,52,54,-1,-1,-1,-1,-1,-1,-1,-1,-1,-1,-1,-1,-1,-1,-1,-1,-1,-1,-1,-1],"split_conditions":[2.925E3,2.7E1,9.4E-1,2.01E3,7.943E3,3.962E3,-2.3003082E-1,3.255E3,1.956E3,-2.6762363E-1,9.432354E-2,3.889E3,2.3E1,2.008E3,1.745E3,1.825E3,9.666E3,2.3E1,3.076617E-1,4.633E3,4.241E3,4.1142825E-2,-1.8706238E-1,1E1,6.7E-1,2.019E3,2.5478026E-1,9.208E3,1.3143806E-1,2.1E1,2.7E1,4.443E3,1.3E1,4.11E3,4.645E3,-8.969499E-2,2.6016515E-1,-1.6455525E-1,1.7550159E-1,-1.5553936E-1,1.5033902E-1,-4.5250498E-2,-2.2787231E-1,2.4045227E-2,2.7202544E-1,-2.1728769E-1,9.6074425E-2,-6.1964188E-2,-2.7399462E-1,1.4755599E-1,-1.5629362E-1,2.8702287E-2,-1.7660347E-1,2.566864E-1,-3.769549E-2],"split_indices":[1,3,4,2,0,1,0,0,0,0,0,1,3,2,1,0,0,3,0,1,1,0,0,3,4,2,0,0,0,3,3,1,3,1,1,0,0,0,0,0,0,0,0,0,0,0,0,0,0,0,0,0,0,0,0],"split_type":[0,0,0,0,0,0,0,0,0,0,0,0,0,0,0,0,0,0,0,0,0,0,0,0,0,0,0,0,0,0,0,0,0,0,0,0,0,0,0,0,0,0,0,0,0,0,0,0,0,0,0,0,0,0,0],"sum_hessian":[1.06797455E2,5.685411E1,4.9943348E1,5.1201653E1,5.652458E0,4.8135612E1,1.8077369E0,1.4706243E1,3.6495407E1,4.5507994E0,1.1016587E0,2.3316E1,2.4819613E1,2.3928509E0,1.2313392E1,4.1324086E0,3.2363E1,2.1349682E1,1.9663181E0,1.7114E1,7.705612E0,1.2902488E0,1.102602E0,6.9721785E0,5.3412137E0,2.7589686E0,1.3734401E0,3.084703E1,1.5159686E0,1.7043776E1,4.305907E0,1.0580281E1,6.533718E0,2.3534572E0,5.3521547E0,1.8501275E0,5.122051E0,2.9413438E0,2.3998697E0,1.6630083E0,1.0959603E0,2.9265541E1,1.5814903E0,1.4114265E1,2.9295096E0,1.7693667E0,2.5365403E0,7.1086626E0,3.4716191E0,4.6997995E0,1.8339185E0,1.3170509E0,1.0364063E0,3.6777656E0,1.6743892E0],"tree_param":{"num_deleted":"0","num_feature":"5","num_nodes":"55","size_leaf_vector":"1"}},{"base_weights":[-1.6820913E-2,-4.413421E-3,-3.386393E-1,-3.1463262E-1,8.983955E-3,3.9292004E-2,-1.6475974E-1,5.0874148E-2,-1.7365728E-1,4.0537462E-1,-1.1987363E-2,2.0246756E-1,6.708066E-2,-1.036688E-1,5.8627594E-2,-1.1460799E-1,1.395869E-1,8.85246E-3,-5.78442E-1,8.884987E-2,-1.9691935E-1,-3.232197E-2,9.6088365E-2,-2.8120852E-1,-1.65163E-2,-5.849289E-3,8.934465E-2],"categories":[],"categories_nodes":[],"categories_segments":[],"categories_sizes":[],"default_left":[0,0,0,0,0,0,0,0,0,0,0,0,0,0,0,0,0,0,0,0,0,0,0,0,0,0,0],"id":18,"left_children":[1,3,5,7,9,-1,-1,-1,-1,11,13,-1,15,17,19,-1,-1,21,23,25,-1,-1,-1,-1,-1,-1,-1],"loss_changes":[4.2018273E-1,4.2965224E-1,4.5827895E-1,6.456678E-1,8.313103E-1,0E0,0E0,0E0,0E0,4.1281843E-1,6.236691E-1,0E0,7.747567E-1,2.241755E0,1.2366371E0,0E0,0E0,1.299273E0,1.4580891E0,1.2102284E0,0E0,0E0,0E0,0E0,0E0,0E0,0E0],"parents":[2147483647,0,0,1,1,2,2,3,3,4,4,9,9,10,10,12,12,13,13,14,14,17,17,18,18,19,19],"right_children":[2,4,6,8,10,-1,-1,-1,-1,12,14,-1,16,18,20,-1,-1,22,24,26,-1,-1,-1,-1,-1,-1,-1],"split_conditions":[9.6E-1,1.3E-1,1.78E3,2.304E3,1.6E-1,3.9292004E-2,-1.6475974E-1,5.0874148E-2,-1.7365728E-1,9E0,2.554E3,2.0246756E-1,1.9E1,2.076E3,9.691E3,-1.1460799E-1,1.395869E-1,1.665E3,2.363E3,6.855E3,-1.9691935E-1,-3.232197E-2,9.6088365E-2,-2.8120852E-1,-1.65163E-2,-5.849289E-3,8.934465E-2],"split_indices":[4,4,1,1,4,0,0,0,0,3,1,0,3,1,0,0,0,1,1,0,0,0,0,0,0,0,0],"split_type":[0,0,0,0,0,0,0,0,0,0,0,0,0,0,0,0,0,0,0,0,0,0,0,0,0,0,0],"sum_hessian":[1.046052E2,1.0169802E2,2.9071853E0,3.2793477E0,9.841867E1,1.0169816E0,1.8902037E0,1.2841811E0,1.9951665E0,4.024243E0,9.439443E1,1.6860156E0,2.3382273E0,4.0867233E1,5.3527195E1,1.1179832E0,1.2202439E0,3.3830708E1,7.0365252E0,5.2196712E1,1.3304818E0,2.5091457E1,8.739251E0,3.7048948E0,3.3316302E0,3.4971092E1,1.722562E1],"tree_param":{"num_deleted":"0","num_feature":"5","num_nodes":"27","size_leaf_vector":"1"}},{"base_weights":[-1.7366009E-2,5.348791E-2,-6.788811E-2,1.507527E-1,-2.7792305E-1,-3.3313233E-2,-5.300017E-1,6.163035E-2,8.054286E-1,3.4940758E-1,-4.94931E-1,1.7363729E-2,-3.9176342E-1,1.1207728E-2,-2.2867355E-1,-1.7632113E-1,1.6765854E-1,3.010251E-1,1.0565412E-1,1.5256895E-1,9.464042E-3,-1.7700066E-1,-2.6218063E-1,8.9503445E-2,-2.8032687E-1,-5.946659E-1,4.0334813E-2,2.1937841E-1,-1.8182135E-1,2.0700467E-1,-2.1949577E-1,-1.3519068E-3,5.6808335E-1,-4.800017E-1,1.3587771E-1,-1.837993E-2,-2.590595E-1,3.7518457E-2,2.598469E-1,-3.7348326E-2,1.4895074E-1,-3.173416E-2,1.0313081E-1,2.7225804E-1,8.563081E-3,-2.3376839E-1,6.909318E-3],"categories":[],"categories_nodes":[],"categories_segments":[],"categories_sizes":[],"default_left":[0,0,0,0,0,0,0,0,0,0,0,0,0,0,0,0,0,0,0,0,0,0,0,0,0,0,0,0,0,0,0,0,0,0,0,0,0,0,0,0,0,0,0,0,0,0,0],"id":19,"left_children":[1,3,5,7,9,11,13,15,17,19,21,23,25,-1,-1,-1,27,-1,-1,-1,-1,29,-1,31,33,35,-1,37,-1,39,-1,41,43,45,-1,-1,-1,-1,-1,-1,-1,-1,-1,-1,-1,-1,-1],"loss_changes":[3.787937E-1,1.466121E0,9.668797E-1,1.9811852E0,1.5855618E0,1.0676069E0,5.8483815E-1,2.2824144E0,1.343441E-2,1.4852983E-1,8.241695E-1,1.144422E0,8.5680294E-1,0E0,0E0,0E0,1.2552304E0,0E0,0E0,0E0,0E0,1.359458E0,0E0,1.8579869E0,1.7414043E0,7.266216E-1,0E0,1.5400614E0,0E0,4.5824185E-1,0E0,1.3660963E0,1.2226472E0,1.3224521E0,0E0,0E0,0E0,0E0,0E0,0E0,0E0,0E0,0E0,0E0,0E0,0E0,0E0],"parents":[2147483647,0,0,1,1,2,2,3,3,4,4,5,5,6,6,7,7,8,8,9,9,10,10,11,11,12,12,16,16,21,21,23,23,24,24,25,25,27,27,29,29,31,31,32,32,33,33],"right_children":[2,4,6,8,10,12,14,16,18,20,22,24,26,-1,-1,-1,28,-1,-1,-1,-1,30,-1,32,34,36,-1,38,-1,40,-1,42,44,46,-1,-1,-1,-1,-1,-1,-1,-1,-1,-1,-1,-1,-1],"split_conditions":[4.696E3,2.019E3,4.777E3,4.564E3,1.846E3,8.9E-1,6E0,1.846E3,1.3E1,5.6E-1,3.542E3,2.4E1,2.4E1,1.1207728E-2,-2.2867355E-1,-1.7632113E-1,4.443E3,3.010251E-1,1.0565412E-1,1.5256895E-1,9.464042E-3,2.2E1,-2.6218063E-1,2.2E1,7.6E-1,2.01E3,4.0334813E-2,3.953E3,-1.8182135E-1,2.414E3,-2.1949577E-1,2.02E3,5E-1,8.004E3,1.3587771E-1,-1.837993E-2,-2.590595E-1,3.7518457E-2,2.598469E-1,-3.7348326E-2,1.4895074E-1,-3.173416E-2,1.0313081E-1,2.7225804E-1,8.563081E-3,-2.3376839E-1,6.909318E-3],"split_indices":[0,2,1,1,0,4,3,0,3,4,1,3,3,0,0,0,1,0,0,0,0,3,0,3,4,2,0,1,0,1,0,2,4,0,0,0,0,0,0,0,0,0,0,0,0,0,0],"split_type":[0,0,0,0,0,0,0,0,0,0,0,0,0,0,0,0,0,0,0,0,0,0,0,0,0,0,0,0,0,0,0,0,0,0,0,0,0,0,0,0,0,0,0,0,0,0,0],"sum_hessian":[1.0380311E2,4.3183037E1,6.062007E1,3.3806416E1,9.376622E0,5.739772E1,3.2223504E0,3.0718748E1,3.087666E0,2.2531266E0,7.123495E0,5.1121784E1,6.2759356E0,1.1796509E0,2.0426996E0,3.6740274E0,2.7044722E1,1.3041507E0,1.7835152E0,1.1015937E0,1.151533E0,4.671658E0,2.451837E0,4.171281E1,9.408974E0,4.435547E0,1.840389E0,2.6021765E1,1.022956E0,3.130846E0,1.5408121E0,3.5895462E1,5.81735E0,7.6666255E0,1.742348E0,1.8979993E0,2.5375473E0,2.3751537E1,2.2702265E0,1.7252524E0,1.4055938E0,2.808949E1,7.8059707E0,3.1521702E0,2.6651795E0,4.4628587E0,3.2037668E0],"tree_param":{"num_deleted":"0","num_feature":"5","num_nodes":"47","size_leaf_vector":"1"}},{"base_weights":[-1.6666524E-2,-1.10326715E-1,-7.1891146E-3,1.2531942E-1,-1.894251E-2,-2.9484697E-3,-3.3412546E-1,-2.1120075E-2,3.4029335E-1,7.79244E-2,-2.253419E-1,4.2553796E-3,-5.241534E-1,6.9667447E-1,-1.0201068E-1,-5.858725E-3,9.347516E-2,-2.3795456E-1,4.738191E-2,2.5268546E-1,6.131377E-2],"categories":[],"categories_nodes":[],"categories_segments":[],"categories_sizes":[],"default_left":[0,0,0,0,0,0,0,0,0,0,0,0,0,0,0,0,0,0,0,0,0],"id":20,"left_children":[1,-1,3,-1,5,7,9,11,13,-1,-1,15,17,19,-1,-1,-1,-1,-1,-1,-1],"loss_changes":[3.3973312E-1,0E0,5.133873E-1,0E0,5.003146E-1,6.037796E-1,1.3822787E0,1.173803E0,1.4170854E0,0E0,0E0,6.5201294E-1,9.3555844E-1,8.0346584E-2,0E0,0E0,0E0,0E0,0E0,0E0,0E0],"parents":[2147483647,0,0,2,2,4,4,5,5,6,6,7,7,8,8,11,11,12,12,13,13],"right_children":[2,-1,4,-1,6,8,10,12,14,-1,-1,16,18,20,-1,-1,-1,-1,-1,-1,-1],"split_conditions":[1.26E3,-1.10326715E-1,1.419E3,1.2531942E-1,4.777E3,4.633E3,6E0,4.483E3,7.665E3,7.79244E-2,-2.253419E-1,4.226E3,2.4E1,2.011E3,-1.0201068E-1,-5.858725E-3,9.347516E-2,-2.3795456E-1,4.738191E-2,2.5268546E-1,6.131377E-2],"split_indices":[0,0,0,0,1,1,3,1,0,0,0,1,3,2,0,0,0,0,0,0,0],"split_type":[0,0,0,0,0,0,0,0,0,0,0,0,0,0,0,0,0,0,0,0,0],"sum_hessian":[1.01895744E2,1.6846522E0,1.0021109E2,1.7675495E0,9.844354E1,9.4649864E1,3.7936773E0,9.078222E1,3.8676436E0,1.7205507E0,2.0731266E0,8.736656E1,3.4156554E0,2.5223293E0,1.345314E0,8.196005E1,5.4065156E0,2.3327262E0,1.082929E0,1.3979201E0,1.1244093E0],"tree_param":{"num_deleted":"0","num_feature":"5","num_nodes":"21","size_leaf_vector":"1"}},{"base_weights":[-1.3098103E-2,1.8134363E-2,-1.1306925E-1,-1.2217679E-2,7.462986E-1,3.150611E-1,-2.1701609E-1,2.630054E-1,-5.9377413E-2,3.9427754E-2,3.0956626E-1,-1.768408E-1,2.3820485E-1,-4.44608E-1,6.459543E-2,-8.243116E-2,3.7847504E-1,-3.383522E-1,1.7686129E-2,6.7202024E-2,-1.3381703E-1,-6.5645826E-1,-6.0294825E-3,5.1643E-1,-2.2033599E-1,-3.6380852E-3,4.706073E-1,-1.4145505E-1,-6.1726E-1,1.1724374E-1,-3.8959548E-1,-2.537277E-1,-2.7317184E-1,-1.06864564E-1,2.769009E-1,2.831282E-1,-3.511547E-2,-5.557442E-1,2.0045123E-1,2.7614346E-1,8.1148565E-2,-1.8105702E-1,3.270665E-2,4.498748E-3,-2.2740833E-1,1.6278047E-2,1.85009E-1,-1.5986072E-1,1.2178415E-1,-1.5585807E-1,5.9646133E-2,1.5360347E-2,1.1288086E-1,1.9601565E-2,-2.3680994E-1,-8.332987E-2,1.5364748E-1],"categories":[],"categories_nodes":[],"categories_segments":[],"categories_sizes":[],"default_left":[0,0,0,0,0,0,0,0,0,0,0,0,0,0,0,0,0,0,0,0,0,0,0,0,0,0,0,0,0,0,0,0,0,0,0,0,0,0,0,0,0,0,0,0,0,0,0,0,0,0,0,0,0,0,0,0,0],"id":21,"left_children":[1,3,5,7,9,11,13,15,17,-1,-1,19,-1,21,23,-1,25,27,29,-1,-1,31,33,35,37,-1,39,41,43,45,47,49,-1,-1,51,-1,-1,53,55,-1,-1,-1,-1,-1,-1,-1,-1,-1,-1,-1,-1,-1,-1,-1,-1,-1,-1],"loss_changes":[3.205048E-1,1.7457265E0,1.1549977E0,1.007438E0,4.1933298E-1,1.3603405E0,1.3258886E0,8.095689E-1,1.4260272E0,0E0,0E0,4.6384156E-1,0E0,1.0478075E0,1.3907924E0,0E0,3.5746837E-1,7.0054054E-1,2.182789E0,0E0,0E0,5.491636E-1,5.6393313E-1,1.2298656E0,1.0688635E0,0E0,4.6529162E-1,1.189256E0,5.132952E-1,1.3230257E0,1.4227095E0,6.2481475E-1,0E0,0E0,5.1610038E-2,0E0,0E0,6.377834E-1,7.00347E-1,0E0,0E0,0E0,0E0,0E0,0E0,0E0,0E0,0E0,0E0,0E0,0E0,0E0,0E0,0E0,0E0,0E0,0E0],"parents":[2147483647,0,0,1,1,2,2,3,3,4,4,5,5,6,6,7,7,8,8,11,11,13,13,14,14,16,16,17,17,18,18,21,21,22,22,23,23,24,24,26,26,27,27,28,28,29,29,30,30,31,31,34,34,37,37,38,38],"right_children":[2,4,6,8,10,12,14,16,18,-1,-1,20,-1,22,24,-1,26,28,30,-1,-1,32,34,36,38,-1,40,42,44,46,48,50,-1,-1,52,-1,-1,54,56,-1,-1,-1,-1,-1,-1,-1,-1,-1,-1,-1,-1,-1,-1,-1,-1,-1,-1],"split_conditions":[3.962E3,3.889E3,2.841E3,2.1E-1,5.363E3,2.062E3,6.855E3,1.2E-1,3.9E-1,3.9427754E-2,3.0956626E-1,9E0,2.3820485E-1,2.3E1,7.665E3,-8.243116E-2,1.507E3,2.453E3,2.3E1,6.7202024E-2,-1.3381703E-1,4.797E3,4.241E3,1.2E1,8.783E3,-3.6380852E-3,1.855E3,3.482E3,2.917E3,2.2E1,9.3E-1,4.645E3,-2.7317184E-1,-1.06864564E-1,6.6E-1,2.831282E-1,-3.511547E-2,4.406E3,4.4E-1,2.7614346E-1,8.1148565E-2,-1.8105702E-1,3.270665E-2,4.498748E-3,-2.2740833E-1,1.6278047E-2,1.85009E-1,-1.5986072E-1,1.2178415E-1,-1.5585807E-1,5.9646133E-2,1.5360347E-2,1.1288086E-1,1.9601565E-2,-2.3680994E-1,-8.332987E-2,1.5364748E-1],"split_indices":[1,1,0,4,0,0,0,4,4,0,0,3,0,3,0,0,1,1,3,0,0,0,1,3,0,0,1,0,0,3,4,1,0,0,4,0,0,1,4,0,0,0,0,0,0,0,0,0,0,0,0,0,0,0,0,0,0],"split_type":[0,0,0,0,0,0,0,0,0,0,0,0,0,0,0,0,0,0,0,0,0,0,0,0,0,0,0,0,0,0,0,0,0,0,0,0,0,0,0,0,0,0,0,0,0,0,0,0,0,0,0,0,0,0,0,0,0],"sum_hessian":[1.00992035E2,7.757504E1,2.3416988E1,7.541476E1,2.160289E0,4.1779795E0,1.9239008E1,1.0362507E1,6.505225E1,1.148266E0,1.0120232E0,2.3723152E0,1.8056645E0,1.0319902E1,8.919106E0,1.5878466E0,8.77466E0,1.3346507E1,5.170574E1,1.0206113E0,1.3517038E0,6.623643E0,3.6962595E0,3.1351E0,5.784006E0,1.840422E0,6.934238E0,8.706945E0,4.6395617E0,4.2121517E1,9.584228E0,3.3356514E0,3.2879918E0,1.536052E0,2.1602075E0,1.5796849E0,1.555415E0,3.0400593E0,2.7439468E0,1.0265789E0,5.907659E0,2.565233E0,6.141712E0,1.0075661E0,3.6319952E0,3.838909E1,3.7324233E0,8.401362E0,1.1828653E0,2.0081706E0,1.3274807E0,1.123538E0,1.0366695E0,1.0278506E0,2.0122087E0,1.1257385E0,1.6182083E0],"tree_param":{"num_deleted":"0","num_feature":"5","num_nodes":"57","size_leaf_vector":"1"}},{"base_weights":[-9.4217E-3,2.131475E-1,-2.3153659E-2,-2.8013867E-1,1.9837973E-1,-1.5559821E-1,-6.281692E-3,3.754587E-2,-1.8631935E-1,1.5393573E-1,-1.8207941E-2,-2.9527128E-3,-4.196868E-1,-2.1280471E-2,1.5628988E-1,-3.2798413E-4,-1.8734014E-1,-3.703909E-2,1.0580788E-2],"categories":[],"categories_nodes":[],"categories_segments":[],"categories_sizes":[],"default_left":[0,0,0,0,0,0,0,0,0,0,0,0,0,0,0,0,0,0,0],"id":22,"left_children":[1,3,5,7,-1,-1,9,-1,-1,-1,11,13,15,17,-1,-1,-1,-1,-1],"loss_changes":[3.0990273E-1,1.4886878E0,7.900084E-1,5.626174E-1,0E0,0E0,5.840323E-1,0E0,0E0,0E0,5.601304E-1,8.686567E-1,2.8632253E-1,5.085307E-1,0E0,0E0,0E0,0E0,0E0],"parents":[2147483647,0,0,1,1,2,2,3,3,6,6,10,10,11,11,12,12,13,13],"right_children":[2,4,6,8,-1,-1,10,-1,-1,-1,12,14,16,18,-1,-1,-1,-1,-1],"split_conditions":[6.58E2,5.89E2,8.16E2,5E-1,1.9837973E-1,-1.5559821E-1,8.63E2,3.754587E-2,-1.8631935E-1,1.5393573E-1,9.691E3,9.549E3,2.425E3,2.363E3,1.5628988E-1,-3.2798413E-4,-1.8734014E-1,-3.703909E-2,1.0580788E-2],"split_indices":[1,1,1,4,0,0,1,0,0,0,0,0,1,1,0,0,0,0,0],"split_type":[0,0,0,0,0,0,0,0,0,0,0,0,0,0,0,0,0,0,0],"sum_hessian":[9.878289E1,4.8965783E0,9.3886314E1,2.5092568E0,2.3873212E0,2.1122217E0,9.177409E1,1.4355648E0,1.0736921E0,1.1166905E0,9.06574E1,8.830922E1,2.348183E0,8.625135E1,2.057867E0,1.1016426E0,1.2465402E0,3.0306124E1,5.594523E1],"tree_param":{"num_deleted":"0","num_feature":"5","num_nodes":"19","size_leaf_vector":"1"}},{"base_weights":[-7.4646072E-3,2.1768333E-2,-1.03680894E-1,-4.012211E-3,6.1790794E-1,-5.658523E-1,3.3268032E-3,2.1849628E-1,-4.3424428E-2,3.1001175E-2,2.594001E-1,-4.6515852E-2,-2.215526E-1,-1.2626953E-1,3.7738308E-1,2.991838E-1,-8.278425E-2,-3.267134E-1,1.5006115E-2,1.9276872E-1,-2.445844E-1,5.312609E-1,-1.9673593E-2,-6.82E-2,4.872282E-1,-7.52192E-2,-5.5728716E-1,2.0396915E-1,-8.176846E-2,6.3449025E-1,-1.274945E-1,-5.4422516E-1,1.228854E-1,1.8468644E-1,5.0582748E-2,7.0118405E-2,-1.3488394E-1,-8.484315E-3,2.0960183E-1,-1.5600254E-1,1.0983548E-1,-5.546051E-2,-2.3748003E-1,1.9492477E-2,2.8489915E-1,-1.114698E-1,2.283505E-2,3.1684276E-2,2.4889691E-1,-2.0260242E-1,-3.8446724E-2,1.7219357E-1,-6.027842E-2],"categories":[],"categories_nodes":[],"categories_segments":[],"categories_sizes":[],"default_left":[0,0,0,0,0,0,0,0,0,0,0,0,0,0,0,0,0,0,0,0,0,0,0,0,0,0,0,0,0,0,0,0,0,0,0,0,0,0,0,0,0,0,0,0,0,0,0,0,0,0,0,0,0],"id":23,"left_children":[1,3,5,7,9,11,13,15,17,-1,-1,-1,-1,19,21,23,-1,25,27,29,31,33,-1,35,37,39,41,43,45,47,-1,49,51,-1,-1,-1,-1,-1,-1,-1,-1,-1,-1,-1,-1,-1,-1,-1,-1,-1,-1,-1,-1],"loss_changes":[2.8122976E-1,1.1843076E0,1.1535093E0,6.646067E-1,3.1621945E-1,1.9641435E-1,1.01244E0,5.3763634E-1,1.0691938E0,0E0,0E0,0E0,0E0,6.333752E-1,4.009928E-1,7.438496E-1,0E0,5.98155E-1,1.0089021E0,1.5686907E0,1.3628409E0,2.1533608E-2,0E0,6.0714734E-1,7.7476454E-1,1.453696E0,3.4254622E-1,1.8726411E0,1.7027326E0,2.402929E-1,0E0,2.7718496E-1,1.0066998E0,0E0,0E0,0E0,0E0,0E0,0E0,0E0,0E0,0E0,0E0,0E0,0E0,0E0,0E0,0E0,0E0,0E0,0E0,0E0,0E0],"parents":[2147483647,0,0,1,1,2,2,3,3,4,4,5,5,6,6,7,7,8,8,13,13,14,14,15,15,17,17,18,18,19,19,20,20,21,21,23,23,24,24,25,25,26,26,27,27,28,28,29,29,31,31,32,32],"right_children":[2,4,6,8,10,12,14,16,18,-1,-1,-1,-1,20,22,24,-1,26,28,30,32,34,-1,36,38,40,42,44,46,48,-1,50,52,-1,-1,-1,-1,-1,-1,-1,-1,-1,-1,-1,-1,-1,-1,-1,-1,-1,-1,-1,-1],"split_conditions":[3.962E3,3.889E3,2.008E3,2.1E-1,5.363E3,1.3E1,2.5E1,8.419E3,3.6E-1,3.1001175E-2,2.594001E-1,-4.6515852E-2,-2.215526E-1,3.141E3,6.881E3,3.336E3,-8.278425E-2,1.78E3,4.099E3,2.017E3,6.855E3,2.019E3,-1.9673593E-2,2E1,1.6E1,1.074E3,4.072E3,3.872E3,6.2E-1,2.015E3,-1.274945E-1,2.019E3,7.665E3,1.8468644E-1,5.0582748E-2,7.0118405E-2,-1.3488394E-1,-8.484315E-3,2.0960183E-1,-1.5600254E-1,1.0983548E-1,-5.546051E-2,-2.3748003E-1,1.9492477E-2,2.8489915E-1,-1.114698E-1,2.283505E-2,3.1684276E-2,2.4889691E-1,-2.0260242E-1,-3.8446724E-2,1.7219357E-1,-6.027842E-2],"split_indices":[1,1,2,4,0,3,3,0,4,0,0,0,0,0,0,0,0,1,0,2,0,2,0,3,3,1,0,0,4,0,0,2,0,0,0,0,0,0,0,0,0,0,0,0,0,0,0,0,0,0,0,0,0],"split_type":[0,0,0,0,0,0,0,0,0,0,0,0,0,0,0,0,0,0,0,0,0,0,0,0,0,0,0,0,0,0,0,0,0,0,0,0,0,0,0,0,0,0,0,0,0,0,0,0,0,0,0,0,0],"sum_hessian":[9.818381E1,7.589787E1,2.2285936E1,7.3703766E1,2.1941097E0,3.383684E0,1.8902252E1,1.0406755E1,6.329701E1,1.1709942E0,1.0231155E0,1.5629697E0,1.8207144E0,1.4530437E1,4.3718143E0,9.286255E0,1.1205008E0,1.0038044E1,5.3258965E1,3.7606065E0,1.0769831E1,3.0967238E0,1.2750906E0,3.3597014E0,5.9265532E0,5.435546E0,4.6024985E0,1.7662775E1,3.559619E1,2.1769109E0,1.5836955E0,5.6674747E0,5.1023564E0,1.9463954E0,1.1503283E0,2.0913703E0,1.2683312E0,1.9757799E0,3.9507732E0,2.6184053E0,2.8171403E0,2.4683163E0,2.1341822E0,1.5804094E1,1.8586812E0,1.2076485E1,2.3519705E1,1.0022062E0,1.1747047E0,3.8356104E0,1.8318641E0,1.8093104E0,3.293046E0],"tree_param":{"num_deleted":"0","num_feature":"5","num_nodes":"53","size_leaf_vector":"1"}},{"base_weights":[-5.6772283E-3,4.5114662E-3,-2.7220184E-1,-1.0576573E-1,4.2025298E-2,-1.7638698E-1,2.897122E-2,-5.891809E-1,4.488115E-2,7.8911984E-1,4.019994E-3,-1.9251315E-2,-2.2444284E-1,1.3438724E-1,-2.0942754E-1,4.3930106E-2,3.0875897E-1,2.3855136E-1,-4.8201237E-2,2.6885083E-1,-3.8089523E-1,5.6140375E-1,-1.5114692E-1,1.04228266E-1,-1.6425727E-1,-1.491257E-2,2.3805563E-1,3.2244664E-2,-2.148578E-1,6.3531846E-2,3.2485878E-1,-2.0965429E-1,3.654297E-2,-1.0813172E-1,5.5780184E-2,5.106016E-2,-8.366851E-2],"categories":[],"categories_nodes":[],"categories_segments":[],"categories_sizes":[],"default_left":[0,0,0,0,0,0,0,0,0,0,0,0,0,0,0,0,0,0,0,0,0,0,0,0,0,0,0,0,0,0,0,0,0,0,0,0,0],"id":24,"left_children":[1,3,5,7,9,-1,-1,11,13,15,17,-1,-1,19,-1,-1,-1,21,23,25,27,29,31,33,35,-1,-1,-1,-1,-1,-1,-1,-1,-1,-1,-1,-1],"loss_changes":[2.6565292E-1,3.965135E-1,4.761653E-1,1.7990491E0,2.0250492E0,0E0,0E0,4.4053555E-1,1.3896953E0,3.820367E-1,8.5632795E-1,0E0,0E0,1.3655121E0,0E0,0E0,0E0,1.6864982E0,1.0298849E0,2.5538144E0,7.625199E-1,1.0786874E0,1.0652144E0,1.0297799E0,1.3085556E0,0E0,0E0,0E0,0E0,0E0,0E0,0E0,0E0,0E0,0E0,0E0,0E0],"parents":[2147483647,0,0,1,1,2,2,3,3,4,4,7,7,8,8,9,9,10,10,13,13,17,17,18,18,19,19,20,20,21,21,22,22,23,23,24,24],"right_children":[2,4,6,8,10,-1,-1,12,14,16,18,-1,-1,20,-1,-1,-1,22,24,26,28,30,32,34,36,-1,-1,-1,-1,-1,-1,-1,-1,-1,-1,-1,-1],"split_conditions":[9.6E-1,3.482E3,1.3E1,1.474E3,3.681E3,-1.7638698E-1,2.897122E-2,6.58E2,3.255E3,1.9E1,1.291E3,-1.9251315E-2,-2.2444284E-1,7.7E-1,-2.0942754E-1,4.3930106E-2,3.0875897E-1,6.779E3,1.3E1,5.2E-1,1.854E3,1.128E3,7.32E3,2.1E-1,3.1E-1,-1.491257E-2,2.3805563E-1,3.2244664E-2,-2.148578E-1,6.3531846E-2,3.2485878E-1,-2.0965429E-1,3.654297E-2,-1.0813172E-1,5.5780184E-2,5.106016E-2,-8.366851E-2],"split_indices":[4,0,3,1,0,0,0,1,0,3,1,0,0,4,0,0,0,0,3,4,0,1,0,4,4,0,0,0,0,0,0,0,0,0,0,0,0],"split_type":[0,0,0,0,0,0,0,0,0,0,0,0,0,0,0,0,0,0,0,0,0,0,0,0,0,0,0,0,0,0,0,0,0,0,0,0,0],"sum_hessian":[9.637476E1,9.377308E1,2.6016815E0,2.3340631E1,7.043245E1,1.0813955E0,1.520286E0,4.853877E0,1.8486753E1,2.4527993E0,6.797965E1,1.454321E0,3.3995562E0,1.7230156E1,1.2565979E0,1.1049063E0,1.347893E0,1.1730149E1,5.6249504E1,1.4043685E1,3.1864715E0,6.1743174E0,5.555832E0,2.4358564E1,3.189094E1,9.301442E0,4.742243E0,1.5737168E0,1.6127546E0,4.537861E0,1.6364565E0,1.3289485E0,4.2268834E0,3.1324744E0,2.122609E1,8.016875E0,2.3874063E1],"tree_param":{"num_deleted":"0","num_feature":"5","num_nodes":"37","size_leaf_vector":"1"}},{"base_weights":[-7.609849E-3,-2.7457225E-1,1.9169621E-3,-7.4069435E-3,-1.2786299E-1,1.6312441E-1,-1.8091816E-2,-1.3795309E-1,-3.6210124E-3,-1.3051362E-1,9.740165E-3,3.0512053E-1,-8.717858E-3,-1.1748189E-1,1.9904788E-1,-1.7209804E-1,2.6093936E-3],"categories":[],"categories_nodes":[],"categories_segments":[],"categories_sizes":[],"default_left":[0,0,0,0,0,0,0,0,0,0,0,0,0,0,0,0,0],"id":25,"left_children":[1,3,5,-1,-1,-1,7,-1,9,-1,11,13,15,-1,-1,-1,-1],"loss_changes":[2.4555925E-1,1.1552754E-1,1.0291203E0,0E0,0E0,0E0,5.841273E-1,0E0,5.2152157E-1,0E0,4.8256305E-1,1.5593603E0,8.29655E-1,0E0,0E0,0E0,0E0],"parents":[2147483647,0,0,1,1,2,2,6,6,8,8,10,10,11,11,12,12],"right_children":[2,4,6,-1,-1,-1,8,-1,10,-1,12,14,16,-1,-1,-1,-1],"split_conditions":[5.89E2,3.681E3,6.58E2,-7.4069435E-3,-1.2786299E-1,1.6312441E-1,2E0,-1.3795309E-1,8.16E2,-1.3051362E-1,1.029E3,4.03E3,1.128E3,-1.1748189E-1,1.9904788E-1,-1.7209804E-1,2.6093936E-3],"split_indices":[1,0,1,0,0,0,3,0,1,0,1,0,1,0,0,0,0],"split_type":[0,0,0,0,0,0,0,0,0,0,0,0,0,0,0,0,0],"sum_hessian":[9.534445E1,2.326612E0,9.3017845E1,1.3178155E0,1.0087965E0,2.3804545E0,9.063739E1,1.8986853E0,8.87387E1,1.7176127E0,8.702109E1,4.204632E0,8.281646E1,1.3966365E0,2.807995E0,1.5215272E0,8.129493E1],"tree_param":{"num_deleted":"0","num_feature":"5","num_nodes":"17","size_leaf_vector":"1"}},{"base_weights":[-9.370192E-3,-9.547755E-2,-9.871719E-4,1.01836875E-1,-1.0723904E-2,-3.508368E-1,2.7618275E-3,-1.8726322E-1,1.3447849E-2,4.1233134E-1,-1.3938935E-2,1.6343726E-1,1.6698696E-2,4.89965E-4,-4.008908E-1,-1.1816605E-1,3.988203E-3,-1.7677303E-1,-2.7245744E-3],"categories":[],"categories_nodes":[],"categories_segments":[],"categories_sizes":[],"default_left":[0,0,0,0,0,0,0,0,0,0,0,0,0,0,0,0,0,0,0],"id":26,"left_children":[1,-1,3,-1,5,7,9,-1,-1,11,13,-1,-1,15,17,-1,-1,-1,-1],"loss_changes":[2.4808517E-1,0E0,3.165485E-1,0E0,4.263451E-1,4.1140556E-1,6.2270576E-1,0E0,0E0,1.3817257E-1,4.894626E-1,0E0,0E0,4.36873E-1,2.2721428E-1,0E0,0E0,0E0,0E0],"parents":[2147483647,0,0,2,2,4,4,5,5,6,6,9,9,10,10,13,13,14,14],"right_children":[2,-1,4,-1,6,8,10,-1,-1,12,14,-1,-1,16,18,-1,-1,-1,-1],"split_conditions":[1.26E3,-9.547755E-2,1.419E3,1.01836875E-1,1.825E3,5.5E-1,1.956E3,-1.8726322E-1,1.3447849E-2,4.2E-1,9.6E-1,1.6343726E-1,1.6698696E-2,2.191E3,1.5E1,-1.1816605E-1,3.988203E-3,-1.7677303E-1,-2.7245744E-3],"split_indices":[0,0,0,0,0,4,0,0,0,4,4,0,0,0,3,0,0,0,0],"split_type":[0,0,0,0,0,0,0,0,0,0,0,0,0,0,0,0,0,0,0],"sum_hessian":[9.492867E1,1.5315392E0,9.339714E1,1.655329E0,9.1741806E1,2.5448468E0,8.919696E1,1.1633946E0,1.3814521E0,2.5665092E0,8.6630455E1,1.4868741E0,1.0796351E0,8.447908E1,2.151374E0,1.7205895E0,8.275849E1,1.1126091E0,1.038765E0],"tree_param":{"num_deleted":"0","num_feature":"5","num_nodes":"19","size_leaf_vector":"1"}},{"base_weights":[-9.962333E-3,-9.821312E-2,-8.9789514E-4,1.4222966E-1,-2.3987062E-2,-1.4266885E-3,1.8536402E-1,-3.5879168E-1,-3.0081423E-3,4.8442733E-1,-3.1267548E-1,-6.4297956E-1,8.812453E-2,1.6713934E-1,-2.0624818E-2,2.4646848E-1,-6.223242E-2,-1.8491013E-1,-9.1900446E-2,-5.3675618E-2,-2.319466E-1,-1.24617115E-1,4.7718953E-2,1.10012E-1,-1.8308464E-1,-1.1716271E-2,-2.3981659E-1,8.0611624E-2,-2.1110825E-2],"categories":[],"categories_nodes":[],"categories_segments":[],"categories_sizes":[],"default_left":[0,0,0,0,0,0,0,0,0,0,0,0,0,0,0,0,0,0,0,0,0,0,0,0,0,0,0,0,0],"id":27,"left_children":[1,-1,3,5,7,9,-1,11,13,15,17,19,-1,-1,21,-1,-1,-1,23,-1,-1,25,27,-1,-1,-1,-1,-1,-1],"loss_changes":[2.7455547E-1,0E0,3.1364882E-1,9.0180564E-1,5.727179E-1,1.8336794E0,0E0,1.0805991E0,7.8003585E-1,1.2751034E0,4.3871498E-1,8.2968235E-2,0E0,0E0,5.494625E-1,0E0,0E0,0E0,1.5202372E0,0E0,0E0,1.7357303E0,1.24201E0,0E0,0E0,0E0,0E0,0E0,0E0],"parents":[2147483647,0,0,2,2,3,3,4,4,5,5,7,7,8,8,9,9,10,10,11,11,14,14,18,18,21,21,22,22],"right_children":[2,-1,4,6,8,10,-1,12,14,16,18,20,-1,-1,22,-1,-1,-1,24,-1,-1,26,28,-1,-1,-1,-1,-1,-1],"split_conditions":[1.2E-1,-9.821312E-2,2.2E-1,2.6E1,2.6E-1,9E0,1.8536402E-1,3.93E3,2.8E-1,3.038E3,1.6E1,2.3E-1,8.812453E-2,1.6713934E-1,2.363E3,2.4646848E-1,-6.223242E-2,-1.8491013E-1,2.2E1,-5.3675618E-2,-2.319466E-1,2.076E3,4.099E3,1.10012E-1,-1.8308464E-1,-1.1716271E-2,-2.3981659E-1,8.0611624E-2,-2.1110825E-2],"split_indices":[4,0,4,3,4,3,0,1,4,1,3,4,0,0,1,0,0,0,3,0,0,1,0,0,0,0,0,0,0],"split_type":[0,0,0,0,0,0,0,0,0,0,0,0,0,0,0,0,0,0,0,0,0,0,0,0,0,0,0,0,0],"sum_hessian":[9.452715E1,1.6494864E0,9.287766E1,1.218486E1,8.06928E1,1.0124154E1,2.0607057E0,3.8085945E0,7.688421E1,3.7359698E0,6.3881845E0,2.6633358E0,1.1452587E0,1.4105085E0,7.54737E1,2.3859093E0,1.3500606E0,1.9348408E0,4.4533434E0,1.1035944E0,1.5597413E0,2.9604273E1,4.586943E1,2.5181522E0,1.9351912E0,2.721164E1,2.3926332E0,1.5530581E1,3.0338848E1],"tree_param":{"num_deleted":"0","num_feature":"5","num_nodes":"29","size_leaf_vector":"1"}},{"base_weights":[-1.0933102E-2,-1.074847E-1,2.1179548E-2,-4.5921195E-2,-2.011529E-1,2.4669658E-1,-3.5556254E-3,-1.0639219E-1,1.4576499E-1,1.9755138E-1,-4.8817493E-2,-3.528739E-2,-2.0373307E-1,3.1126267E-1,-9.90135E-2,-1.8397804E-1,-2.7451389E-2,1.0585242E-1,-2.7183986E-1,-9.874994E-2,5.1815057E-1,-2.4572249E-1,2.0619586E-2,-5.960239E-2,1.13352895E-1,-2.064547E-1,-1.1381127E-2,1.3327791E-1,-1.3815114E-1,1.8397062E-1,-1.4172325E-2,-1.3732035E-1,1.1356207E-1,1.7855617E-1,-8.24371E-3],"categories":[],"categories_nodes":[],"categories_segments":[],"categories_sizes":[],"default_left":[0,0,0,0,0,0,0,0,0,0,0,0,0,0,0,0,0,0,0,0,0,0,0,0,0,0,0,0,0,0,0,0,0,0,0],"id":28,"left_children":[1,3,5,7,-1,-1,9,11,-1,13,15,17,-1,19,-1,-1,21,23,25,27,29,31,33,-1,-1,-1,-1,-1,-1,-1,-1,-1,-1,-1,-1],"loss_changes":[2.9558718E-1,7.933074E-1,1.4262336E0,7.7544194E-1,0E0,0E0,6.5291053E-1,8.323611E-1,0E0,8.9352113E-1,6.885286E-1,6.8851745E-1,0E0,1.0146871E0,0E0,0E0,6.073552E-1,1.1597836E0,7.202946E-1,1.117863E0,4.4343066E-1,1.5547032E0,1.3418883E0,0E0,0E0,0E0,0E0,0E0,0E0,0E0,0E0,0E0,0E0,0E0,0E0],"parents":[2147483647,0,0,1,1,2,2,3,3,6,6,7,7,9,9,10,10,11,11,13,13,16,16,17,17,18,18,19,19,20,20,21,21,22,22],"right_children":[2,4,6,8,-1,-1,10,12,-1,14,16,18,-1,20,-1,-1,22,24,26,28,30,32,34,-1,-1,-1,-1,-1,-1,-1,-1,-1,-1,-1,-1],"split_conditions":[3.482E3,3.255E3,3.539E3,3.105E3,-2.011529E-1,2.4669658E-1,1.291E3,2.997E3,1.4576499E-1,2.5E1,1.349E3,5.8E-1,-2.0373307E-1,1E1,-9.90135E-2,-1.8397804E-1,4.506E3,3.8E-1,2.013E3,7.37E2,8.208E3,2.4E1,4.696E3,-5.960239E-2,1.13352895E-1,-2.064547E-1,-1.1381127E-2,1.3327791E-1,-1.3815114E-1,1.8397062E-1,-1.4172325E-2,-1.3732035E-1,1.1356207E-1,1.7855617E-1,-8.24371E-3],"split_indices":[0,0,0,0,0,0,1,0,0,3,1,4,0,3,0,0,0,4,2,1,0,3,0,0,0,0,0,0,0,0,0,0,0,0,0],"split_type":[0,0,0,0,0,0,0,0,0,0,0,0,0,0,0,0,0,0,0,0,0,0,0,0,0,0,0,0,0,0,0,0,0,0,0],"sum_hessian":[9.3600266E1,2.2775408E1,7.082486E1,2.150547E1,1.2699364E0,1.155472E0,6.966939E1,2.0028042E1,1.4774289E0,1.2181234E1,5.748815E1,1.876048E1,1.2675606E0,1.0358692E1,1.8225418E0,1.086368E0,5.6401783E1,1.2095927E1,6.664554E0,3.649253E0,6.7094393E0,9.437627E0,4.6964157E1,5.8338094E0,6.2621174E0,1.6987102E0,4.965844E0,1.3678994E0,2.2813535E0,5.671084E0,1.0383554E0,7.244135E0,2.1934922E0,2.749181E0,4.4214977E1],"tree_param":{"num_deleted":"0","num_feature":"5","num_nodes":"35","size_leaf_vector":"1"}},{"base_weights":[-1.114313E-2,2.1522579E-1,-2.4609175E-2,4.8656353E-1,-1.0788394E-1,-7.951271E-2,5.7943102E-2,-6.913186E-2,2.3955913E-1,4.6806796E-3,-5.843872E-1,-1.1487706E-1,1.8683161E-1,-8.2006976E-2,1.195372E-1,-7.69408E-1,1.835253E-2,1.4909679E-1,-4.103057E-1,6.941757E-1,3.9268088E-2,6.4315535E-2,-3.1809184E-1,4.3811387E-1,-5.73028E-2,-2.6840204E-1,-9.7257264E-2,-2.4784967E-1,3.2457396E-1,1.245624E-1,-5.914328E-1,3.6130285E-1,-1.0737255E-1,1.8233584E-1,-4.867797E-1,-2.8698858E-2,1.0114299E-1,1.5992414E-2,-1.9792062E-1,1.9523636E-1,-3.6292005E-2,4.4763193E-2,-1.1572093E-1,2.0001546E-2,-1.2565522E-1,2.184604E-1,-9.831159E-3,-2.580582E-1,-6.734725E-2,2.8747246E-3,1.955103E-1,-2.1705823E-1,-2.7744866E-3],"categories":[],"categories_nodes":[],"categories_segments":[],"categories_sizes":[],"default_left":[0,0,0,0,0,0,0,0,0,0,0,0,0,0,0,0,0,0,0,0,0,0,0,0,0,0,0,0,0,0,0,0,0,0,0,0,0,0,0,0,0,0,0,0,0,0,0,0,0,0,0,0,0],"id":29,"left_children":[1,3,5,7,-1,9,11,-1,-1,13,15,17,19,21,23,25,-1,27,29,31,33,35,37,39,41,-1,-1,43,45,-1,47,-1,-1,49,51,-1,-1,-1,-1,-1,-1,-1,-1,-1,-1,-1,-1,-1,-1,-1,-1,-1,-1],"loss_changes":[2.9026473E-1,1.0096767E0,4.0859476E-1,1.0922599E0,0E0,2.2960966E0,8.2736796E-1,0E0,0E0,4.8008755E-1,9.690659E-1,1.3148235E0,1.552789E0,9.707962E-1,1.1925644E0,4.8665285E-2,0E0,7.228833E-1,1.4196631E0,2.9512727E0,1.3990206E0,8.098519E-1,1.3921782E0,9.720113E-1,1.021366E0,0E0,0E0,2.1048722E-1,1.0088019E0,0E0,4.8262453E-1,0E0,0E0,1.1625654E0,4.449591E-1,0E0,0E0,0E0,0E0,0E0,0E0,0E0,0E0,0E0,0E0,0E0,0E0,0E0,0E0,0E0,0E0,0E0,0E0],"parents":[2147483647,0,0,1,1,2,2,3,3,5,5,6,6,9,9,10,10,11,11,12,12,13,13,14,14,15,15,17,17,18,18,19,19,20,20,21,21,22,22,23,23,24,24,27,27,28,28,30,30,33,33,34,34],"right_children":[2,4,6,8,-1,10,12,-1,-1,14,16,18,20,22,24,26,-1,28,30,32,34,36,38,40,42,-1,-1,44,46,-1,48,-1,-1,50,52,-1,-1,-1,-1,-1,-1,-1,-1,-1,-1,-1,-1,-1,-1,-1,-1,-1,-1],"split_conditions":[2.006E3,6.5E-1,6.6E-1,4.8E-1,-1.0788394E-1,5.8E-1,2.554E3,-6.913186E-2,2.3955913E-1,1.8E1,8.546E3,1.435E3,2.876E3,1.1E1,2.2E1,2.2E1,1.835253E-2,1E1,7.1E-1,1.8E1,7.694E3,3.8E3,2.387E3,3.529E3,2.015E3,-2.6840204E-1,-9.7257264E-2,7.37E2,1.8E1,1.245624E-1,1.89E3,3.6130285E-1,-1.0737255E-1,6.779E3,8.987E3,-2.8698858E-2,1.0114299E-1,1.5992414E-2,-1.9792062E-1,1.9523636E-1,-3.6292005E-2,4.4763193E-2,-1.1572093E-1,2.0001546E-2,-1.2565522E-1,2.184604E-1,-9.831159E-3,-2.580582E-1,-6.734725E-2,2.8747246E-3,1.955103E-1,-2.1705823E-1,-2.7744866E-3],"split_indices":[2,4,4,4,0,4,1,0,0,3,0,1,1,3,3,3,0,3,4,3,0,1,1,1,2,0,0,1,3,0,1,0,0,0,0,0,0,0,0,0,0,0,0,0,0,0,0,0,0,0,0,0,0],"split_type":[0,0,0,0,0,0,0,0,0,0,0,0,0,0,0,0,0,0,0,0,0,0,0,0,0,0,0,0,0,0,0,0,0,0,0,0,0,0,0,0,0,0,0,0,0,0,0,0,0,0,0,0,0],"sum_hessian":[9.2484505E1,4.3514953E0,8.813301E1,3.0604532E0,1.2910421E0,5.2952435E1,3.5180573E1,1.0071112E0,2.0533419E0,4.6233257E1,6.7191772E0,1.5075414E1,2.010516E1,2.6510519E1,1.972274E1,5.0733056E0,1.645872E0,8.223133E0,6.852281E0,3.6954463E0,1.6409712E1,1.681584E1,9.694678E0,6.51269E0,1.321005E1,3.1714664E0,1.9018389E0,2.39438E0,5.828753E0,1.0004094E0,5.851872E0,2.3912044E0,1.304242E0,1.3414731E1,2.9949818E0,1.1009531E1,5.806309E0,5.0494256E0,4.6452527E0,4.5991707E0,1.9135196E0,8.445411E0,4.7646394E0,1.058181E0,1.336199E0,2.249776E0,3.578977E0,2.6019151E0,3.2499568E0,1.0551563E1,2.863168E0,1.6578978E0,1.3370838E0],"tree_param":{"num_deleted":"0","num_feature":"5","num_nodes":"53","size_leaf_vector":"1"}},{"base_weights":[-1.3127793E-2,-8.913849E-2,-2.5678093E-3,2.2428274E-1,-2.72461E-2,4.6319064E-1,-1.7571017E-1,-2.7765065E-1,1.4045273E-2,-4.2421043E-2,6.7020845E-1,-1.7834665E-1,6.4581886E-2,-2.424913E-1,-1.0459235E-1,4.2730245E-1,-3.1086538E-2,7.9370216E-2,2.6331782E-1,2.0462844E-1,-3.9266148E-1,-4.2595327E-2,6.0055184E-1,-1.9823515E-1,2.8911105E-3,-1.4610928E-1,2.0806472E-1,2.3337083E-2,-2.1508195E-1,2.2738254E-1,3.3572966E-3,7.445776E-2,-1.2715462E-2],"categories":[],"categories_nodes":[],"categories_segments":[],"categories_sizes":[],"default_left":[0,0,0,0,0,0,0,0,0,0,0,0,0,0,0,0,0,0,0,0,0,0,0,0,0,0,0,0,0,0,0,0,0],"id":30,"left_children":[1,-1,3,5,7,9,11,13,15,-1,17,-1,-1,-1,19,21,23,-1,-1,25,27,-1,29,-1,31,-1,-1,-1,-1,-1,-1,-1,-1],"loss_changes":[2.7341592E-1,0E0,5.052171E-1,9.2762685E-1,8.444839E-1,8.230983E-1,7.8887045E-1,9.7672683E-1,1.3326881E0,0E0,1.4734316E-1,0E0,0E0,0E0,9.5891976E-1,7.789093E-1,1.3863949E0,0E0,0E0,2.168711E0,8.870185E-1,0E0,5.094085E-1,0E0,7.0345646E-1,0E0,0E0,0E0,0E0,0E0,0E0,0E0,0E0],"parents":[2147483647,0,0,2,2,3,3,4,4,5,5,6,6,7,7,8,8,10,10,14,14,15,15,16,16,19,19,20,20,22,22,24,24],"right_children":[2,-1,4,6,8,10,12,14,16,-1,18,-1,-1,-1,20,22,24,-1,-1,26,28,-1,30,-1,32,-1,-1,-1,-1,-1,-1,-1,-1],"split_conditions":[5.89E2,-8.913849E-2,4E0,6.063E3,7E0,3.8E-1,3.33E3,3.433E3,9E0,-4.2421043E-2,3E0,-1.7834665E-1,6.4581886E-2,-2.424913E-1,3.136E3,1.463E3,1E1,7.9370216E-2,2.6331782E-1,1.816E3,2.012E3,-4.2595327E-2,4.241E3,-1.9823515E-1,1.3E1,-1.4610928E-1,2.0806472E-1,2.3337083E-2,-2.1508195E-1,2.2738254E-1,3.3572966E-3,7.445776E-2,-1.2715462E-2],"split_indices":[1,0,3,0,3,4,1,0,3,0,3,0,0,0,1,1,3,0,0,1,2,0,1,0,3,0,0,0,0,0,0,0,0],"split_type":[0,0,0,0,0,0,0,0,0,0,0,0,0,0,0,0,0,0,0,0,0,0,0,0,0,0,0,0,0,0,0,0,0],"sum_hessian":[9.0422195E1,2.2687652E0,8.815343E1,7.855447E0,8.029798E1,4.8190975E0,3.0363493E0,1.0556386E1,6.974159E1,1.3100513E0,3.5090463E0,1.214747E0,1.8216022E0,1.6933405E0,8.863045E0,6.032854E0,6.370874E1,1.9575257E0,1.5515206E0,4.414289E0,4.448756E0,1.449698E0,4.583156E0,2.317199E0,6.139154E1,1.8297163E0,2.5845726E0,2.125405E0,2.3233514E0,3.3914282E0,1.1917276E0,8.867331E0,5.252421E1],"tree_param":{"num_deleted":"0","num_feature":"5","num_nodes":"33","size_leaf_vector":"1"}},{"base_weights":[-1.3654766E-2,-7.4315265E-2,3.2595325E-2,-1.8234295E-1,9.022054E-2,2.1571362E-1,-2.3774665E-2,-2.7374136E-1,1.3123795E-1,1.5462595E-1,-1.1503591E-1,-1.1222388E-1,3.404343E-1,-7.1600184E-2,3.1115118E-1,6.074118E-4,-4.4051442E-1,-1.0108243E-1,4.0963814E-1,-7.445098E-2,3.0143967E-1,2.1018751E-1,2.0273088E-1,1.6071688E-1,-1.5359317E-1,-6.203237E-2,6.1550295E-1,2.4190241E-1,-2.5902072E-1,-6.8597995E-2,-5.8669055E-1,1.8938328E-1,-3.1865373E-2,-1.1603875E-1,6.4432465E-2,6.733887E-1,8.266334E-3,-9.6258655E-2,3.1705633E-1,3.156511E-1,-1.1289764E-1,-2.7529714E-1,1.0175E-1,2.7067506E-1,9.7514427E-4,1.3380866E-1,-7.842994E-2,-1.7415357E-1,9.215544E-2,5.5453327E-2,-1.1091035E-1,-2.5794722E-2,-2.0114201E-1,-8.273245E-2,7.971542E-2,2.734965E-1,8.206777E-3,1.1616832E-1,-9.068864E-2,1.3146864E-1,-5.92127E-2,-1.0382061E-1,1.5348072E-1,8.841076E-3,-1.5897118E-1,-7.9906225E-2,1.17560245E-1],"categories":[],"categories_nodes":[],"categories_segments":[],"categories_sizes":[],"default_left":[0,0,0,0,0,0,0,0,0,0,0,0,0,0,0,0,0,0,0,0,0,0,0,0,0,0,0,0,0,0,0,0,0,0,0,0,0,0,0,0,0,0,0,0,0,0,0,0,0,0,0,0,0,0,0,0,0,0,0,0,0,0,0,0,0,0,0],"id":31,"left_children":[1,3,5,7,9,11,13,15,17,19,-1,-1,21,23,25,27,29,-1,31,33,35,-1,37,39,41,-1,43,45,47,49,51,-1,-1,-1,53,55,57,-1,59,61,-1,63,65,-1,-1,-1,-1,-1,-1,-1,-1,-1,-1,-1,-1,-1,-1,-1,-1,-1,-1,-1,-1,-1,-1,-1,-1],"loss_changes":[2.5647342E-1,7.181597E-1,5.426597E-1,7.284464E-1,5.570435E-1,1.0362769E0,6.7449933E-1,8.711275E-1,9.369021E-1,5.294597E-1,0E0,0E0,3.8982046E-1,7.188673E-1,9.587549E-1,5.760213E-1,6.03384E-1,0E0,5.5810434E-1,3.1513548E-1,1.0178814E0,0E0,6.503215E-1,9.504725E-1,8.809828E-1,0E0,6.2451196E-1,6.0611194E-1,9.8475987E-1,4.0965843E-1,2.9332304E-1,0E0,0E0,0E0,4.4910124E-1,6.099403E-1,8.5391796E-1,0E0,5.867398E-1,1.2534378E0,0E0,1.4789126E0,1.1284977E0,0E0,0E0,0E0,0E0,0E0,0E0,0E0,0E0,0E0,0E0,0E0,0E0,0E0,0E0,0E0,0E0,0E0,0E0,0E0,0E0,0E0,0E0,0E0,0E0],"parents":[2147483647,0,0,1,1,2,2,3,3,4,4,5,5,6,6,7,7,8,8,9,9,12,12,13,13,14,14,15,15,16,16,18,18,19,19,20,20,22,22,23,23,24,24,26,26,27,27,28,28,29,29,30,30,34,34,35,35,36,36,38,38,39,39,41,41,42,42],"right_children":[2,4,6,8,10,12,14,16,18,20,-1,-1,22,24,26,28,30,-1,32,34,36,-1,38,40,42,-1,44,46,48,50,52,-1,-1,-1,54,56,58,-1,60,62,-1,64,66,-1,-1,-1,-1,-1,-1,-1,-1,-1,-1,-1,-1,-1,-1,-1,-1,-1,-1,-1,-1,-1,-1,-1,-1],"split_conditions":[2.013E3,2E1,2.015E3,8.4E-1,8.4E-1,7E0,8.858E3,8E0,8E0,3.7E-1,-1.1503591E-1,-1.1222388E-1,2.1E-1,3.7E-1,4.5E-1,4.943E3,1.745E3,-1.0108243E-1,9.2E-1,2.3E1,2.3E1,2.1018751E-1,3.8E-1,2.4E1,2.021E3,-6.203237E-2,6.3E-1,6E0,6E0,2.01E3,2.006E3,1.8938328E-1,-3.1865373E-2,-1.1603875E-1,1.9E-1,6.5E-1,4.099E3,-9.6258655E-2,2.4E1,1.7E-1,-1.1289764E-1,4.44E3,6.9E-1,2.7067506E-1,9.7514427E-4,1.3380866E-1,-7.842994E-2,-1.7415357E-1,9.215544E-2,5.5453327E-2,-1.1091035E-1,-2.5794722E-2,-2.0114201E-1,-8.273245E-2,7.971542E-2,2.734965E-1,8.206777E-3,1.1616832E-1,-9.068864E-2,1.3146864E-1,-5.92127E-2,-1.0382061E-1,1.5348072E-1,8.841076E-3,-1.5897118E-1,-7.9906225E-2,1.17560245E-1],"split_indices":[2,3,2,4,4,3,0,3,3,4,0,0,4,4,4,0,1,0,4,3,3,0,4,3,2,0,4,3,3,2,2,0,0,0,4,4,0,0,3,4,0,0,4,0,0,0,0,0,0,0,0,0,0,0,0,0,0,0,0,0,0,0,0,0,0,0,0],"split_type":[0,0,0,0,0,0,0,0,0,0,0,0,0,0,0,0,0,0,0,0,0,0,0,0,0,0,0,0,0,0,0,0,0,0,0,0,0,0,0,0,0,0,0,0,0,0,0,0,0,0,0,0,0,0,0,0,0,0,0,0,0,0,0,0,0,0,0],"sum_hessian":[8.9552925E1,3.847856E1,5.1074364E1,2.3162655E1,1.53159075E1,1.135637E1,3.9717995E1,1.8033527E1,5.1291275E0,1.4075606E1,1.240301E0,1.6333E0,9.72307E0,3.5443134E1,4.2748585E0,7.1945477E0,1.083898E1,1.8342437E0,3.294884E0,5.6900983E0,8.385509E0,1.5585216E0,8.164549E0,8.995463E0,2.6447672E1,1.7009319E0,2.5739267E0,3.7643154E0,3.4302323E0,3.472689E0,7.3662915E0,2.1481683E0,1.1467158E0,1.2019372E0,4.488161E0,3.1245255E0,5.2609825E0,1.1394544E0,7.0250945E0,7.301311E0,1.6941526E0,1.7857922E1,8.589749E0,1.4303622E0,1.1435645E0,2.759188E0,1.0051275E0,2.1718118E0,1.2584205E0,2.0952222E0,1.3774664E0,1.3463575E0,6.0199337E0,1.5307921E0,2.9573689E0,1.9822749E0,1.1422507E0,2.258364E0,3.0026188E0,5.805712E0,1.2193824E0,1.4930947E0,5.808216E0,8.530755E0,9.327167E0,3.8221166E0,4.767633E0],"tree_param":{"num_deleted":"0","num_feature":"5","num_nodes":"67","size_leaf_vector":"1"}},{"base_weights":[-1.3531195E-2,-1.093608E-1,1.8483086E-2,-4.0471804E-1,-2.0512406E-2,2.0932087E-1,-3.4987552E-3,3.567673E-2,-2.2717974E-1,4.3687135E-1,-1.2572964E-1,-1.6708863E-1,3.2654684E-2,-8.5698135E-2,1.03015974E-1,-1.9771881E-2,1.980144E-1,-1.5199905E-2,-4.0938795E-1,4.822941E-2,-4.5627996E-1,2.4080737E-1,-1.3074249E-2,-1.7155987E-1,1.618748E-1,-2.6114346E-2,-1.7488196E-1,-2.7173355E-1,2.5430083E-1,-1.42036E-2,-1.9360375E-1,2.3064287E-1,-2.5020456E-2,-6.2707625E-2,3.389218E-1,-4.4360712E-2,1.351059E-1,-1.9659123E-1,7.7783465E-2,1.8373027E-1,-8.300798E-2,1.6212459E-1,-5.808408E-2,-1.8895426E-1,-2.4066942E-3,-6.930129E-2,2.3867847E-1],"categories":[],"categories_nodes":[],"categories_segments":[],"categories_sizes":[],"default_left":[0,0,0,0,0,0,0,0,0,0,0,0,0,0,0,0,0,0,0,0,0,0,0,0,0,0,0,0,0,0,0,0,0,0,0,0,0,0,0,0,0,0,0,0,0,0,0],"id":32,"left_children":[1,3,5,7,9,-1,11,13,-1,15,17,19,21,-1,-1,-1,-1,23,25,27,29,31,33,-1,35,-1,-1,37,39,-1,-1,-1,41,43,45,-1,-1,-1,-1,-1,-1,-1,-1,-1,-1,-1,-1],"loss_changes":[2.73399E-1,5.767807E-1,1.0052388E0,8.192355E-1,9.3046474E-1,0E0,3.961026E-1,4.168395E-1,0E0,4.5036167E-1,4.818497E-1,7.766107E-1,5.260252E-1,0E0,0E0,0E0,0E0,1.2991568E0,1.912899E-1,5.86757E-1,3.7671912E-1,1.4152082E0,8.246681E-1,0E0,9.66037E-1,0E0,0E0,8.9480627E-1,1.1758103E0,0E0,0E0,0E0,8.2758194E-1,1.2710946E0,1.7035334E0,0E0,0E0,0E0,0E0,0E0,0E0,0E0,0E0,0E0,0E0,0E0,0E0],"parents":[2147483647,0,0,1,1,2,2,3,3,4,4,6,6,7,7,9,9,10,10,11,11,12,12,17,17,18,18,19,19,20,20,21,21,22,22,24,24,27,27,28,28,32,32,33,33,34,34],"right_children":[2,4,6,8,10,-1,12,14,-1,16,18,20,22,-1,-1,-1,-1,24,26,28,30,32,34,-1,36,-1,-1,38,40,-1,-1,-1,42,44,46,-1,-1,-1,-1,-1,-1,-1,-1,-1,-1,-1,-1],"split_conditions":[3.482E3,1.474E3,3.539E3,2.218E3,1.89E3,2.0932087E-1,2.008E3,1.876E3,-2.2717974E-1,2.015E3,2.019E3,2.007E3,2.01E3,-8.5698135E-2,1.03015974E-1,-1.9771881E-2,1.980144E-1,3.6E-1,1.4E1,4.8E-1,6.1E-1,5.432E3,2.7E1,-1.7155987E-1,1.8E1,-2.6114346E-2,-1.7488196E-1,1.9E1,1.6E1,-1.42036E-2,-1.9360375E-1,2.3064287E-1,1.213E3,3.914E3,6.6E-1,-4.4360712E-2,1.351059E-1,-1.9659123E-1,7.7783465E-2,1.8373027E-1,-8.300798E-2,1.6212459E-1,-5.808408E-2,-1.8895426E-1,-2.4066942E-3,-6.930129E-2,2.3867847E-1],"split_indices":[0,1,0,0,1,0,2,0,0,2,2,2,2,0,0,0,0,4,3,4,4,0,3,0,3,0,0,3,3,0,0,0,1,0,4,0,0,0,0,0,0,0,0,0,0,0,0],"split_type":[0,0,0,0,0,0,0,0,0,0,0,0,0,0,0,0,0,0,0,0,0,0,0,0,0,0,0,0,0,0,0,0,0,0,0,0,0,0,0,0,0,0,0,0,0,0,0],"sum_hessian":[8.7456696E1,2.1295635E1,6.616106E1,4.1025248E0,1.719311E1,1.110309E0,6.505075E1,2.223625E0,1.8788999E0,2.6259418E0,1.4567168E1,1.1118636E1,5.3932114E1,1.1227788E0,1.100846E0,1.0239199E0,1.6020217E0,1.1240718E1,3.3264508E0,6.8509636E0,4.267673E0,8.945822E0,4.4986294E1,2.1746848E0,9.066033E0,1.6897057E0,1.636745E0,2.559007E0,4.291957E0,1.7446179E0,2.5230548E0,2.3620505E0,6.583771E0,4.014717E1,4.8391204E0,4.606921E0,4.4591117E0,1.3498737E0,1.2091333E0,2.4715955E0,1.8203611E0,1.0056233E0,5.578148E0,2.6057136E0,3.754146E1,2.3724594E0,2.466661E0],"tree_param":{"num_deleted":"0","num_feature":"5","num_nodes":"47","size_leaf_vector":"1"}},{"base_weights":[-1.1808058E-2,1.0647379E-1,-3.325446E-2,2.4682534E-1,-2.8606495E-1,-1.4883503E-1,4.0411665E-3,5.577207E-1,7.600686E-2,-2.0182386E-1,4.2816546E-2,-5.174705E-1,8.831804E-3,5.7702714E-1,-3.236526E-2,3.0044006E-2,2.1185355E-1,-1.3254617E-1,3.0471277E-1,5.601118E-2,-2.5055096E-1,3.5306564E-1,-2.2382772E-1,-8.152534E-3,2.848577E-1,-1.4501394E-1,-9.081428E-3,4.3513466E-2,1.9898587E-1,5.9607106E-1,-2.9039588E-2,-3.3572286E-1,9.145969E-2,-4.3167055E-2,3.0146527E-1,1.2993662E-1,-6.555974E-2,2.4461638E-2,2.3335503E-1,2.7856496E-3,-1.530106E-1,-2.4682828E-3,-1.589371E-1,2.0899634E-1,7.005499E-3],"categories":[],"categories_nodes":[],"categories_segments":[],"categories_sizes":[],"default_left":[0,0,0,0,0,0,0,0,0,0,0,0,0,0,0,0,0,0,0,0,0,0,0,0,0,0,0,0,0,0,0,0,0,0,0,0,0,0,0,0,0,0,0,0,0],"id":33,"left_children":[1,3,5,7,9,11,13,15,17,-1,-1,19,21,23,25,-1,-1,-1,27,-1,-1,29,31,-1,-1,-1,33,35,-1,37,-1,39,-1,41,43,-1,-1,-1,-1,-1,-1,-1,-1,-1,-1],"loss_changes":[2.2408445E-1,8.1889737E-1,3.2113418E-1,5.174471E-1,7.6593435E-1,1.060457E0,1.2117106E0,1.7249537E-1,1.0774956E0,0E0,0E0,1.3772191E0,1.1768698E0,8.0674374E-1,5.7026076E-1,0E0,0E0,0E0,5.437868E-1,0E0,0E0,7.04464E-1,6.224377E-1,0E0,0E0,0E0,5.7460374E-1,5.650662E-1,0E0,3.0892408E-1,0E0,4.697162E-1,0E0,8.233466E-1,5.742171E-1,0E0,0E0,0E0,0E0,0E0,0E0,0E0,0E0,0E0,0E0],"parents":[2147483647,0,0,1,1,2,2,3,3,4,4,5,5,6,6,7,7,8,8,11,11,12,12,13,13,14,14,18,18,21,21,22,22,26,26,27,27,29,29,31,31,33,33,34,34],"right_children":[2,4,6,8,10,12,14,16,18,-1,-1,20,22,24,26,-1,-1,-1,28,-1,-1,30,32,-1,-1,-1,34,36,-1,38,-1,40,-1,42,44,-1,-1,-1,-1,-1,-1,-1,-1,-1,-1],"split_conditions":[2.2E-1,3.52E3,8E0,9E0,2.013E3,1.88E3,9E0,3.105E3,1.6E1,-2.0182386E-1,4.2816546E-2,7.37E2,3.136E3,2.014E3,1E1,3.0044006E-2,2.1185355E-1,-1.3254617E-1,3.029E3,5.601118E-2,-2.5055096E-1,6.401E3,4.858E3,-8.152534E-3,2.848577E-1,-1.4501394E-1,9.12E3,1.456E3,1.9898587E-1,5.6E-1,-2.9039588E-2,4E0,9.145969E-2,8.513E3,1.3E1,1.2993662E-1,-6.555974E-2,2.4461638E-2,2.3335503E-1,2.7856496E-3,-1.530106E-1,-2.4682828E-3,-1.589371E-1,2.0899634E-1,7.005499E-3],"split_indices":[4,1,3,3,2,1,3,0,3,0,0,1,1,2,3,0,0,0,1,0,0,0,1,0,0,0,0,1,0,4,0,3,0,0,3,0,0,0,0,0,0,0,0,0,0],"split_type":[0,0,0,0,0,0,0,0,0,0,0,0,0,0,0,0,0,0,0,0,0,0,0,0,0,0,0,0,0,0,0,0,0,0,0,0,0,0,0,0,0,0,0,0,0],"sum_hessian":[8.5940506E1,1.2582189E1,7.335832E1,9.541758E0,3.040431E0,1.7166864E1,5.6191456E1,2.5803828E0,6.9613748E0,1.2995448E0,1.7408863E0,4.459114E0,1.270775E1,2.4698524E0,5.3721603E1,1.0423251E0,1.5380577E0,1.8471954E0,5.1141796E0,1.5145246E0,2.9445894E0,4.9162865E0,7.7914643E0,1.2955242E0,1.1743281E0,1.6671969E0,5.2054405E1,3.607606E0,1.5065736E0,2.9810147E0,1.9352717E0,6.731725E0,1.059739E0,4.7681843E1,4.3725653E0,1.1881791E0,2.4194267E0,1.1563847E0,1.8246301E0,2.57731E0,4.154415E0,4.5436424E1,2.2454178E0,1.1845028E0,3.1880624E0],"tree_param":{"num_deleted":"0","num_feature":"5","num_nodes":"45","size_leaf_vector":"1"}},{"base_weights":[-5.814628E-3,-1.04123E-1,2.674131E-2,3.351699E-2,-3.2824883E-1,1.8416032E-1,6.871306E-3,-1.3586147E-1,4.241842E-1,4.2566556E-2,-5.40765E-1,-1.0335835E-1,2.2127833E-2,1.3954942E-1,-4.1840178E-1,7.836524E-1,-9.7538E-2,9.986215E-2,-7.4192345E-2,-2.1558574E-1,-2.2695747E-1,-1.3849504E-1,5.5485338E-2,-2.955915E-1,4.5175567E-1,-2.2436136E-1,8.2309924E-2,2.6621828E-2,3.324138E-1,-1.3343485E-1,5.3631697E-2,8.3811744E-4,-1.5897068E-1,2.4928726E-1,1.2189865E-2,5.439436E-2,-1.8432972E-1,1.906234E-1,1.5077711E-3,-7.3291644E-2,8.682426E-2,1.8899709E-1,1.3680119E-2,5.68065E-2,-1.7021269E-2],"categories":[],"categories_nodes":[],"categories_segments":[],"categories_sizes":[],"default_left":[0,0,0,0,0,0,0,0,0,0,0,0,0,0,0,0,0,0,0,0,0,0,0,0,0,0,0,0,0,0,0,0,0,0,0,0,0,0,0,0,0,0,0,0,0],"id":34,"left_children":[1,3,5,7,9,-1,11,13,15,17,19,-1,21,23,25,27,-1,-1,-1,29,-1,31,33,35,37,-1,-1,-1,-1,-1,-1,39,-1,41,43,-1,-1,-1,-1,-1,-1,-1,-1,-1,-1],"loss_changes":[2.7601078E-1,6.7246586E-1,7.5323504E-1,9.966911E-1,6.73209E-1,0E0,3.4973386E-1,8.876497E-1,1.4762033E0,4.1328454E-1,2.10006E-1,0E0,3.404013E-1,9.6854883E-1,1.4629321E0,6.5858793E-1,0E0,0E0,0E0,3.976379E-1,0E0,5.9840524E-1,4.3439555E-1,5.937553E-1,3.2287228E-1,0E0,0E0,0E0,0E0,0E0,0E0,7.133642E-1,0E0,7.054909E-1,5.4395473E-1,0E0,0E0,0E0,0E0,0E0,0E0,0E0,0E0,0E0,0E0],"parents":[2147483647,0,0,1,1,2,2,3,3,4,4,6,6,7,7,8,8,9,9,10,10,12,12,13,13,14,14,15,15,19,19,21,21,22,22,23,23,24,24,31,31,33,33,34,34],"right_children":[2,4,6,8,10,-1,12,14,16,18,20,-1,22,24,26,28,-1,-1,-1,30,-1,32,34,36,38,-1,-1,-1,-1,-1,-1,40,-1,42,44,-1,-1,-1,-1,-1,-1,-1,-1,-1,-1],"split_conditions":[3.482E3,5.8E-1,3.539E3,5.1E-1,1.4E1,1.8416032E-1,2E0,2.409E3,3.167E3,1.846E3,2.645E3,-1.0335835E-1,2.008E3,1.768E3,3.723E3,1.908E3,-9.7538E-2,9.986215E-2,-7.4192345E-2,2.028E3,-2.2695747E-1,3.93E3,2.01E3,2.9E-1,1.9E1,-2.2436136E-1,8.2309924E-2,2.6621828E-2,3.324138E-1,-1.3343485E-1,5.3631697E-2,2.554E3,-1.5897068E-1,5.432E3,9E0,5.439436E-2,-1.8432972E-1,1.906234E-1,1.5077711E-3,-7.3291644E-2,8.682426E-2,1.8899709E-1,1.3680119E-2,5.68065E-2,-1.7021269E-2],"split_indices":[0,4,0,4,3,0,3,0,1,0,0,0,2,0,1,1,0,0,0,0,0,1,2,4,3,0,0,0,0,0,0,1,0,0,3,0,0,0,0,0,0,0,0,0,0],"split_type":[0,0,0,0,0,0,0,0,0,0,0,0,0,0,0,0,0,0,0,0,0,0,0,0,0,0,0,0,0,0,0,0,0,0,0,0,0,0,0,0,0,0,0,0,0],"sum_hessian":[8.436935E1,2.0442215E1,6.3927135E1,1.3191509E1,7.2507052E0,1.114067E0,6.281307E1,9.656883E0,3.5346258E0,2.9328804E0,4.317825E0,1.7156097E0,6.1097458E1,5.146417E0,4.510466E0,2.357721E0,1.1769047E0,1.3912321E0,1.5416481E0,2.5196164E0,1.7982085E0,9.9645195E0,5.113294E1,2.1721609E0,2.9742563E0,3.0028288E0,1.5076374E0,1.1556507E0,1.2020704E0,1.5126268E0,1.0069896E0,8.084469E0,1.8800507E0,8.468389E0,4.266455E1,1.043171E0,1.1289899E0,1.8084289E0,1.1658274E0,4.4541264E0,3.6303425E0,2.22214E0,6.2462487E0,1.1460444E1,3.1204105E1],"tree_param":{"num_deleted":"0","num_feature":"5","num_nodes":"45","size_leaf_vector":"1"}},{"base_weights":[-4.6824403E-3,-3.4483206E-2,9.751613E-2,-6.719536E-3,-2.1197367E-1,1.7912197E-1,-1.4645652E-1,-4.339213E-2,1.9198585E-1,4.0637115E-1,5.9698117E-3,2.5641257E-2,-1.703028E-1,-2.7880225E-1,6.5442026E-1,-1.0103641E-1,7.065049E-1,-3.7627283E-1,1.5783264E-1,6.207936E-1,-2.8366692E-2,-5.404549E-1,-5.9090078E-2,-1.891952E-1,7.942145E-2,1.7115157E-2,2.3788746E-1,8.631589E-2,-1.6932435E-1,3.0733207E-1,-1.2194761E-3,5.5525865E-4,-1.7922065E-1,-1.0981443E-1,3.782122E-1,5.349835E-2,2.2844766E-1,-2.968572E-2,7.5321876E-2,-2.2530018E-1,-3.4786027E-2,9.909224E-2,-9.769469E-2,1.3891251E-1,-1.2772198E-1,-1.0997089E-1,4.7857728E-2,1.8336229E-1,-2.1171656E-2],"categories":[],"categories_nodes":[],"categories_segments":[],"categories_sizes":[],"default_left":[0,0,0,0,0,0,0,0,0,0,0,0,0,0,0,0,0,0,0,0,0,0,0,0,0,0,0,0,0,0,0,0,0,0,0,0,0,0,0,0,0,0,0,0,0,0,0,0,0],"id":35,"left_children":[1,3,5,7,-1,9,-1,11,13,15,17,19,21,23,25,27,29,31,33,35,37,39,41,-1,43,-1,-1,-1,-1,-1,-1,-1,-1,45,47,-1,-1,-1,-1,-1,-1,-1,-1,-1,-1,-1,-1,-1,-1],"loss_changes":[2.590996E-1,1.2221532E0,1.006033E0,4.7580987E-1,0E0,6.901063E-1,0E0,4.8598647E-1,2.3986068E0,1.2281935E0,6.981408E-1,1.1900017E0,7.707276E-1,7.742411E-1,4.044726E-1,8.285685E-1,1.1107018E0,2.8741986E-1,5.4758924E-1,5.5838227E-2,7.0328736E-1,3.0457544E-1,1.7803941E0,0E0,9.2095363E-1,0E0,0E0,0E0,0E0,0E0,0E0,0E0,0E0,3.7999567E-1,5.586674E-1,0E0,0E0,0E0,0E0,0E0,0E0,0E0,0E0,0E0,0E0,0E0,0E0,0E0,0E0],"parents":[2147483647,0,0,1,1,2,2,3,3,5,5,7,7,8,8,9,9,10,10,11,11,12,12,13,13,14,14,15,15,16,16,17,17,18,18,19,19,20,20,21,21,22,22,24,24,33,33,34,34],"right_children":[2,4,6,8,-1,10,-1,12,14,16,18,20,22,24,26,28,30,32,34,36,38,40,42,-1,44,-1,-1,-1,-1,-1,-1,-1,-1,46,48,-1,-1,-1,-1,-1,-1,-1,-1,-1,-1,-1,-1,-1,-1],"split_conditions":[7.905E3,7.694E3,4.645E3,6.855E3,-2.1197367E-1,5E-1,-1.4645652E-1,3.529E3,3.293E3,1.7E1,8.483E3,1.5E-1,3E-1,6.5E-1,2.009E3,2.3E-1,8.483E3,1.6E1,2.554E3,3.105E3,8.6E-1,2.014E3,5.3E-1,-1.891952E-1,2.1E1,1.7115157E-2,2.3788746E-1,8.631589E-2,-1.6932435E-1,3.0733207E-1,-1.2194761E-3,5.5525865E-4,-1.7922065E-1,9.12E3,9.445E3,5.349835E-2,2.2844766E-1,-2.968572E-2,7.5321876E-2,-2.2530018E-1,-3.4786027E-2,9.909224E-2,-9.769469E-2,1.3891251E-1,-1.2772198E-1,-1.0997089E-1,4.7857728E-2,1.8336229E-1,-2.1171656E-2],"split_indices":[0,0,1,0,0,4,0,1,1,3,0,4,4,4,2,4,0,3,1,0,4,2,4,0,3,0,0,0,0,0,0,0,0,0,0,0,0,0,0,0,0,0,0,0,0,0,0,0,0],"split_type":[0,0,0,0,0,0,0,0,0,0,0,0,0,0,0,0,0,0,0,0,0,0,0,0,0,0,0,0,0,0,0,0,0,0,0,0,0,0,0,0,0,0,0,0,0,0,0,0,0],"sum_hessian":[8.296944E1,6.4750885E1,1.8218557E1,6.3152122E1,1.5987597E0,1.6599882E1,1.6186743E0,5.397268E1,9.179444E0,6.5960984E0,1.0003784E1,3.54743E1,1.8498379E1,4.74541E0,4.4340343E0,2.6980777E0,3.8980207E0,2.424227E0,7.579557E0,2.0782366E0,3.3396065E1,3.3820767E0,1.51163025E1,2.0103471E0,2.7350628E0,1.1005052E0,3.3335292E0,1.6733146E0,1.024763E0,2.3878787E0,1.510142E0,1.2604796E0,1.1637474E0,3.6492772E0,3.9302795E0,1.0484719E0,1.0297647E0,2.7177092E1,6.2189717E0,1.7466383E0,1.6354386E0,6.045578E0,9.0707245E0,1.601932E0,1.1331307E0,1.6834735E0,1.9658039E0,2.3488889E0,1.5813906E0],"tree_param":{"num_deleted":"0","num_feature":"5","num_nodes":"49","size_leaf_vector":"1"}},{"base_weights":[-5.831296E-3,6.6699974E-2,-3.6493942E-2,-3.016972E-2,5.3818256E-1,-1.6031899E-2,-1.7201076E-1,-3.058622E-1,1.0087209E-1,1.9328136E-2,2.1112041E-1,-6.2107977E-2,2.0210257E-1,1.5363261E-1,-1.940068E-1,1.6041742E-1,-2.9236719E-2,-1.6818918E-2,-5.949763E-1,3.118955E-1,-1.0233538E-1,-7.202261E-2,1.2083954E-1,-1.5555237E-1,1.05123706E-1,-6.506619E-2,2.2120929E-1,-5.2539617E-2,-2.0908156E-1,-8.148254E-2,4.7116917E-1,1.192332E-1,-2.8285913E-2,1.1422363E-1,-3.10854E-2,-8.827974E-2,1.518225E-1,2.3084797E-1,6.2136617E-2],"categories":[],"categories_nodes":[],"categories_segments":[],"categories_sizes":[],"default_left":[0,0,0,0,0,0,0,0,0,0,0,0,0,0,0,0,0,0,0,0,0,0,0,0,0,0,0,0,0,0,0,0,0,0,0,0,0,0,0],"id":36,"left_children":[1,3,5,7,9,11,-1,13,15,-1,-1,17,19,21,-1,-1,23,25,27,29,-1,-1,-1,-1,31,33,35,-1,-1,-1,37,-1,-1,-1,-1,-1,-1,-1,-1],"loss_changes":[1.8481751E-1,1.145297E0,6.311127E-1,8.059398E-1,2.8928673E-1,5.8720434E-1,0E0,1.2206962E0,8.789604E-1,0E0,0E0,1.147634E0,7.1509004E-1,4.7509655E-1,0E0,0E0,8.903021E-1,5.339447E-1,3.7553668E-2,9.6554923E-1,0E0,0E0,0E0,0E0,6.673808E-1,6.992316E-1,1.3018982E0,0E0,0E0,0E0,4.2711306E-1,0E0,0E0,0E0,0E0,0E0,0E0,0E0,0E0],"parents":[2147483647,0,0,1,1,2,2,3,3,4,4,5,5,7,7,8,8,11,11,12,12,13,13,16,16,17,17,18,18,19,19,24,24,25,25,26,26,30,30],"right_children":[2,4,6,8,10,12,-1,14,16,-1,-1,18,20,22,-1,-1,24,26,28,30,-1,-1,-1,-1,32,34,36,-1,-1,-1,38,-1,-1,-1,-1,-1,-1,-1,-1],"split_conditions":[1.807E3,1.665E3,9.691E3,3.872E3,2.011E3,8.241E3,-1.7201076E-1,2.267E3,4.644E3,1.9328136E-2,2.1112041E-1,7.694E3,4.645E3,1.784E3,-1.940068E-1,1.6041742E-1,8E0,6.855E3,4.3E-1,2.554E3,-1.0233538E-1,-7.202261E-2,1.2083954E-1,-1.5555237E-1,2.01E3,2.006E3,3.293E3,-5.2539617E-2,-2.0908156E-1,-8.148254E-2,8.56E3,1.192332E-1,-2.8285913E-2,1.1422363E-1,-3.10854E-2,-8.827974E-2,1.518225E-1,2.3084797E-1,6.2136617E-2],"split_indices":[1,1,0,0,2,0,0,0,0,0,0,0,1,0,0,0,3,0,4,1,0,0,0,0,2,2,1,0,0,0,0,0,0,0,0,0,0,0,0],"split_type":[0,0,0,0,0,0,0,0,0,0,0,0,0,0,0,0,0,0,0,0,0,0,0,0,0,0,0,0,0,0,0,0,0,0,0,0,0,0,0],"sum_hessian":[8.100688E1,2.3720856E1,5.7286022E1,2.0454363E1,3.2664938E0,5.6174877E1,1.1111438E0,6.16018E0,1.4294182E1,1.2056078E0,2.060886E0,4.6968994E1,9.205884E0,2.857289E0,3.302891E0,2.5802884E0,1.1713894E1,4.424051E1,2.7284858E0,8.012316E0,1.1935681E0,1.1215721E0,1.7357168E0,1.907755E0,9.806139E0,3.738864E1,6.8518677E0,1.0641812E0,1.6643045E0,1.5668434E0,6.4454727E0,3.5739284E0,6.23221E0,2.2693834E0,3.511926E1,2.4270442E0,4.4248233E0,2.1275315E0,4.317941E0],"tree_param":{"num_deleted":"0","num_feature":"5","num_nodes":"39","size_leaf_vector":"1"}},{"base_weights":[-5.7233446E-3,-7.03493E-2,4.083997E-2,2.5214946E-1,-1.0365002E-1,2.5036192E-1,2.499246E-3,-2.3493017E-3,1.1996955E-1,-8.525477E-3,-2.838233E-1,4.189909E-1,-4.3470535E-2,1.6369809E-1,-4.5975804E-2,-1.2133562E-1,5.250284E-2,-4.0264633E-1,8.632662E-2,-4.636669E-2,1.798422E-1,-9.084297E-2,2.996691E-1,2.5889648E-2,-3.9923924E-1,1.5656154E-1,-2.5406295E-1,6.9348807E-3,-4.7259378E-1,-6.801576E-2,4.916071E-1,-4.881732E-2,4.2146704E-1,-6.10929E-1,4.1154552E-2,-1.07644185E-1,6.935179E-2,4.591344E-2,-1.2513529E-1,-1.667572E-1,-4.153607E-2,1.7904997E-1,-7.016594E-4,5.099767E-2,-4.7539134E-2,-1.3055102E-2,1.788343E-1,-2.3208423E-1,-2.2504112E-2],"categories":[],"categories_nodes":[],"categories_segments":[],"categories_sizes":[],"default_left":[0,0,0,0,0,0,0,0,0,0,0,0,0,0,0,0,0,0,0,0,0,0,0,0,0,0,0,0,0,0,0,0,0,0,0,0,0,0,0,0,0,0,0,0,0,0,0,0,0],"id":37,"left_children":[1,3,5,7,9,11,13,-1,-1,15,17,19,-1,21,23,-1,25,27,-1,-1,-1,-1,29,31,33,35,37,-1,39,-1,41,43,45,47,-1,-1,-1,-1,-1,-1,-1,-1,-1,-1,-1,-1,-1,-1,-1],